svm_type c_svc
kernel_type rbf
gamma 0.25
nr_class 3
total_sv 657
rho -0.0353614 0.00260407 0.0267272
label 1 0 2
nr_sv 209 102 346
SV
0.3760414774955761 0.3915253269042783 1:0.46310166 2:558.0375 
0.8373588974049301 0.8710983187875161 1:0.37365959 2:431.20316 
0.6492609975056294 0.6718289561035918 1:0.37499674 2:446.99611 
0.1720307860681412 0.185164828159882 1:0.36794409 2:436.74963 
0.2387032676385407 0.2459268671831221 1:0.36601575 2:433.36265 
0.001956608523759458 0 1:0.36992208 2:438.35766 
0.2751732581685545 0.2837783425466298 1:0.37126719 2:449.97584 
0.4104869666075042 0.4242678981688927 1:0.36809219 2:435.82115 
0.01305826792117061 0 1:0.3712532 2:440.67755 
0.4555751525242923 0.4536364016416798 1:0.36864033 2:437.94471 
0.03755122771798348 0.1405883562557199 1:0.37105877 2:440.44676 
0.150335405010216 0.1565905479655309 1:0.37057786 2:451.36383 
0.003009573491138519 0.01544294421427432 1:0.37168003 2:440.81252 
0.002167011897733838 0 1:0.37070534 2:440.76864 
0 0.00692737639330384 1:0.37093462 2:439.1866 
0.4884866063210079 0.4011779413864639 1:0.3704712 2:439.74931 
0 0.05243924908350601 1:0.370327 2:438.8375 
0.7635969615098119 0.7938196174567816 1:0.38080288 2:452.77462 
0.4370333585116553 0.3941847398546121 1:0.37240719 2:441.67493 
0.2753894052839849 0.3478641292727392 1:0.37440427 2:442.92025 
0.2315911274119901 0.161559214708671 1:0.37495735 2:443.94951 
0.001113565356560888 0.05608428614735116 1:0.37353069 2:444.50152 
0.9099087764924521 0.9458947088450949 1:0.46489368 2:549.50433 
0.6478560054933843 0.6733488516394073 1:0.41829637 2:544.20358 
0.4993480142262599 0.5228078760632807 1:0.38243892 2:472.69451 
0.9647162550504826 1.002229998444865 1:0.47139721 2:573.21901 
0.8139143775206693 0.8457384707927065 1:0.4013611 2:470.39521 
0.5671652452697299 0.5902818839836351 1:0.38466262 2:479.67429 
0.8173813279829455 0.8506081102423378 1:0.38101283 2:492.64959 
4 1.002956204113814 1:0.3773921 2:767.23814 
0.7030419158666701 0.7305585790775109 1:0.37900945 2:798.1939 
0.9641533738362623 1.002474373959053 1:0.38151385 2:790.49669 
0.7027671407967824 0.7305591673355353 1:0.38286173 2:800.18102 
0.9274224322022508 0.9643272218972258 1:0.38222358 2:813.37178 
0.9338252395223462 0.9702032320207739 1:0.38319263 2:809.68603 
0 0.5189239512021232 1:0.38401305 2:839.83653 
1.384173218134673 0.5182193141707946 1:0.38180933 2:840.36234 
0.9592368309830586 0.9970029122799996 1:0.38041067 2:817.88293 
0.9643187110435167 1.002450433599952 1:0.38125099 2:825.4084 
0.965503133772216 1.002528863033143 1:0.3818234 2:848.02976 
0.9644457837350593 1.002730094501809 1:0.42660667 2:1133.9205 
0.9620357416962453 0.9992904150581452 1:0.43246877 2:512.90797 
0.01554311397315793 0.01205161929276026 1:0.39713512 2:472.98793 
0.2889922356688277 0.3005902378884848 1:0.39561893 2:459.31358 
0.7444095175366284 0.7739925205488669 1:0.3917328 2:466.16203 
0.7247958022751253 0.7533337253360911 1:0.38756965 2:461.59545 
0.8060915492946525 0.8379166768200643 1:0.38334921 2:456.18556 
0.4462809722450543 0.4634661431468526 1:0.38514564 2:458.70846 
0.7790507659749848 0.4727193393730738 1:0.49271038 2:595.19414 
0.6670698206793988 0.6931935674186639 1:0.55095891 2:665.00741 
0.8267950500211023 0.8585795041262346 1:0.36820889 2:484.19469 
0.9645518062514834 1.0024381536878 1:0.33385399 2:424.32842 
0.9647230222668299 1.002601792234521 1:0.40446782 2:606.70172 
0.6553304357126044 0.6818399643085727 1:0.40408169 2:477.22047 
0.4862821727216236 0.4417793490556262 1:0.46947509 2:585.90491 
0.9694790221048107 1.002875326606146 1:0.59795368 2:718.74032 
0.5712190398770484 0.5943258572917244 1:0.44013975 2:498.67834 
0.05437117172015624 0.05709888410843834 1:0.43338905 2:490.16301 
0.6602670863528852 0.6858123524456808 1:0.48861069 2:553.59591 
0.03212050526075928 0.03269059647496893 1:0.42354693 2:480.72576 
0.8486338982646325 0.8822103826901877 1:0.52244457 2:622.23148 
0.546939786215578 0.5685332492734368 1:0.39913287 2:464.19153 
0.9645829451174858 1.002110398809258 1:0.46018382 2:529.2114 
0.5737824208243448 0.5957105768314916 1:0.42654371 2:499.90923 
0.9645191169103337 1.002863977636766 1:0.50108972 2:566.73248 
0.06370209126238108 0.06521683729423121 1:0.42596986 2:478.36415 
0.9645238102707788 1.026521459121162 1:0.28956585 2:341.39814 
1.493396432622815 1.002703000097642 1:0.5911447 2:676.86069 
0.6627855619049112 0.6882094377992755 1:0.48784349 2:559.06864 
0.8531293407951802 0.8863955308899882 1:0.42755445 2:489.12229 
0.5534428965042264 0.5756190606767002 1:0.42225754 2:481.79585 
0.9637843074202562 1.001943682475432 1:0.45807218 2:523.5765 
0.422546083314544 0.4310519020526855 1:0.37836343 2:444.9554 
0.001302497902177756 0 1:0.37865403 2:437.3454 
0.1345718396386016 0.138393729720268 1:0.42703217 2:491.51403 
0.4902559167219898 0.5093631053317189 1:0.51282197 2:578.976 
0.9582053362055845 0.9958998698060164 1:0.54479943 2:617.80256 
0.5535622191489463 0.5762138658388803 1:0.49221169 2:555.21478 
0.6670698229764405 0.693754957283899 1:0.58587489 2:663.21037 
0.6654027560301903 0.6916157894552165 1:0.48336602 2:546.2036 
0.4940277499238281 0.5140255679881849 1:0.51137306 2:579.38567 
0.9600299639806099 0.9972018660288239 1:0.55868887 2:629.64235 
0.4163978372035654 0.4351496013301964 1:0.38484652 2:434.10688 
0.9612438831958012 0.999357588575573 1:0.45857227 2:517.7281 
0.6300118531753612 0.6549504442164759 1:0.42384451 2:474.70585 
0.9569150011417465 0.9940571803170919 1:0.35949901 2:393.65141 
0.913206728725093 0.9497019478255778 1:0.4936214 2:541.00905 
0.7792445657692418 2.55610276408919 1:0.54186317 2:592.79831 
0.4539016490412044 0.4742496260908656 1:0.41040687 2:449.39552 
0.9648948513888628 4 1:0.32726528 2:357.70095 
0.4790688853605291 0.5629651618103211 1:0.52457213 2:585.94707 
0.9568930829177945 0.993849223565949 1:0.35648875 2:389.28572 
0.8509649577923325 0.8839733301777108 1:0.57243644 2:625.1006 
0 4 
0 4 
0 4 
0 4 
0 4 
0 4 
0 4 
0 4 
0 4 
0 4 
0 4 
0 4 
0 4 
0 4 
0 4 
0 4 
0 4 
0 4 
0 4 
0 4 
0 4 
0 4 
0 4 
0 4 
0 4 
0 4 
0 4 
0 4 
0 4 
0 4 
0 4 
0 4 
0 4 
0 4 
0 4 
0 4 
0 4 
0 4 
0 4 
0 4 
0 4 
0 4 
0 4 
0 4 
0 4 
0 4 
0 4 
0 4 
0 4 
0 4 
0 4 
0 4 
0 4 
0 4 
0 4 
0 4 
0 4 
0 4 
0 4 
0 4 
0 4 
0 4 
0 4 
0 4 
0 4 
0 4 
0 4 
0 4 
0 4 
0 4 
1 4 
4 4 
4 4 
4 4 
4 4 
4 4 
4 4 
4 4 
4 4 
4 4 
4 4 
4 4 
4 4 
4 4 
4 4 
4 4 
4 4 
4 4 
4 4 
4 4 
4 4 
4 4 
4 4 
4 4 
4 4 
4 4 
4 4 
4 4 
4 4 
4 4 
4 4 
4 4 
4 4 
4 4 
4 4 
4 4 
4 4 
4 4 
4 4 
4 4 
4 4 
4 4 
4 4 
4 4 
4 4 
3.964621628786773 4 
-1.035519448353376 1.026748911593742 1:0.78230928 2:953.63502 
-1.035189718919185 1.026889411641741 1:2.0047956 2:2373.678 
-1.03529011554423 1.027124628366276 1:2.8960334 2:3423.1115 
-1.035358622075683 1.026720995498847 1:2.6246289 2:3120.6838 
-0.5216939425658299 0.5023538354944377 1:1.0750557 2:1255.665 
-1.03496901496719 1.027212848127989 1:0.80413465 2:1006.7766 
-1.035426967576572 1.027213908021544 1:0.85661336 2:1110.1709 
-1.035834154709849 1.026462020235443 1:2.258714 2:2730.7852 
-1.035423080767281 1.026402467237332 1:1.7078263 2:2016.9429 
-1.035845225946416 1.026539879920842 1:2.5082647 2:3657.0499 
-1.035110391570145 1.026613958789346 1:0.7559296 2:1020.505 
-1.040018828034696 1.026671349724182 1:0.63138046 2:714.0913 
-1.03529011554423 1.026693090025196 1:1.3583035 2:1538.9579 
-1.03566101097589 1.027011207844866 1:3.0982092 2:3538.1549 
-1.035673136133534 1.026578604731109 1:0.85232938 2:975.06481 
-1.032684512898768 1.023874663067839 1:0.82685131 2:940.95679 
-1.01961131874228 1.010778591575817 1:0.63630384 2:727.29529 
-1.034109005731264 1.025508993946339 1:0.87121774 2:996.6731 
-1.035668660465403 1.026559736776115 1:1.8471265 2:2109.4184 
-1.035673136133541 1.026522068472056 1:1.0752812 2:1230.1217 
-1.035378371213227 1.026625430969767 1:1.3240685 2:1512.0862 
-1.03510997692702 1.02669895594825 1:1.5538646 2:1800.9291 
-1.03529078791465 1.02654045321388 1:1.9694847 2:2247.182 
-1.034287549972929 1.025812167288513 1:1.4946451 2:1700.9061 
-1.035399165593567 1.026718242372593 1:1.6202331 2:1848.686 
-1.035353757396398 1.026474729320521 1:1.5613414 2:1775.2452 
-1.035469663652265 1.026712322450665 1:1.1422547 2:1297.6014 
-1.035356225493915 1.026549065591681 1:1.1522059 2:1310.0581 
-1.035041778842682 1.026280205540465 1:1.2611829 2:1433.9649 
-0.5216939425658293 0.5318917385035848 1:1.1026388 2:1255.9056 
-1.034412534758157 1.025821129484425 1:1.491296 2:1695.6036 
-1.035010944015373 1.027199919192035 1:1.8692614 2:2123.481 
-1.035353757396398 1.026691191985432 1:1.4381798 2:1632.3341 
-1.033820749465899 1.025147759041922 1:0.87432911 2:991.48921 
-1.035086361938072 1.026610428512245 1:1.0934619 2:1243.2662 
-0.6916453479724575 0.6857012869622841 1:0.65709562 2:748.43192 
-1.013138170930642 1.00414540881576 1:0.60593604 2:731.3648 
-0.6022542293718355 0.5961568184585081 1:0.60239649 2:701.79191 
-1.035399165593567 1.026515610755843 1:0.73792919 2:861.90129 
-1.035223381241561 1.026646154884516 1:1.0807871 2:1281.8135 
-1.035414539825185 1.026708454519625 1:1.7689418 2:2023.6694 
-1.035271640674827 1.026314008049348 1:0.58459519 2:654.16202 
-1.545684503511542 1.026580555302863 1:0.6068247 2:674.78906 
-0.5966855357461982 0.5926719977875795 1:0.61786733 2:700.66155 
-1.032454725053221 1.023915799862082 1:0.84945743 2:936.10209 
-1.034621732634526 1.026527670905371 1:0.7973469 2:880.27098 
-1.035214380543262 1.026753885572887 1:1.0442033 2:1169.5077 
-1.035454589856904 1.027179764067999 1:0.87603194 2:963.63513 
-4 1.026844172821047 1:0.68522464 2:766.76638 
-1.034393195438173 1.025975577967698 1:0.63109133 2:695.46265 
-1.035119644858316 1.026578604731116 1:0.92807835 2:1034.8074 
-1.0352049827011 1.027230591410388 1:1.5347504 2:1686.6907 
-1.034926054731251 1.026806536877001 1:0.80467293 2:885.94489 
-1.035684936218682 1.026510433971667 1:0.68736662 2:756.10328 
-1.439401178806937 1.026502301739305 1:0.76734925 2:842.54947 
-0.6916461870636301 0.6857649207252583 1:0.68322066 2:746.76018 
-1.029114156810898 1.020479724704182 1:0.67388265 2:735.87986 
-4 4 
-4 4 
-4 4 
-4 4 
-4 4 
-4 4 
-4 4 
-4 4 
-4 4 
-4 4 
-4 4 
-4 4 
-4 4 
-4 4 
-4 4 
-4 4 
-4 4 
-4 4 
-4 4 
-4 4 
-4 4 
-4 4 
-4 4 
-4 4 
-4 4 
-4 4 
-4 4 
-4 4 
-4 4 
-4 4 
-4 4 
-4 4 
-4 4 
-4 4 
-4 4 
-4 4 
-4 4 
-4 4 
-4 4 
-4 4 
-4 4 
-4 4 
-4 4 
-4 4 
-4 4 
-0.1327798186414403 -0.1459474763774094 1:0.077771676 2:92.78161 
-0.3066925165284297 -0.3615853741282563 1:0.074782466 2:90.112871 
-0.9078625037672294 -0.8583768008862578 1:0.26835574 2:337.59153 
-0.6073381962208306 -0.593679361423341 1:0.21251901 2:246.09702 
-0.997069897659476 -0.9732817576274071 1:0.28018527 2:379.37085 
-0.623145100719284 -0.6086087186370307 1:0.080062378 2:99.037162 
-0.6439471642421152 -0.6279048936810205 1:0.078569273 2:107.48277 
-0.003163657993109597 -0.01768996475237205 1:0.076548066 2:92.546611 
0 -0.02928435078139005 1:0.072389843 2:84.623726 
-0.5963198959380517 -0.586738000157641 1:0.070907749 2:83.316605 
-0.7485087311189534 -0.729610388695153 1:0.069357611 2:80.940332 
-0.04815110221885147 -0.004477319301718489 1:0.08077596 2:94.992528 
-0.1315191290485359 0 1:0.11198814 2:153.08779 
-0.260284231700362 -0.2489466645063504 1:0.079362827 2:171.74116 
-0.8753261567359218 -0.8580211129022137 1:0.20600401 2:334.75652 
-0.6498999445160888 -0.6335640203550291 1:0.08550474 2:117.3125 
-0.9511512796720067 -0.9279824538081212 1:0.21759311 2:309.635 
-0.6271338904736359 -0.6129184889437828 1:0.14957426 2:188.91229 
-0.8359936914576248 -0.8163122190585754 1:0.10497121 2:125.54557 
-0.8196085709570821 -0.8000299696970905 1:0.10616415 2:128.2463 
-0.5895283198515169 -0.5755483552065841 1:0.095011361 2:114.96375 
-0.5966297088249218 -0.5822200336222507 1:0.10166182 2:119.45264 
-0.796696795553294 -0.7777958318491086 1:0.11167781 2:131.66814 
-0.5224534834622608 -0.5123029395951734 1:0.11570866 2:140.47031 
-0.9970438551565207 -0.972851990647052 1:0.25053257 2:293.12311 
0 -0.002094725474919977 1:0.071242824 2:85.135175 
0 -0.1831084774359946 1:0.071056863 2:86.689373 
-0.9169821266996546 -0.8949036366630677 1:0.066566178 2:77.948994 
0 -0.1033496547682476 1:0.071457517 2:86.463596 
-0.09347927007812411 -0.1118816739349552 1:0.13161086 2:152.53699 
-0.7402694157737547 -0.7224500241555545 1:0.097360235 2:112.84051 
-0.3447303106983564 -0.3281226855154705 1:0.1279655 2:148.31202 
-0.8276940385774593 -0.8074591208736912 1:0.10552121 2:121.87699 
-0.9969998392632479 -0.9733215452767267 1:0.27176293 2:320.95202 
-0.316273425787829 -0.2994409677294744 1:0.12393747 2:147.11378 
-0.05007914805440492 -0.05374235439352521 1:0.080572625 2:93.705963 
-0.1366010690785866 -0.003890722603815757 1:0.075109538 2:87.277283 
-0.1535265420610565 -0.02330141032762666 1:0.073291074 2:84.944355 
-0.2985751893170283 -0.2902595493631727 1:0.081149407 2:97.541588 
-0.287991782197883 -0.2354882797135477 1:0.080904504 2:93.606512 
-0.323157017313105 -0.07901493537984204 1:0.074711327 2:86.441006 
-0.2787018658188186 -0.385421928151376 1:0.073828206 2:85.271577 
-0.001722362998536378 0 1:0.080294343 2:92.579378 
-0.3970109963028194 -0.3874144334042683 1:0.15529935 2:186.98041 
-0.3568856035078845 -0.3975839043989026 1:0.14697811 2:173.58115 
-0.1535720477243661 -0.2163945724743168 1:0.08063767 2:94.507349 
-0.260307323326735 -0.1739238239340734 1:0.07722911 2:89.276851 
-0.009455742651403115 -0.01630417491605957 1:0.07949359 2:92.053577 
-0.3487512145937985 -0.4336962002433138 1:0.076606665 2:88.097665 
-0.001858029063564419 -0.01636110584727528 1:0.079955449 2:92.268588 
-0.01381496122628346 -0.01193298020729841 1:0.086431843 2:100.77953 
-0.7984254391662109 -0.7804836180334996 1:0.088489144 2:101.67403 
-0.8201984283067896 -0.8005241850651924 1:0.091430581 2:104.77945 
-0.7412025073479036 -0.7241701645076981 1:0.095876843 2:109.68311 
-0.07483519331262055 -0.0624648334790158 1:0.080479693 2:94.000282 
-0.4628980224642514 -0.4033561388941846 1:0.074582056 2:91.586765 
-0.5212358848410996 -0.515092036653132 1:0.076948735 2:96.032021 
-0.2910285346789907 -0.4622092829446414 1:0.13255984 2:153.37173 
-0.781088680757795 -0.7621675605450244 1:0.11909566 2:137.55548 
-0.2514684204509999 -0.2384135509039669 1:0.12490127 2:144.63567 
-0.7913897240938055 -0.7719464637988919 1:0.11610129 2:134.21309 
-0.4666440020844007 -0.4597831651296677 1:0.12109299 2:143.4952 
-0.4959215389402246 -0.4476488280162352 1:0.13757169 2:159.03287 
-0.1822598405747917 -0.1765128944568672 1:0.12031032 2:139.07873 
-0.4228122531764953 -0.4007547410289121 1:0.14576493 2:168.65002 
-0.3589484663619523 -0.3472713787330783 1:0.12294873 2:141.88284 
0 -0.04077071564884281 1:0.12889186 2:148.8701 
-0.4859640699790526 -0.2765440582475144 1:0.13106815 2:151.38371 
-0.3994656934929888 -0.3986450536061402 1:0.12676144 2:145.90241 
-0.4442587951765165 -0.3805540023672799 1:0.12651857 2:149.67147 
-0.2770671620755773 -0.4779675421118212 1:0.13423375 2:155.17421 
-0.06131528586476579 -0.01068913910173376 1:0.134475 2:155.991 
-0.4487627854116853 -0.4179965324953462 1:0.13592848 2:156.86147 
-0.02015443521377899 -0.004019902207904547 1:0.13660037 2:157.50023 
-0.1312700222862813 -0.1832105122037936 1:0.13664849 2:157.96566 
-0.2206600583499139 -0.1979973613726429 1:0.13883647 2:163.82704 
-0.1723514447188733 -0.09890850209181198 1:0.13931207 2:161.04475 
-0.2641572959219017 -0.2527301778365287 1:0.14040144 2:162.30406 
-0.2436276388157191 -0.2601229611977237 1:0.14089602 2:163.15759 
-0.07127842593689447 0 1:0.14436356 2:166.59554 
-0.3858471431706075 -0.3748896750482923 1:0.14252527 2:165.04427 
-0.2002692304577413 -0.2385423262858569 1:0.14395799 2:166.12752 
-0.2907973566020621 -0.310731042737978 1:0.14342568 2:169.95943 
-0.3390495952548172 -0.3681554614001937 1:0.14476094 2:167.19889 
-0.1740898216961164 -0.1922354310456233 1:0.14794679 2:171.02649 
-0.06964373255134794 -0.02933669561779383 1:0.14743797 2:170.4383 
-0.152436689664395 -0.09984133527814401 1:0.14981473 2:174.68398 
-0.07725802155136054 -0.03524466285264189 1:0.15022859 2:173.06333 
-0.1442628160357099 -0.1495501653905138 1:0.14974168 2:172.35268 
-0.3309553996169688 -0.3066842843339888 1:0.15273088 2:176.25144 
-0.07862275447706453 -0.03112861323826334 1:0.15348171 2:177.42485 
-0.3630145670540538 -0.3642725690138525 1:0.15274621 2:180.54602 
0 -0.06721168964323078 1:0.15357468 2:177.22518 
-0.2503905896445942 -0.2835051893100129 1:0.15142404 2:175.19761 
-0.001500345891211162 0 1:0.1515522 2:175.80055 
-0.318929936087911 -0.2872921767354931 1:0.15367945 2:177.65344 
-0.2176628793163714 -0.2243456052829378 1:0.15484796 2:178.69455 
-0.6535844465721915 -0.637829070824021 1:0.15655189 2:185.35743 
-0.2387769994689571 -0.2128955441780133 1:0.15557131 2:179.84043 
-0.7275491395812375 -0.7090608319198342 1:0.15783247 2:182.61216 
-0.05379303659757173 -0.06342472860560025 1:0.15495528 2:178.97335 
-0.001580530368954469 -0.00568396737787609 1:0.175761 2:208.10102 
0 -0.03884993194828591 1:0.17220741 2:198.72736 
-0.1301103183807151 -0.09338889300803078 1:0.17267676 2:199.26898 
0 -0.03532559369804118 1:0.17250548 2:199.07133 
0 -0.006974634996114859 1:0.17275243 2:199.70181 
-0.4191706362854933 -0.4007590383801651 1:0.17693315 2:204.00392 
-0.1902848984550911 -0.2742328693218065 1:0.16701721 2:193.07189 
-0.5647978267434423 -0.5586409843746091 1:0.16530027 2:191.08711 
-0.0119995404571636 -0.00143018797182873 1:0.16618659 2:192.27788 
-0.03250419238146177 -0.09517664019132577 1:0.16748731 2:194.62026 
-0.3059316586433802 -0.2090026000820159 1:0.16770534 2:193.69967 
-0.04290715359815456 -0.03799577600578455 1:0.16796694 2:194.33775 
-0.1248897787221782 -0.09450871591137061 1:0.16911594 2:194.99067 
-0.00407340255791399 -0.001036800331957361 1:0.16456473 2:190.07226 
-0.01611467630110741 -0.01025722750054575 1:0.16932923 2:195.06727 
-0.008107793281416913 -0.01935470815725213 1:0.16842704 2:199.24918 
-0.07597585576292973 -0.0651437069778709 1:0.17032796 2:196.89913 
-0.05061805641227021 -0.07929622302384511 1:0.17024041 2:196.79791 
0 -0.008743774409872127 1:0.17846788 2:205.95194 
-0.01260798729969691 0 1:0.17963685 2:207.66019 
-0.2929526742154659 -0.2399402789738372 1:0.1798956 2:212.27681 
-0.01995596897269644 0 1:0.18135143 2:210.00496 
-0.00252184400422439 0 1:0.18002952 2:207.57404 
-0.3774486351831828 -0.4051928839608375 1:0.18195361 2:215.43307 
0 -0.04892823923445255 1:0.18345218 2:212.07072 
-0.2777526410109137 -0.110445268670311 1:0.18093871 2:208.98421 
-0.02743180641381755 0 1:0.17728702 2:204.76651 
-0.1855982109315537 -0.1163917659870556 1:0.18457757 2:213.00251 
0 -0.2541529833609301 1:0.17743426 2:209.37242 
0 -0.001281011783673768 1:0.17686325 2:204.45391 
-0.1597716605156548 -0.035505171026688 1:0.17805246 2:205.82864 
-0.02496252045722488 0 1:0.17737762 2:205.2259 
-0.03357798556526442 0 1:0.17872381 2:210.71538 
-0.004955138165501342 -0.2230137325577783 1:0.17806112 2:205.48254 
-0.0321173062651283 0 1:0.17719797 2:204.84085 
-0.06139018115097237 0 1:0.17597138 2:202.895 
0 -0.04678620712096129 1:0.17785214 2:205.59708 
-0.008751832219607314 0 1:0.17746777 2:205.33021 
0 -0.002619488364749501 1:0.17764167 2:205.70905 
-0.03010092292669211 -0.1174202505563703 1:0.19187865 2:221.81172 
-0.1066423528841861 0 1:0.1923974 2:222.41139 
-0.02104029539298084 -0.1898910762603755 1:0.18989947 2:219.52379 
-0.1341524416635478 -0.2107808193468882 1:0.19169491 2:221.59931 
-0.0964954050854607 -0.04976181078865367 1:0.19454711 2:224.50737 
-0.001718488959836088 -0.04059975394996324 1:0.19213997 2:221.92166 
-0.0001547611404401012 0 1:0.19493571 2:225.34568 
-0.1321845516173759 -0.1274603423338569 1:0.20557219 2:237.02473 
-0.004067447568914122 -0.007723794166840981 1:0.17457066 2:201.80369 
-2.630739905286108 -0.9734924840773147 1:0.52109834 2:591.44661 
-0.950675719082025 -0.9280357960366749 1:0.28131933 2:313.10842 
-4 -0.9731441256967632 1:0.32098359 2:358.53867 
0 -0.04628658544131621 1:0.18318084 2:205.89527 
-0.01524807534943737 -0.003789628639531774 1:0.18312004 2:205.64381 
0 -0.004820323920852951 1:0.18618988 2:209.27743 
-0.04781873006375171 -0.08957809183623415 1:0.18167321 2:209.28754 
-0.1706647772333475 -0.1106759126926705 1:0.17473423 2:201.99277 
-0.01007610526248124 -0.001954055330353771 1:0.17495304 2:201.89581 
-0.002184798146820825 -0.00174627917327274 1:0.17488552 2:201.46812 
-0.6087855650371339 -0.5932390449672688 1:0.20880425 2:247.43303 
-0.0007415830519078574 -0.00390596347926569 1:0.17457237 2:201.98023 
-0.005506685793933154 -0.01250156108440308 1:0.17533792 2:202.16462 
-0.1078267309586035 -0.009646264269815725 1:0.17415191 2:206.0217 
-0.1512402253914119 -0.02119088911267397 1:0.1752236 2:202.20804 
-0.02416476771405841 -0.0022461892161006 1:0.17722081 2:205.39892 
0 -0.01243012616445753 1:0.17237484 2:199.09295 
-0.08569661931841993 0 1:0.17815456 2:205.94667 
0 -0.06813853757702366 1:0.17792329 2:205.67933 
-0.05134639578708643 -0.004355115378678211 1:0.17548785 2:202.68846 
0 -0.001550365492580929 1:0.17665873 2:204.21749 
-0.005531040573560046 0 1:0.17622335 2:207.94356 
0 -0.03338680313199797 1:0.17762068 2:205.50713 
-0.00485627917172639 -0.002220671985342502 1:0.1773043 2:205.14108 
-0.03116388978194969 0 1:0.17795595 2:205.36117 
-0.03382603896649342 -0.1225652611866821 1:0.17379215 2:202.64165 
-0.1600188734235561 -0.05132443860447747 1:0.17298385 2:200.14232 
-0.00317347377716563 -0.004111354583676964 1:0.17462235 2:201.86343 
-0.02465927607923 -0.03945803839976742 1:0.16859286 2:194.72475 
-0.3923901538453602 -0.3612042298815701 1:0.16944429 2:195.8776 
-0.08128114240940953 0 1:0.18129094 2:209.39103 
-0.4119681387958889 -0.4869172598822852 1:0.17940868 2:207.39644 
-0.0235689112918516 -0.01118582269956074 1:0.18008491 2:208.17815 
-0.07478866855465256 -0.1619749638951375 1:0.18073676 2:213.26938 
-0.03652843389459946 -0.2072575835830122 1:0.17533701 2:202.51425 
0 -0.002311150247395143 1:0.1738422 2:201.30927 
-0.03470734697256778 -0.09140084086617763 1:0.17289839 2:199.69765 
-0.04787754242596867 0 1:0.17281173 2:199.77037 
-0.008221411172648707 0 1:0.17616114 2:207.87015 
-0.4610847172250055 -0.2274311640969064 1:0.18624284 2:216.97291 
-0.002915810130295785 0 1:0.17506943 2:202.2052 
-0.08460430416779839 -0.1590196357336746 1:0.17107037 2:198.09949 
-0.05771637277463054 -0.06012568617545871 1:0.17046927 2:197.23295 
-0.04176594499280373 -0.01112821563613954 1:0.18889393 2:222.13926 
-0.3891804366206847 -0.3040323823344567 1:0.18939378 2:218.56042 
-0.1566655710910645 -0.2362733938458574 1:0.19209019 2:225.51389 
-0.02446214078393122 0 1:0.19587157 2:226.23166 
-0.04856295423152215 -0.009872990592146198 1:0.19198145 2:221.93056 
-0.01835204857981684 0 1:0.19586884 2:226.22851 
-0.8483406294476038 -0.8296315604151621 1:0.200124 2:235.94619 
-0.08562963152441987 -0.05847609329124162 1:0.19651281 2:227.56184 
-0.8592764407598475 -0.837897238201751 1:0.19934605 2:230.84273 
-0.05447192769011545 -0.005515366800211492 1:0.19081457 2:221.3449 
-0.003543535529905937 -0.2430601004001085 1:0.18790218 2:217.21493 
-0.2010569280674252 -0.06555337976940129 1:0.19136941 2:225.24179 
-0.3620711522023818 -0.28173162834423 1:0.19079647 2:220.56072 
-0.4661316368176091 -0.4612287519443643 1:0.1973418 2:228.5218 
-0.3048517366889321 -0.3315124904401474 1:0.19644469 2:227.09007 
0 -0.1133752952088731 1:0.19501761 2:225.24534 
-0.1250172263675966 -0.102387062781859 1:0.19476469 2:225.53751 
-0.1723104154821961 -0.07955770954722717 1:0.18998403 2:219.43155 
-0.001959444832879562 -0.03411298657463183 1:0.18082804 2:209.03721 
-0.9190908121935925 -0.8976171448601398 1:0.19799553 2:239.3766 
-0.4429402417132201 -0.4985557079330727 1:0.19158682 2:223.39023 
-0.332074660875129 -0.2833923863980586 1:0.18501065 2:214.24233 
-0.005389810416735312 0 1:0.18181713 2:210.36242 
-0.008384415735897309 0 1:0.18166987 2:210.37371 
-0.008723200765209733 0 1:0.1779096 2:205.30768 
-0.0745000214835816 0 1:0.18099279 2:209.40866 
-0.00330711147250302 0 1:0.17847465 2:210.60008 
-0.3950566738974992 -0.4155914065629846 1:0.18229225 2:210.91214 
-0.3139105818068589 -0.1723747909748355 1:0.1716549 2:198.26141 
-0.006087257058046757 -0.02419646755069837 1:0.17067308 2:197.46876 
-0.07772328399032864 -0.05335387150098115 1:0.16685101 2:197.38474 
-0.1373908988856414 -0.105460283370032 1:0.16676641 2:192.44844 
-0.2883463750134549 -0.3854232994714291 1:0.17064478 2:200.67826 
-0.99702877556012 -0.9736506376212427 1:0.26123095 2:284.74173 
-0.2222392002686461 -0.006917486194910425 1:0.14189298 2:154.66335 
0 -0.2074195193520747 1:0.13868584 2:151.16756 
-0.3345040145039223 -0.4043077862393264 1:0.14738364 2:160.79556 
-1 0 
-4 0 
-4 0 
-4 0 
-4 0 
-4 0 
-4 0 
-4 0 
-4 0 
-4 0 
-4 0 
-4 0 
-4 0 
-4 0 
-4 0 
-4 0 
-4 0 
-4 0 
-4 0 
-4 0 
-4 0 
-4 0 
-4 0 
-4 0 
-4 0 
-4 0 
-4 0 
-4 0 
-4 0 
-4 0 
-4 0 
-4 0 
-4 0 
-4 0 
-4 0 
-4 0 
-4 0 
-4 0 
-4 0 
-4 0 
-4 0 
-4 0 
-4 0 
-4 0 
-4 0 
-4 0 
-4 0 
-4 0 
-4 0 
-4 0 
-4 0 
-4 0 
-4 0 
-4 0 
-4 0 
-4 0 
-4 0 
-4 0 
-4 0 
-4 0 
-4 0 
-4 0 
-4 0 
-4 0 
-4 0 
-4 0 
-4 0 
-4 0 
-4 0 
-4 0 
-4 0 
-4 -1 
-4 -4 
-4 -4 
-4 -4 
-4 -4 
-4 -4 
-4 -4 
-4 -4 
-4 -4 
-4 -4 
-4 -4 
-4 -4 
-4 -4 
-4 -4 
-4 -4 
-4 -4 
-4 -4 
-4 -4 
-4 -4 
-4 -4 
-4 -4 
-4 -4 
-4 -4 
-4 -4 
-4 -4 
-4 -4 
-4 -4 
-4 -4 
-4 -4 
-4 -4 
-4 -4 
-4 -4 
-4 -4 
-4 -4 
-4 -4 
-4 -4 
-4 -4 
-4 -4 
-4 -4 
-4 -4 
-4 -4 
-4 -4 
-4 -4 
-4 -4 
-4 -4 
-3.997084189869704 -3.973164585340349 
