svm_type c_svc
kernel_type rbf
gamma 0.25
nr_class 3
total_sv 116
rho 0.000524826 0.00440892 0.150381
label 2 1 0
nr_sv 19 39 58
SV
1.000619498031837 1.004598887413288 1:15.492715 2:57.871406 3:4.6255411 4:20.785713 5:3.5429434 6:13.08271 7:2.1878702 8:8.9197947 9:3.73284 10:18.98511 
1.000686094811811 1.00438533922144 1:14.785332 2:80.71205 3:4.273947 4:15.569081 5:3.4706725 6:15.25503 7:2.9917245 8:13.030562 9:2.1206843 10:9.268768 
1.00065569920614 1.004573727072609 1:18.951815 2:71.201673 3:4.5702803 4:19.582353 5:3.2894927 6:14.943424 7:2.8987174 8:14.404701 9:3.005807 10:13.036365 
0.7643446820016478 0.7682360384198295 1:10.384859 2:42.596496 3:3.0870724 4:13.510543 5:1.7430446 6:6.8653779 7:1.238596 8:5.7391435 9:1.0827642 10:3.9975117 
0.9973692606162523 1.001380744305139 1:10.167474 2:44.516208 3:2.3814539 4:10.14779 5:1.4263883 6:6.3589569 7:0.89853174 8:3.5067698 9:0.63793642 10:2.9364442 
1.000181931042752 1.004209251241077 1:14.152243 2:52.431669 3:4.8025596 4:21.986474 5:1.9198885 6:6.9653227 7:2.4121007 8:8.6753107 9:2.630942 10:10.606925 
0.8479038791522761 0.8511557103564377 1:9.7629918 2:43.612692 3:3.7120638 4:15.280166 5:1.8735665 6:7.9444998 7:1.3969802 8:5.7951695 9:0.79226988 10:3.4435467 
1.000007083803701 1.004450095051336 1:12.871286 2:45.065969 3:1.9921737 4:8.2491921 5:1.986398 6:8.513842 7:1.2765754 8:5.5671071 9:3.0675727 10:16.67843 
0.99740999591194 1.001605049435649 1:11.043482 2:48.890883 3:2.6788812 4:12.12771 5:1.6414384 6:6.7269605 7:1.9145274 8:10.131001 9:1.6273293 10:7.5324281 
0.8449769899831152 0.8712305123965811 1:9.1111632 2:39.972831 3:3.0057758 4:13.533146 5:1.6008447 6:6.3096597 7:1.1857626 8:4.4472893 9:1.0117714 10:3.9963704 
1.056088533249452 1.002970870483257 1:8.6116409 2:35.005296 3:3.2764526 4:12.071714 5:2.0804071 6:7.9492198 7:0.8929299 8:3.4390828 9:0.42222451 10:1.5233673 
0.9999820820883892 1.004547518274804 1:12.206975 2:54.657574 3:3.9510857 4:16.618447 5:3.566544 6:14.792677 7:1.8440304 8:7.8028207 9:1.7491616 10:9.2521675 
1.000610971643811 1.004565828569568 1:12.14687 2:50.931892 3:6.5879478 4:26.527809 5:2.1904681 6:10.059065 7:2.5053885 8:12.557033 9:2.5291809 10:12.608016 
1.799557343912129 0.9303560210041515 1:8.3683479 2:39.665579 3:2.4508353 4:11.813969 5:1.6713059 6:8.5344255 7:0.9913021 8:4.328889 9:0.58892307 10:2.975384 
1.093978741616698 1.004823493045616 1:5.2700591 2:23.048986 3:2.1459121 4:8.9979941 5:1.4113721 6:5.4845682 7:1.0391299 8:4.0137835 9:1.0244266 10:4.6927424 
1.000293137666149 1.004020974933216 1:13.212771 2:50.935788 3:4.5627027 4:19.645229 5:3.2181373 6:11.249226 7:1.4669458 8:6.779853 9:2.3447743 10:10.74492 
1.000709773598122 1.00476432350342 1:8.7850449 2:52.269987 3:3.8274157 4:20.297263 5:1.4551505 6:8.3214312 7:1.7790055 8:8.538808 9:1.3192306 10:6.919469 
0.9999943271585889 1.00439594555013 1:14.837815 2:50.576581 3:4.4544631 4:18.188103 5:2.3639558 6:9.3538052 7:2.9482259 8:11.396505 9:2.6994116 10:12.684598 
0.9975759626710453 1.001686097056161 1:10.63211 2:49.778447 3:3.0834875 4:14.335163 5:1.9096544 6:9.5302819 7:1.4146088 8:7.2202916 9:1.389935 10:6.8814679 
-1.000007083803701 1.150038221672476 1:8.500442 2:40.184989 3:1.7131712 4:6.1970136 5:1.1924264 6:5.8258433 7:0.98913514 8:5.2486001 9:0.82168264 10:4.4679715 
-1.035800452324835 1.033537149972332 1:7.7637207 2:38.221434 3:2.3985512 4:12.039481 5:1.3591261 6:7.0463567 7:0.48740072 8:2.0446333 9:0.56544163 10:2.4292819 
-0.9955632007220206 1.145729823919644 1:7.032065 2:34.86085 3:2.21445 4:10.499091 5:0.86694027 6:3.5597212 7:0.80743198 8:3.8031297 9:0.84760247 10:4.0886707 
-1.785551577322792 1.125495108421737 1:8.5004392 2:38.867954 3:2.3308257 4:11.63039 5:1.7100046 6:9.5107547 7:0.81912705 8:4.1972232 9:0.75125219 10:4.2165101 
-1.092578781020849 1.149250461161362 1:6.2753213 2:24.535935 3:1.586563 4:8.1971049 5:1.0273402 6:4.7918859 7:0.67035562 8:3.0253795 9:0.57499606 10:2.7692161 
-1.011545005639224 1.198444312118062 1:6.0745323 2:33.301455 3:2.5825299 4:13.820717 5:1.4629516 6:7.9889511 7:0.41209655 8:1.7445797 9:0.51003636 10:2.6282333 
-1.000000012245551 1.150392285051522 1:7.0352864 2:43.232186 3:2.029606 4:10.612356 5:1.5268237 6:8.2783226 7:1.3484806 8:7.128841 9:1.3913354 10:7.5020177 
-0.9710283094181804 1.117370548503087 1:4.5682266 2:25.670968 3:0.87984034 4:3.4467962 5:0.70753372 6:2.9709756 7:0.8964789 8:4.0839294 9:0.66399372 10:3.1207152 
-0.1534943987069805 0 1:2.7596139 2:14.585692 3:0.80925483 4:3.4762223 5:0.40340894 6:1.7191791 7:0.31968429 8:1.451465 9:0.21305488 10:0.79632566 
-0.9493442412363851 1.055332483117255 1:6.507764 2:36.995528 3:1.9352308 4:10.450858 5:1.2776729 6:7.0196737 7:0.66249182 8:3.6598176 9:0.33217224 10:1.3068825 
-0.6304778460940335 0.4668156034451729 1:3.20495 2:14.94517 3:0.81164683 4:2.9868499 5:0.36529633 6:1.3288218 7:0.30474972 8:1.3394057 9:0.26003826 10:1.1052448 
-0.9992157237067038 1.150152612130289 1:5.8167057 2:34.270116 3:1.6509056 4:9.0947873 5:0.84430001 6:4.3957219 7:1.6055277 8:9.1951171 9:0.96358653 10:5.5591004 
-0.9856399477429847 1.596816151396128 1:2.7446846 2:14.73854 3:0.85102805 4:3.9692223 5:0.94691205 6:4.3075045 7:0.76776586 8:3.9806004 9:0.67016676 10:3.0087892 
-0.3565637034673424 0.2924497775081285 1:2.5814303 2:11.600042 3:0.83746767 4:3.3289141 5:0.30349469 6:1.305424 7:0.2295621 8:0.82688998 9:0.14191235 10:0.56493648 
-0.9993573659965839 1.150338092817412 1:12.354036 2:58.901976 3:2.7432324 4:11.338145 5:0.46522182 6:1.6677344 7:1.9220272 8:10.49057 9:0.96082288 10:4.4553171 
-0.3817189499443229 1.447870021300625 1:2.773612 2:13.517637 3:0.89372281 4:3.1280874 5:0.54809801 6:2.0930698 7:0.38943898 8:1.5367705 9:0.31177201 10:1.549061 
-0.9703536618346843 1.117498791182351 1:3.9471452 2:22.407878 3:0.91851833 4:4.0285652 5:0.94256178 6:3.4913866 7:0.55738847 8:2.5623359 9:0.65280224 10:3.1314596 
0 4 1:1.9808171 2:10.247192 3:0.81781968 4:2.8585801 5:0.50181168 6:1.6921453 7:0.29757528 8:1.1862083 9:0.21481503 10:1.0071881 
-0.9975702775840837 1.148399821282158 1:5.4555522 2:31.213804 3:2.1340532 4:11.619351 5:0.55365076 6:2.0770512 7:0.46811549 8:1.9890762 9:0.50581155 10:2.5128398 
-0.07597971093236225 4 1:1.9094224 2:10.673236 3:0.86275279 4:2.9714693 5:0.50415635 6:2.0178713 7:0.27809694 8:1.1674462 9:0.27311714 10:0.99320126 
0 1.071548862140538 1:2.2744872 2:11.042988 3:0.71233499 4:2.4675661 5:0.34231494 6:1.2000644 7:0.25897721 8:1.2594195 9:0.19806137 10:0.9536794 
0 4 1:1.523932 2:9.2634113 3:0.74181759 4:2.4576672 5:0.52188193 6:2.0127036 7:0.37045313 8:1.5775249 9:0.32261039 10:1.5806286 
-0.4209344302996856 4 1:2.0608225 2:9.8838685 3:0.57887529 4:2.0491048 5:0.30916621 6:1.0119744 7:0.2034508 8:0.81097351 9:0.16137367 10:0.69227377 
0 4 1:2.1516475 2:10.191961 3:0.73965527 4:2.9025123 5:0.41446786 6:1.6489671 7:0.32985555 8:1.4286894 9:0.28166036 10:1.022354 
0 4 1:1.8106921 2:10.578965 3:0.68784758 4:2.4935579 5:0.33836881 6:1.2558793 7:0.21223201 8:0.83807224 9:0.16899056 10:0.66947024 
-0.9975483077665682 1.451118698009706 1:2.9912953 2:17.306648 3:1.4883819 4:7.8127789 5:1.0953143 6:5.7991421 7:0.67228907 8:3.3110786 9:0.49495763 10:2.1968444 
0 3.330661322438794 1:1.9306437 2:10.044495 3:0.81786124 4:2.8568103 5:0.39372302 6:1.2796786 7:0.29231591 8:1.0762385 9:0.21633892 10:0.86400223 
0 4 1:2.4155661 2:12.388861 3:0.78875245 4:2.9445855 5:0.39074861 6:1.3166301 7:0.30171365 8:1.2138678 9:0.20219739 10:0.69529269 
0 4 1:1.9219431 2:9.6263011 3:0.75004744 4:2.4466037 5:0.39627069 6:1.4216811 7:0.295688 8:1.2028642 9:0.27271015 10:1.012908 
0 4 1:1.6329215 2:9.3423013 3:0.76012844 4:2.6338095 5:0.35550434 6:1.5432032 7:0.28536692 8:1.3474025 9:0.19929 10:0.7866283 
-0.4395623388867361 2.452448146264461 1:2.3291677 2:12.294347 3:0.65210344 4:2.2874129 5:0.27387399 6:0.92900556 7:0.23980109 8:0.81582097 9:0.15574275 10:0.6870878 
-0.2007095349343366 4 1:1.7529552 2:8.7340774 3:0.72729836 4:2.6513633 5:0.32636075 6:1.341976 7:0.262676 8:0.91531607 9:0.27905461 10:1.3828609 
-0.7200128667048019 4 1:1.5705928 2:8.6623056 3:0.75171124 4:2.4342894 5:0.71850874 6:2.8266696 7:0.43470346 8:1.7448684 9:0.34839317 10:1.677886 
0 4 1:1.8293756 2:9.5507349 3:0.7691457 4:2.434172 5:0.43964139 6:1.4801427 7:0.27782504 8:1.0629429 9:0.22821317 10:0.87944724 
0 4 1:2.0161317 2:9.5188345 3:0.74873201 4:2.8449952 5:0.38092751 6:1.3694912 7:0.24528095 8:0.96095031 9:0.23930027 10:0.81231263 
-0.23238825983011 4 1:1.882867 2:9.1238162 3:0.90452354 4:3.3633099 5:0.41126599 6:1.58459 7:0.25179632 8:1.1697212 9:0.24848275 10:1.0150997 
0 4 1:1.7789972 2:8.7987646 3:0.76815455 4:2.6025872 5:0.55794345 6:2.497466 7:0.2980067 8:1.2158768 9:0.21773835 10:0.89955517 
0 4 1:1.8139792 2:9.5061682 3:0.84098177 4:2.6343496 5:0.32815177 6:1.1490831 7:0.25372572 8:1.0912649 9:0.21431943 10:0.75516429 
0 4 1:2.1177264 2:10.170464 3:0.76218348 4:2.730534 5:0.33520739 6:1.2983072 7:0.21285278 8:0.9137522 9:0.19140057 10:0.82147475 
0 -3.978004512972907 1:1.8312773 2:11.439547 3:0.78637822 4:2.9803812 5:0.41356565 6:1.9211038 7:0.29848238 8:1.3126984 9:0.1669279 10:0.76302384 
0 -4 1:1.8534285 2:9.7705331 3:0.71840127 4:2.6408509 5:0.40816456 6:1.9276915 7:0.29940568 8:1.0192236 9:0.22552123 10:0.84109045 
0 -4 1:1.8114629 2:10.040318 3:0.69010943 4:2.237131 5:0.35142857 6:1.3093949 7:0.28892888 8:1.0392752 9:0.20690815 10:0.91022734 
-0.9955336887691005 -0.8495806619688884 1:3.5931186 2:22.863418 3:2.4455248 4:14.140342 5:1.3751222 6:7.9802937 7:0.78970882 8:4.5117859 9:0.66324423 10:3.8100334 
-0.03699129625381199 -1.586452353838699 1:1.5217269 2:11.464178 3:0.62528155 4:3.1811599 5:0.47630123 6:2.0917129 7:0.25191962 8:1.1024409 9:0.29290137 10:1.6144852 
-0.9953791968723277 -0.9142898038663002 1:5.5623092 2:30.250935 3:2.559403 4:13.765346 5:1.2743906 6:6.9473992 7:0.28704743 8:1.5843182 9:0.65195946 10:3.6087909 
0 -4 1:2.318713 2:10.740213 3:0.77936633 4:2.8878161 5:0.46681947 6:1.8797513 7:0.2341565 8:0.94366346 9:0.19875974 10:0.67216252 
0 -4 1:1.8126821 2:9.4977771 3:0.80431545 4:2.625256 5:0.3701833 6:1.5251062 7:0.27684346 8:1.1400239 9:0.21285485 10:0.78140149 
-0.2230399249585543 -4 1:2.1325344 2:9.7368453 3:0.68605472 4:2.3919414 5:0.53636719 6:2.4366185 7:0.24653221 8:0.916534 9:0.2588104 10:1.2977733 
0 -4 1:1.9000387 2:9.1140172 3:0.75455767 4:2.5919653 5:0.4382562 6:1.3544717 7:0.3474202 8:1.0660763 9:0.28323621 10:1.0226115 
0 -4 1:2.0800197 2:9.8652813 3:0.78144493 4:2.6105896 5:0.39465905 6:1.3082899 7:0.27090479 8:1.188591 9:0.18698268 10:0.76108397 
0 -4 1:1.6907597 2:9.7094135 3:0.77198508 4:2.5487481 5:0.44309382 6:1.4819742 7:0.28771883 8:1.0787539 9:0.23190131 10:0.87579225 
0 -1.605491797201652 1:1.7955782 2:7.8014406 3:0.90819227 4:3.1633781 5:0.49020823 6:1.8603475 7:0.37911995 8:1.834471 9:0.30103332 10:1.5666615 
0 -4 1:1.8818275 2:8.717585 3:0.72139447 4:2.4176882 5:0.51726624 6:2.0260452 7:0.38756926 8:1.7763125 9:0.24890835 10:1.0082828 
-0.9392943619065625 -1.156219837999045 1:2.5906017 2:18.064607 3:1.3974616 4:7.3122152 5:0.77020364 6:4.0390145 7:0.48348779 8:2.5911319 9:0.54782846 10:3.1255297 
-0.504845381090321 -2.017292340082562 1:1.5640439 2:11.397155 3:0.82838532 4:4.0331487 5:0.24570923 6:1.0613613 7:0.37143796 8:2.1565073 9:0.29177088 10:1.6337127 
-0.4476713017048909 -0.9695936489005554 1:1.410382 2:9.4147097 3:0.9261553 4:3.4631591 5:0.57284386 6:3.1796944 7:0.53351342 8:2.6301966 9:0.57085515 10:3.0883714 
-0.402849226144195 -4 1:2.608103 2:12.422371 3:0.65337889 4:2.7216209 5:0.37351123 6:1.4506873 7:0.30407364 8:1.1765115 9:0.19114034 10:0.70655031 
-0.7301108501765869 -1.937498743540623 1:2.3683783 2:11.64872 3:0.21433872 4:1.147616 5:0.1186494 6:0.56738794 7:0.074157625 8:0.2893558 9:0.073475243 10:0.3221771 
-0.1946523648060391 0 1:1.7284362 2:7.8266749 3:0.91103037 4:2.9606017 5:0.44076715 6:1.6876938 7:0.41997782 8:2.3511617 9:0.33427295 10:1.7484776 
-0.722910197093544 -0.4452082098210598 1:1.6215146 2:11.57811 3:1.0726338 4:5.7872152 5:0.64145875 6:3.5171804 7:0.45067322 8:2.074327 9:0.38286257 10:1.6937011 
-0.1685894885274094 -0.210146063943546 1:1.106321 2:9.432623 3:0.78430065 4:3.8353519 5:0.69311564 6:3.6418687 7:0.49940937 8:2.403609 9:0.37510093 10:1.891701 
0 -4 1:1.9362182 2:9.4226276 3:0.78076475 4:2.4637976 5:0.39681183 6:1.4068756 7:0.31466274 8:1.3939105 9:0.24357632 10:1.2936548 
-0.160538450078466 0 1:1.5462776 2:12.064954 3:0.91814861 4:4.6477021 5:0.50269566 6:2.5354104 7:0.39543749 8:2.2320276 9:0.37358463 10:2.0855626 
-0.9459491224270896 -0.7951554203180377 1:2.6520259 2:18.723993 3:1.1322368 4:6.4336209 5:0.31988943 6:1.7792402 7:0.33191092 8:1.97315 9:0.11119142 10:0.57251755 
0 -2.581848417245247 1:1.545875 2:10.148397 3:0.79888157 4:2.5189543 5:0.38470106 6:1.6326588 7:0.3464611 8:1.5910323 9:0.17019497 10:0.65185346 
-0.9956136833705771 -0.8497385663579159 1:5.0681941 2:29.025415 3:1.9959236 4:8.2877103 5:1.1155688 6:5.2931132 7:1.0575796 8:5.9024739 9:1.3110576 10:7.3644309 
0 -4 1:1.7068699 2:9.1787711 3:0.730375 4:2.3926271 5:0.32085763 6:1.0556322 7:0.23131553 8:0.97562541 9:0.19536715 10:0.70341403 
-0.1308410741648869 0 1:0.18900698 2:5.0257502 3:0.063947405 4:0.25050379 5:0.073932337 6:0.30215233 7:0.085799738 8:0.33993123 9:0.068017957 10:0.29522635 
0 -0.5494122705796952 1:1.8164092 2:8.7617694 3:0.65144506 4:2.5935857 5:0.46657372 6:1.8815053 7:0.24330649 8:1.1390082 9:0.20158895 10:0.84255944 
-0.2450670070886312 -4 1:1.9728107 2:10.044324 3:0.73806493 4:2.4709479 5:0.22919568 6:0.81974706 7:0.22052939 8:0.72663211 9:0.13972285 10:0.57968792 
-0.01672451642197816 -0.2079988287643077 1:0.47227913 2:5.8804016 3:0.13289147 4:0.66791612 5:0.08053146 6:0.32452413 7:0.072445735 8:0.30790469 9:0.068388666 10:0.31201326 
-0.3127214788438548 0 1:0.77777147 2:7.4196584 3:0.16269845 4:0.78970432 5:0.17596676 6:1.050049 7:0.15570881 8:0.87081234 9:0.1297419 10:0.6797309 
-0.4183736817987801 -0.2569094227723581 1:0.13144471 2:4.717418 3:0.053911921 4:0.2394293 5:0.075173 6:0.32724047 7:0.067895942 8:0.26806485 9:0.067932286 10:0.26885527 
-0.03146187828280068 -0.12160249477423 1:0.39170122 2:6.0963219 3:0.12268455 4:0.56546462 5:0.15442775 6:0.80739047 7:0.070984386 8:0.29694065 9:0.11346762 10:0.67893521 
-0.9890535911592327 -0.8417402420007187 1:1.072993 2:10.109046 3:1.027744 4:5.8446382 5:0.95516809 6:5.4326256 7:0.91940067 8:5.2633635 9:0.81283537 10:4.6370001 
0 -3.823642619637831 1:1.9855542 2:9.8812146 3:0.70751579 4:2.3027287 5:0.35501239 6:1.298605 7:0.16993852 8:0.66137873 9:0.11663477 10:0.49081049 
-0.2475777906330805 0 1:1.1941582 2:7.4726331 3:0.27173544 4:1.1071519 5:0.16172274 6:0.6840346 7:0.11550183 8:0.47945069 9:0.098999162 10:0.41731806 
0 -1.34624752263201 1:1.2431532 2:9.2240839 3:0.64038179 4:3.5110013 5:0.50285398 6:2.2626717 7:0.3428098 8:1.3801672 9:0.18435905 10:0.86080248 
-0.1346152004648221 -1.108970733917783 1:0.84514408 2:8.6624811 3:0.5416557 4:3.1058176 5:0.40720821 6:2.3705591 7:0.48944908 8:2.8283307 9:0.45303408 10:2.6089422 
-0.9244649561031135 -0.9797752887673568 1:2.3427789 2:15.299853 3:1.2432343 4:5.7427218 5:0.41883276 6:2.2323364 7:0.56158581 8:2.8051503 9:0.46507218 10:2.0269804 
-0.9857184137592273 -1.336873748835082 1:2.110342 2:15.259711 3:0.86670438 4:4.9016657 5:1.0084054 6:5.7371217 7:0.88372937 8:5.0295787 9:0.57275848 10:3.2978678 
-0.253697162792016 0 1:1.1928292 2:10.081549 3:0.82241356 4:4.7079237 5:0.46870121 6:2.6856229 7:0.28131996 8:1.635515 9:0.16414122 10:0.99829052 
0 -3.789332796324286 1:1.5164477 2:9.7515467 3:0.69394791 4:3.3519042 5:0.43957472 6:2.1202444 7:0.29636177 8:1.4932505 9:0.16621385 10:0.70400347 
-0.8535935237607767 -0.7087331253514052 1:1.7542193 2:12.885019 3:0.27578288 4:1.2078148 5:0.40021782 6:2.3505737 7:0.5019687 8:2.8492119 9:0.15781463 10:0.86879648 
-0.3871685677525675 0 1:1.3835555 2:6.0037913 3:0.74046783 4:2.6425914 5:0.35280344 6:1.3068998 7:0.2326455 8:1.0133717 9:0.19074088 10:0.95374048 
0 -0.07493109737873313 1:0.13230733 2:4.0539634 3:0.061414192 4:0.2459386 5:0.060666119 6:0.27309584 7:0.063146468 8:0.26031329 9:0.088460944 10:0.33985588 
-0.2999733677964875 0 1:0.98202459 2:8.674556 3:0.4696643 4:2.7280235 5:0.25639965 6:1.4046909 7:0.096632626 8:0.40524676 9:0.078814274 10:0.44158183 
-0.4645316346898268 -2.331315486168621 1:1.3277881 2:7.7225753 3:0.4407364 4:1.9430562 5:0.57721391 6:3.0733778 7:0.22654646 8:0.95332929 9:0.29424309 10:1.4229297 
-0.1758722357368055 -0.1830774169820089 1:1.204051 2:5.6475068 3:0.11534654 4:0.60639827 5:0.11860603 6:0.56238621 7:0.10997088 8:0.46576599 9:0.06703739 10:0.31746964 
-0.008333692265971899 0 1:1.0487162 2:5.0072872 3:0.16622453 4:0.65976056 5:0.10117335 6:0.39233856 7:0.064780253 8:0.24447001 9:0.076929091 10:0.32949286 
-0.06205625353753531 -2.372782697605679 1:1.6494274 2:8.3470703 3:0.68960417 4:3.3915497 5:0.2620283 6:1.2622827 7:0.24792924 8:1.0070087 9:0.18143379 10:0.71161955 
-0.8570907611356211 -0.4985397891227858 1:1.072181 2:6.7036024 3:0.67045737 4:3.8542198 5:0.54849495 6:3.1114565 7:0.649125 8:3.6606934 9:0.623758 10:3.5880339 
-0.2830844610547704 -0.7152897887104537 1:1.5909808 2:8.0586288 3:0.79250507 4:4.2237284 5:0.63152922 6:2.4755623 7:0.38179486 8:1.552422 9:0.35568109 10:1.5942002 
-0.1287249811429188 -0.1158267501010377 1:0.5442881 2:3.6105524 3:0.21716806 4:1.1450621 5:0.075841836 6:0.361147 7:0.11079871 8:0.52673356 9:0.084658536 10:0.37802419 
-0.561340971900275 -0.4627596578468592 1:0.55797786 2:4.4180786 3:0.41024778 4:2.134679 5:0.35590626 6:1.8384831 7:0.39121452 8:2.1317494 9:0.35057129 10:1.8520091 
-0.3708070659436097 -0.3444081370342345 1:0.61351155 2:3.557397 3:0.257752 4:1.5074283 5:0.26925553 6:1.5357201 7:0.26393501 8:1.5677469 9:0.25400794 10:1.4798387 
-0.8710936249246427 -0.7350180004887272 1:0.144228 2:1.7110559 3:0.055004713 4:0.22814687 5:0.051428423 6:0.24488255 7:0.041633044 8:0.19231932 9:0.057961073 10:0.24809393 
