svm_type c_svc
kernel_type rbf
gamma 0.25
nr_class 3
total_sv 384
rho -0.0265191 -0.00636541 0.0179538
label 1 0 2
nr_sv 94 57 233
SV
0.3808733326405532 0.388249259567857 1:0.46310166 2:558.0375 
0.8479090290014811 0.8630211729425793 1:0.37365959 2:431.20316 
0.6552887129947639 0.6674845209694634 1:0.37499674 2:446.99611 
0.002099329709749675 0 1:0.36880844 2:438.14442 
0.2041072948557733 0.1774179988637134 1:0.36794409 2:436.74963 
0.2267801896717354 0.2451295033906098 1:0.36601575 2:433.36265 
0.009728063780827127 0 1:0.36992208 2:438.35766 
0.2813656887644425 0.2876568798329376 1:0.37126719 2:449.97584 
0.3916562636083273 0.4242605711688857 1:0.36809219 2:435.82115 
0.04857111007631054 0.003335898103337036 1:0.3712532 2:440.67755 
0.4249521162915227 0.4580049771940525 1:0.36864033 2:437.94471 
0.02363405341293912 0.1239251623556487 1:0.37105877 2:440.44676 
0.002497343475650255 0 1:0.37041206 2:440.79035 
0.1501536969496101 0.1524546216263501 1:0.37057786 2:451.36383 
0 0.0262825249223223 1:0.37168003 2:440.81252 
0.04225257254902427 0 1:0.37093462 2:439.1866 
0.450458559293252 0.4117020574523749 1:0.3704712 2:439.74931 
0 0.04574211069813543 1:0.370327 2:438.8375 
0.7714706507517283 0.7879245263785196 1:0.38080288 2:452.77462 
0.4325490956456028 0.3822912825516778 1:0.37240719 2:441.67493 
0.2794074992558104 0.3507651497122968 1:0.37440427 2:442.92025 
0.2345885791802387 0.1501399581206281 1:0.37495735 2:443.94951 
0 0.07272969994508269 1:0.37353069 2:444.50152 
0.9183944661814829 0.9374276017228067 1:0.46489368 2:549.50433 
0.6541103461025809 0.6671393029718965 1:0.41829637 2:544.20358 
0.5085061449999828 0.5174504988284091 1:0.38243892 2:472.69451 
0.9733603669974465 0.9930081082880567 1:0.47139721 2:573.21901 
0.821003417960906 0.8378582785991266 1:0.4013611 2:470.39521 
0.5781993203150785 0.5880683006084602 1:0.38466262 2:479.67429 
0.8243857263652326 0.8417306706144089 1:0.38101283 2:492.64959 
4 0.9931370921239949 1:0.3773921 2:767.23814 
0.7093311083887703 0.7236694462002808 1:0.37900945 2:798.1939 
0.9733419781770518 0.9935461893857236 1:0.38151385 2:790.49669 
0.7090780095007402 0.7238162381417541 1:0.38286173 2:800.18102 
0.9359289155102181 0.9550985317186231 1:0.38222358 2:813.37178 
0.9425329950511773 0.9617524499608794 1:0.38319263 2:809.68603 
0 0.5133003500662688 1:0.38401305 2:839.83653 
1.391075358083584 0.5146067803660813 1:0.38180933 2:840.36234 
0.9676616902496951 0.9878726439201085 1:0.38041067 2:817.88293 
0.9731607933527026 0.9933645132385587 1:0.38125099 2:825.4084 
0.974192141192305 0.9934555549782317 1:0.3818234 2:848.02976 
0.9735613173602654 0.9938876314261385 1:0.42660667 2:1133.9205 
0.9705830225387114 0.990709406501455 1:0.43246877 2:512.90797 
0.01103908000399195 0.01300944524368235 1:0.39713512 2:472.98793 
0.2926272560797311 0.2980190816688618 1:0.39561893 2:459.31358 
0.7505311297442766 0.7664125732137362 1:0.3917328 2:466.16203 
0.7307690651548833 0.7459786158013492 1:0.38756965 2:461.59545 
0.8139758100071949 0.8303898808581277 1:0.38334921 2:456.18556 
0.44921941590148 0.4590321666890874 1:0.38514564 2:458.70846 
0.7866421210308224 0.4648275184201727 1:0.49271038 2:595.19414 
0.673532736725345 0.6870859789194514 1:0.55095891 2:665.00741 
0.8334917407862961 0.8511517008102595 1:0.36820889 2:484.19469 
0.9733840742506514 0.9935938359815645 1:0.33385399 2:424.32842 
0.973542009497655 0.9936414627233279 1:0.40446782 2:606.70172 
0.6630177898249814 0.6759742773140553 1:0.40408169 2:477.22047 
0.4838513850311706 0.4364727733701692 1:0.46947509 2:585.90491 
0.9784797806122462 0.9939120674279899 1:0.59795368 2:718.74032 
0.5769914017441489 0.5889097825232427 1:0.44013975 2:498.67834 
0.0549505558416651 0.05450202718859604 1:0.43338905 2:490.16301 
0.6666495381985511 0.6801295091521254 1:0.48861069 2:553.59591 
0 0.0285119509905909 1:0.42354693 2:480.72576 
0.8568215974786634 0.8748622422728847 1:0.52244457 2:622.23148 
0.552281942674299 0.5636581785027097 1:0.39913287 2:464.19153 
0.9727873173338452 0.9928281573694111 1:0.46018382 2:529.2114 
0.5783364320371496 0.590908670396585 1:0.42654371 2:499.90923 
0.9735303383885979 0.9935637107190457 1:0.50108972 2:566.73248 
0.06056376949431758 0.06354534200855581 1:0.42596986 2:478.36415 
0.9735805000447408 1.018498111986568 1:0.28956585 2:341.39814 
1.499879452279344 0.9938360359135745 1:0.5911447 2:676.86069 
0.6672283877659598 0.6819216066446938 1:0.48784349 2:559.06864 
0.860474943514452 0.8795681169558761 1:0.42755445 2:489.12229 
0.5634119728917316 0.5726961223661399 1:0.42225754 2:481.79585 
0.9729048498682383 0.9934055579895024 1:0.45807218 2:523.5765 
0.02472493519047192 0 1:0.42016204 2:480.66538 
0.4259792058527593 0.4160022072538692 1:0.37836343 2:444.9554 
0.1362239752111318 0.1395434278311694 1:0.42703217 2:491.51403 
0.4948006843822839 0.5049752763564316 1:0.51282197 2:578.976 
0.9672007124464883 0.9875400835799238 1:0.54479943 2:617.80256 
0.5584810527482093 0.5701926783615475 1:0.49221169 2:555.21478 
0.6731112377260001 0.6873180488483789 1:0.58587489 2:663.21037 
0.6716912287451642 0.686201336317742 1:0.48336602 2:546.2036 
0.4986062847717543 0.508860013225776 1:0.51137306 2:579.38567 
0.9685978251261775 0.9885295441706535 1:0.55868887 2:629.64235 
0.4388242819748832 0.4286661624778909 1:0.38484652 2:434.10688 
0.9698533104484234 0.9905392377911925 1:0.45857227 2:517.7281 
0.6357570280620906 0.6491187829596867 1:0.42384451 2:474.70585 
0.9654884231000365 0.9855689966961181 1:0.35949901 2:393.65141 
0.9219559647164073 0.9407754292614057 1:0.4936214 2:541.00905 
0.7862406781742166 2.553066764193623 1:0.54186317 2:592.79831 
0.4551728749061644 0.4646178790286993 1:0.41040687 2:449.39552 
0.9735186629572185 4 1:0.32726528 2:357.70095 
0.4901060179403541 0.5593745085009263 1:0.52457213 2:585.94707 
0.9653679678633085 0.9855775138449909 1:0.35648875 2:389.28572 
0.85901001077175 0.8762336873905168 1:0.57243644 2:625.1006 
-1.026591082384973 1.017929112945918 1:0.78230928 2:953.63502 
-1.026537299749597 1.018016273705934 1:2.0047956 2:2373.678 
-1.026492935773692 1.018196232231783 1:2.8960334 2:3423.1115 
-1.026643110351844 1.018234507914302 1:2.6246289 2:3120.6838 
-0.5279601944218421 0.5123483306550626 1:1.0750557 2:1255.665 
-1.026235305854619 1.017879120301564 1:0.80413465 2:1006.7766 
-1.02642603661562 1.018109148374421 1:0.85661336 2:1110.1709 
-1.026595359473417 1.01792517607106 1:2.258714 2:2730.7852 
-1.026545738866391 1.018039292572165 1:1.7078263 2:2016.9429 
-1.026235305863074 1.01801951299781 1:2.5082647 2:3657.0499 
-1.026056993126909 1.017635920335003 1:0.7559296 2:1020.505 
-1.031028078604034 1.017917071526683 1:0.63138046 2:714.0913 
-1.026503732997594 1.018152539450827 1:1.3583035 2:1538.9579 
-1.026477148801518 1.018208187063205 1:3.0982092 2:3538.1549 
-1.026665012157214 1.018018610344234 1:0.85232938 2:975.06481 
-1.023231805233438 1.015106202114436 1:0.82685131 2:940.95679 
-1.010743914350155 1.00167867191755 1:0.63630384 2:727.29529 
-1.025234716274401 1.016732474303001 1:0.87121774 2:996.6731 
-1.026628802142715 1.017917071526683 1:1.8471265 2:2109.4184 
-1.026207839382919 1.017969128068104 1:1.0752812 2:1230.1217 
-1.026599428989569 1.017813818223601 1:1.3240685 2:1512.0862 
-1.026292819691539 1.017951359500984 1:1.5538646 2:1800.9291 
-1.026537299749597 1.018103415441316 1:1.9694847 2:2247.182 
-1.025720953186858 1.017027583273869 1:1.4946451 2:1700.9061 
-1.026975538709583 1.01791706735526 1:1.6202331 2:1848.686 
-1.026419499955259 1.018014888275008 1:1.5613414 2:1775.2452 
-1.026754602227875 1.01838582136321 1:1.1422547 2:1297.6014 
-1.02656429062181 1.018050992725045 1:1.1522059 2:1310.0581 
-1.027010067006168 1.018013030639987 1:1.2611829 2:1433.9649 
-0.5059285062156551 0.5130274117104781 1:1.1026388 2:1255.9056 
-1.025646173922989 1.017103497477996 1:1.491296 2:1695.6036 
-1.026076518596582 1.018064904691637 1:1.8692614 2:2123.481 
-1.026653029662644 1.017471014027712 1:1.4381798 2:1632.3341 
-1.024825993065948 1.016758939320777 1:0.87432911 2:991.48921 
-1.026599428989569 1.017857674832006 1:1.0934619 2:1243.2662 
-0.6854884929802957 0.6798630817029285 1:0.65709562 2:748.43192 
-1.004458790251998 0.9960090402264304 1:0.60593604 2:731.3648 
-0.596082331562325 0.5908802524578629 1:0.60239649 2:701.79191 
-1.02616339860615 1.017580689358351 1:0.73792919 2:861.90129 
-1.026175739536018 1.017925819775216 1:1.0807871 2:1281.8135 
-1.026049120803888 1.018073507898743 1:1.7689418 2:2023.6694 
-1.02656614145349 1.01772491527976 1:0.58459519 2:654.16202 
-1.539598054953788 1.01799579824846 1:0.6068247 2:674.78906 
-0.5924779577423207 0.5873918138760442 1:0.61786733 2:700.66155 
-1.023237938717243 1.015292834955209 1:0.84945743 2:936.10209 
-1.025727817018784 1.01752371515037 1:0.7973469 2:880.27098 
-1.026553514125199 1.01792517607106 1:1.0442033 2:1169.5077 
-1.026426036601405 1.01813927219693 1:0.87603194 2:963.63513 
-4 1.017875254303375 1:0.68522464 2:766.76638 
-1.025790371253392 1.017200187586656 1:0.63109133 2:695.46265 
-1.026713317717545 1.017916632548576 1:0.92807835 2:1034.8074 
-1.026175737100674 1.018018607933846 1:1.5347504 2:1686.6907 
-1.025880493277801 1.017892312395644 1:0.80467293 2:885.94489 
-1.026076238357551 1.017926824005882 1:0.68736662 2:756.10328 
-1.432487748601222 1.017641684269632 1:0.76734925 2:842.54947 
-0.6860806166816968 0.6799579423434556 1:0.68322066 2:746.76018 
-1.0201046371986 1.011807941781117 1:0.67388265 2:735.87986 
-0.142716380796557 -0.007210911696283192 1:0.077771676 2:92.78161 
-0.3173548498016693 -0.3107559144290957 1:0.074782466 2:90.112871 
-0.9151029599668152 -0.8664362284344271 1:0.26835574 2:337.59153 
-0.6134496652827041 -0.5980291979232165 1:0.21251901 2:246.09702 
-1.006339914283149 -0.9822057861507939 1:0.28018527 2:379.37085 
-0.6268852205739083 -0.6124887339101432 1:0.080062378 2:99.037162 
-0.6495073093757154 -0.6335833931863762 1:0.078569273 2:107.48277 
0 -0.02458520017013931 1:0.076548066 2:92.546611 
-0.5978254476199157 -0.5915625702845095 1:0.070907749 2:83.316605 
-0.7561734456274578 -0.7365086968410496 1:0.069357611 2:80.940332 
-0.05910516667390946 -0.08647648812865888 1:0.08077596 2:94.992528 
-0.1846105146793644 -0.04588492039086841 1:0.11198814 2:153.08779 
-0.2506920716905738 -0.1921215580582823 1:0.079362827 2:171.74116 
-0.8838396682329017 -0.8659810844570923 1:0.20600401 2:334.75652 
-0.6554671057004061 -0.6392574802577102 1:0.08550474 2:117.3125 
-0.9592831295686253 -0.9364821481304498 1:0.21759311 2:309.635 
-0.631586508172258 -0.617673055981525 1:0.14957426 2:188.91229 
-0.8437924950549924 -0.8235834390417096 1:0.10497121 2:125.54557 
-0.8271108910356607 -0.8069681689130147 1:0.10616415 2:128.2463 
-0.5949881467065286 -0.5804840851636019 1:0.095011361 2:114.96375 
-0.6016206320150005 -0.5876714590004201 1:0.10166182 2:119.45264 
-0.8037890503366825 -0.7843003458363971 1:0.11167781 2:131.66814 
-0.5292563264756029 -0.5165216726364081 1:0.11570866 2:140.47031 
-1.005866983349136 -0.9821247225044472 1:0.25053257 2:293.12311 
-0.02947268823668776 -0.02636110952799404 1:0.071242824 2:85.135175 
0 -0.1108589102460253 1:0.071056863 2:86.689373 
-0.9256403072416421 -0.9030288611907664 1:0.066566178 2:77.948994 
0 -0.1380570511939577 1:0.071457517 2:86.463596 
-0.07648810426229553 -0.09007036644464143 1:0.13161086 2:152.53699 
-0.7465333050668193 -0.7286595823359776 1:0.097360235 2:112.84051 
-0.3667174537039893 -0.3051903021705805 1:0.1279655 2:148.31202 
-0.8353174973024673 -0.8147156202563338 1:0.10552121 2:121.87699 
-1.006718275520472 -0.982071489647878 1:0.27176293 2:320.95202 
-0.2995036737623152 -0.3041634376020146 1:0.12393747 2:147.11378 
-0.07687387664068396 -0.1139636228769449 1:0.080572625 2:93.705963 
-0.09075399783587915 -0.0970811666069326 1:0.075109538 2:87.277283 
-0.1862703114112538 -0.08441717668370734 1:0.073291074 2:84.944355 
-0.3047561685601943 -0.2954882085456285 1:0.081149407 2:97.541588 
-0.2977612690507034 -0.3316282108948715 1:0.080904504 2:93.606512 
-0.3677474292701179 -0.07691540089033971 1:0.074711327 2:86.441006 
-0.2068844649223222 -0.3311837734074118 1:0.073828206 2:85.271577 
0 -0.001851160171750126 1:0.080294343 2:92.579378 
-0.4011290402294416 -0.3915787601271262 1:0.15529935 2:186.98041 
-0.3792689787936009 -0.2937932999664166 1:0.14697811 2:173.58115 
-0.1671805990093461 -0.09966287881582644 1:0.08063767 2:94.507349 
-0.246404814805704 -0.2469966657380861 1:0.07722911 2:89.276851 
0 -0.03155792976411967 1:0.07949359 2:92.053577 
-0.3834687293389634 -0.357219314462117 1:0.076606665 2:88.097665 
-0.002571996755653624 -0.06461215483893751 1:0.079955449 2:92.268588 
-0.01404718642978713 -0.01396491249504147 1:0.086431843 2:100.77953 
-0.8057585677824267 -0.786118064054937 1:0.088489144 2:101.67403 
-0.8273030725290247 -0.8076294564199371 1:0.091430581 2:104.77945 
-0.7489016012676137 -0.7304851782275508 1:0.095876843 2:109.68311 
-0.02523580398896517 -0.02668154157742537 1:0.080479693 2:94.000282 
-0.4704693320336646 -0.4214177950921019 1:0.074582056 2:91.586765 
-0.5180500574515371 -0.5059878342759775 1:0.076948735 2:96.032021 
-0.2576843088312148 -0.4378051591417917 1:0.13255984 2:153.37173 
-0.7882357585107519 -0.7694566045795388 1:0.11909566 2:137.55548 
-0.2424813582268044 -0.2368626294998463 1:0.12490127 2:144.63567 
-0.7985143378720891 -0.7794083042478561 1:0.11610129 2:134.21309 
-0.4775687895751068 -0.4670195415810138 1:0.12109299 2:143.4952 
-0.5012420927548632 -0.4556979685195511 1:0.13757169 2:159.03287 
-0.1828073957412473 -0.1784885107650954 1:0.12031032 2:139.07873 
-0.4246732411547818 -0.417561302376483 1:0.14576493 2:168.65002 
-0.3590029325544855 -0.3497416384571437 1:0.12294873 2:141.88284 
0 -0.08702658372176923 1:0.12889186 2:148.8701 
-0.4075412525027859 -0.2636621289864485 1:0.13106815 2:151.38371 
-0.4188977971535527 -0.404846643896859 1:0.12676144 2:145.90241 
-0.4297917242123668 -0.3468234126209497 1:0.12651857 2:149.67147 
-0.0008401616306570685 -0.008255376505810003 1:0.12998448 2:150.13207 
-0.06080859808338735 0 1:0.13096733 2:151.26726 
-0.261188841655297 -0.4875354515304476 1:0.13423375 2:155.17421 
-0.07327580503121396 0 1:0.134475 2:155.991 
-0.4552434073553691 -0.4352120102016862 1:0.13592848 2:156.86147 
-0.002848450985723144 0 1:0.13660037 2:157.50023 
-0.1456337250892763 -0.1790201276347382 1:0.13664849 2:157.96566 
-0.1315989447621483 -0.1955304619458299 1:0.13883647 2:163.82704 
-0.2816137251014552 -0.09149301843382152 1:0.13931207 2:161.04475 
-0.1876561523106895 -0.2585076566350828 1:0.14040144 2:162.30406 
-0.3645776751783271 -0.2621132487767084 1:0.14089602 2:163.15759 
-0.07288282696074187 -0.06068694265467026 1:0.14436356 2:166.59554 
-0.428565119381061 -0.3888632864453247 1:0.14252527 2:165.04427 
-0.177855383907546 -0.1988327019048044 1:0.14395799 2:166.12752 
-0.2813440981683589 -0.2670051186763366 1:0.14342568 2:169.95943 
-0.3520879609607117 -0.3393693756641315 1:0.14476094 2:167.19889 
-0.1703411748582675 -0.1775184357973006 1:0.14794679 2:171.02649 
-0.09020236060129064 -0.09693937373526643 1:0.14743797 2:170.4383 
-0.1192493955556764 -0.04708458102049186 1:0.14981473 2:174.68398 
-0.05229023244636078 -0.05089625690512194 1:0.15022859 2:173.06333 
-0.1648676863594573 -0.2260714222477852 1:0.14974168 2:172.35268 
-0.0009323315369822761 0 1:0.15007566 2:173.48746 
-0.0008240890044812956 -0.2000138297305528 1:0.15069523 2:174.50507 
-0.3379595228644633 -0.3196177853532756 1:0.15273088 2:176.25144 
-0.04606880537693465 -0.04182525583967386 1:0.15348171 2:177.42485 
-0.3774932891306302 -0.3588241420243621 1:0.15274621 2:180.54602 
0 -0.02695114520925987 1:0.15357468 2:177.22518 
-0.01734277142078 0 1:0.15084491 2:174.52756 
-0.2646806248067762 -0.1348031060544342 1:0.15142404 2:175.19761 
0 -0.07582360843099613 1:0.1515522 2:175.80055 
-0.3659576444906537 -0.2987581468094914 1:0.15367945 2:177.65344 
-0.128118964236694 -0.2803022035852826 1:0.15484796 2:178.69455 
-0.6591835350114148 -0.6430311111716156 1:0.15655189 2:185.35743 
-0.2106869356447096 -0.2380024980506108 1:0.15557131 2:179.84043 
-0.7328196160825972 -0.715776024272216 1:0.15783247 2:182.61216 
-0.1521184735202084 0 1:0.15495528 2:178.97335 
-0.05425895201912818 -0.07682812509896114 1:0.17267676 2:199.26898 
-0.005275407476303963 -0.002803403239937434 1:0.17250548 2:199.07133 
-0.006111984838295992 0 1:0.17275243 2:199.70181 
-0.4301134389469018 -0.3754868802457758 1:0.17693315 2:204.00392 
-0.2334561897398958 -0.2613037083949368 1:0.16701721 2:193.07189 
-0.5670727810552185 -0.5620354539149285 1:0.16530027 2:191.08711 
-0.03097412022224522 -0.03479213988178247 1:0.16618659 2:192.27788 
-0.05389889664942465 -0.05012733459035122 1:0.16748731 2:194.62026 
-0.254219895594013 -0.2442821223250776 1:0.16770534 2:193.69967 
-0.07349447732077596 -0.04379575523754421 1:0.16796694 2:194.33775 
-0.09506292390272222 -0.1190243088958298 1:0.16911594 2:194.99067 
-0.00675255530602962 -0.001964312495209953 1:0.16456473 2:190.07226 
-0.01455813089268824 -0.0108356114048199 1:0.17083896 2:197.48984 
-0.01790045673895872 -0.03540637309987353 1:0.16932923 2:195.06727 
-0.0251182931787891 -0.01228196803933851 1:0.16842704 2:199.24918 
-0.05041842084585241 -0.06278478061208508 1:0.17032796 2:196.89913 
-0.0941905973865781 -0.08197548065413068 1:0.17024041 2:196.79791 
-0.1601839970100604 0 1:0.17846788 2:205.95194 
0 -0.003684685135812446 1:0.1777187 2:209.88578 
0 -0.001887929712880288 1:0.17917574 2:207.30633 
-0.009340873706433668 -0.001284893508161163 1:0.17963685 2:207.66019 
0 -0.003378348443583065 1:0.18181124 2:209.99199 
-0.1792473745622394 -0.2882808221820644 1:0.1798956 2:212.27681 
-0.01964421950208019 -0.03208547716925163 1:0.18082547 2:209.03424 
0 -0.01241967535766906 1:0.18170097 2:209.86462 
0 -0.01732268186549091 1:0.18135143 2:210.00496 
0 -0.001816487965311335 1:0.18002952 2:207.57404 
-0.3865606715178234 -0.4104229115278489 1:0.18195361 2:215.43307 
-0.2481510387411775 -0.03789998584611008 1:0.18101963 2:209.25869 
-0.09757334241459258 0 1:0.18345218 2:212.07072 
-0.05642252926281765 -0.2930685335711216 1:0.18093871 2:208.98421 
0 -0.01231448622313275 1:0.17728702 2:204.76651 
-0.2486980065621394 -0.1275730164406153 1:0.18457757 2:213.00251 
0 -0.002082746335035128 1:0.17686325 2:204.45391 
-0.01788802691212122 0 1:0.17805246 2:205.82864 
-0.01669127191957364 -0.004081878606594935 1:0.17737762 2:205.2259 
0 -0.01158035961319077 1:0.17872381 2:210.71538 
0 -0.2165322967930735 1:0.17806112 2:205.48254 
-0.005119546235942608 -0.001845175682507829 1:0.17719797 2:204.84085 
-0.03047680288531741 -0.02340574860040533 1:0.17785214 2:205.59708 
0 -0.01668832741966171 1:0.17764167 2:205.70905 
-0.01414174796444419 -0.09488070984450099 1:0.19187865 2:221.81172 
-0.154052789963472 -0.0523354872000933 1:0.1923974 2:222.41139 
-0.02609937837026674 -0.06245669211409575 1:0.19109221 2:221.09368 
0 -0.021371097255418 1:0.19218052 2:222.16068 
0 -0.1244849635468679 1:0.18989947 2:219.52379 
-0.007943669702260254 -0.08141679387691866 1:0.19169491 2:221.59931 
-0.1590190451612808 -0.06419921611750393 1:0.19454711 2:224.50737 
-0.005838157931493337 -0.02039491489448121 1:0.19213997 2:221.92166 
-0.1338305342168611 -0.1299816357403783 1:0.20557219 2:237.02473 
-0.01005531684610803 -0.006902598415567842 1:0.17457066 2:201.80369 
-2.637525524979127 -0.9824684193398098 1:0.52109834 2:591.44661 
-0.9593826755872784 -0.936209913479957 1:0.28131933 2:313.10842 
-4 -0.9820120995563503 1:0.32098359 2:358.53867 
-0.05563359152006282 -0.02137723001923753 1:0.18318084 2:205.89527 
-0.008779943019254624 -0.01640255743918215 1:0.18312004 2:205.64381 
0 -0.01861678210233932 1:0.19679802 2:221.00417 
-0.1836995612546822 -0.05131149159689017 1:0.18618988 2:209.27743 
-0.1769477120126693 -0.1273579875369192 1:0.17473423 2:201.99277 
0 -0.0063999095215323 1:0.17495304 2:201.89581 
-0.008777563559039355 -0.01818071331910913 1:0.17488552 2:201.46812 
-0.6136471007400575 -0.5993161547352258 1:0.20880425 2:247.43303 
-0.07356328291278727 -0.02623748716306146 1:0.17537021 2:202.55259 
0 -0.008864273932973146 1:0.17457237 2:201.98023 
0 -0.001620111664912326 1:0.17533792 2:202.16462 
0 -0.176712317118345 1:0.17415191 2:206.0217 
-0.1224688454674404 -0.006859079499303272 1:0.1752236 2:202.20804 
-0.04765743439165066 0 1:0.17722081 2:205.39892 
-0.01074740321549741 -0.07477068871831091 1:0.17237484 2:199.09295 
-0.009812527950919421 0 1:0.17792329 2:205.67933 
-0.05309372678898074 0 1:0.17548785 2:202.68846 
0 -0.04422444581463734 1:0.17665873 2:204.21749 
-0.0195490110145574 -0.008834609292504887 1:0.17762068 2:205.50713 
-0.1370943337489653 0 1:0.17795595 2:205.36117 
-0.006871605884022405 -0.1181268781269731 1:0.17379215 2:202.64165 
-0.1914983451242653 -0.0645528594193852 1:0.17298385 2:200.14232 
-0.003870447246651921 -0.00456147010089235 1:0.17462235 2:201.86343 
-0.02836294354699726 -0.02156380302698651 1:0.16859286 2:194.72475 
-0.3913489209103213 -0.355913277394619 1:0.16944429 2:195.8776 
-0.4763994829674135 -0.4418265947452395 1:0.17940868 2:207.39644 
-0.01686804465621311 0 1:0.18008491 2:208.17815 
-0.03780174593121986 -0.1483642783554956 1:0.18073676 2:213.26938 
-0.02765512685567639 -0.1876697436330467 1:0.17533701 2:202.51425 
-0.001819540948814443 0 1:0.1738422 2:201.30927 
-0.02656489802593353 -0.08522213726884326 1:0.17289839 2:199.69765 
-0.07639960501409875 -0.01708814119434151 1:0.17281173 2:199.77037 
-0.05906438962392894 0 1:0.17479566 2:202.76296 
0 -0.004792150442065846 1:0.17616114 2:207.87015 
-0.4096384167657813 -0.2178382650273574 1:0.18624284 2:216.97291 
-0.0650298756701362 0 1:0.17107037 2:198.09949 
-0.05686866413300836 -0.05107146744037677 1:0.17046927 2:197.23295 
0 -0.003498114882037294 1:0.18210183 2:209.96341 
-0.06817597516057305 -0.06348585520526405 1:0.18889393 2:222.13926 
-0.3731797411170946 -0.3019525690231097 1:0.18939378 2:218.56042 
-0.04010052761333456 -0.1001658312060836 1:0.19209019 2:225.51389 
-0.1040157160538906 -0.0441023505310253 1:0.19587157 2:226.23166 
-0.07266577000080257 -0.007208293298640592 1:0.19198145 2:221.93056 
-0.08189607700549466 -0.04157734534908646 1:0.19586884 2:226.22851 
-0.8555579152787071 -0.8359481361378183 1:0.200124 2:235.94619 
-0.1640217903852769 -0.07702178474571887 1:0.19651281 2:227.56184 
-0.8683586844625394 -0.8458265890970548 1:0.19934605 2:230.84273 
-0.1098473792089368 -0.03213432072005699 1:0.19081457 2:221.3449 
-0.06411880561292409 -0.2570288071678122 1:0.18790218 2:217.21493 
-0.2387352782145761 -0.3390733832126426 1:0.19136941 2:225.24179 
-0.3551660039037946 -0.2652754124302657 1:0.19079647 2:220.56072 
-0.4598230862839655 -0.4618859246937659 1:0.1973418 2:228.5218 
-0.1780831951800701 -0.2972954081568682 1:0.19644469 2:227.09007 
-0.09336494117328495 -0.02529234720330354 1:0.19476469 2:225.53751 
-0.2072071078173794 -0.1474659206497076 1:0.18998403 2:219.43155 
0 -0.02371810086854031 1:0.18122901 2:209.68196 
-0.9280793242808408 -0.9053270101482789 1:0.19799553 2:239.3766 
-0.3896582362493293 -0.4506543658803205 1:0.19158682 2:223.39023 
-0.3356500204555626 -0.2881093268455274 1:0.18501065 2:214.24233 
0 -0.008014586288276507 1:0.18181713 2:210.36242 
-0.002599235721816398 0 1:0.18166987 2:210.37371 
-0.001566439567829746 -0.002746803637788087 1:0.1779096 2:205.30768 
0 -0.04252029773792885 1:0.18099279 2:209.40866 
-0.005058183293220757 -0.00602019957279694 1:0.17847465 2:210.60008 
-0.424756412611495 -0.4075445636070765 1:0.18229225 2:210.91214 
-0.3547255980060675 -0.3465927633481701 1:0.1716549 2:198.26141 
-0.00662498364524303 -0.008062404645002536 1:0.17067308 2:197.46876 
-0.04896263687030199 -0.09006469773518816 1:0.16685101 2:197.38474 
-0.1067481645997626 -0.07368489438231045 1:0.16676641 2:192.44844 
-0.2614817732816666 -0.365275387110255 1:0.17064478 2:200.67826 
-1.006358312798602 -0.9819777168810795 1:0.26123095 2:284.74173 
-0.2371227789530342 -0.007454512658271781 1:0.14189298 2:154.66335 
-0.02976644808662257 -0.2346888080398173 1:0.13868584 2:151.16756 
-0.2539990422828971 -0.4139141716676853 1:0.14738364 2:160.79556 
