svm_type c_svc
kernel_type rbf
gamma 0.25
nr_class 3
total_sv 160
rho 0.256845 0.821918 0.712161
label 0 1 2
nr_sv 21 19 120
SV
1.021171037163487 1.4802116060081 1:0.12849883 2:1.8828168 3:0.058599899 4:0.30886479 5:0.058223225 6:0.27315308 7:0.056939768 8:0.22402521 9:0.064089874 10:0.26638688 
0.2263254598258654 0.3301096986477255 1:0.59917167 2:4.5663662 3:0.3666009 4:1.9734054 5:0.23597728 6:1.2279814 7:0.14755827 8:0.59217327 9:0.078655455 10:0.36950122 
0.5785870704917968 0.8396041956625437 1:0.3793152 2:3.6881849 3:0.11803484 4:0.66323125 5:0.23302458 6:1.3598943 7:0.23473319 8:1.3870037 9:0.23315352 10:1.372832 
0.07384372850924144 0.1080600816125661 1:0.21439711 2:2.5220412 3:0.18169239 4:1.1067198 5:0.11083211 6:0.67999084 7:0.067542216 8:0.3511239 9:0.13381146 10:0.78019772 
0.3315946887135099 0.4807587425510403 1:0.814512 2:6.3224504 3:0.29294874 4:1.6938328 5:0.37236173 6:2.1609493 7:0.36257494 8:2.1120734 9:0.22448488 10:1.3190622 
0.09097151462857964 0.1291905256776072 1:0.5357673 2:3.7633637 3:0.3222309 4:1.7442812 5:0.24418853 6:1.4107054 7:0.18461646 8:0.89729716 9:0.084960606 10:0.44885642 
0.3957602359263926 0.5740312145870067 1:0.54577677 2:4.6752157 3:0.46095861 4:2.4785264 5:0.41765225 6:2.2302031 7:0.30866473 8:1.6511681 9:0.23782232 10:1.1030267 
1.256276221523848 1.819942530043526 1:2.2365334 2:14.127154 3:0.77331057 4:4.3952654 5:0.89885637 6:5.1172679 7:0.16879282 8:0.97937963 9:0.61608164 10:3.5272719 
0.7257714940535385 1.053394662925564 1:0.66831633 2:5.0632318 3:0.49938598 4:2.642328 5:0.56832043 6:3.0280131 7:0.53643974 8:2.8928925 9:0.56520552 10:3.1133967 
0.05013800528087303 0.07126723535553438 1:0.59052698 2:5.1414187 3:0.41561563 4:2.3996787 5:0.37194044 6:2.1563444 7:0.45444833 8:2.6257739 9:0.43318554 10:2.5268508 
0.264285716983476 0.3847538599063334 1:1.0729836 2:7.4312408 3:0.73941589 4:3.9456882 5:0.42152273 6:2.3777489 7:0.52190984 8:2.9177037 9:0.41340814 10:2.2510535 
1.149371219573043 1.665508582958027 1:1.4496737 2:9.9067178 3:0.86724797 4:4.7537294 5:0.56362228 6:3.0154518 7:0.53571267 8:2.8862078 9:0.60519256 10:3.4115128 
0.7885352980974603 1.141934028852197 1:1.0028662 2:6.845016 3:0.66309546 4:3.7631545 5:0.51038683 6:2.9178686 7:0.23356777 8:1.3901942 9:0.13224514 10:0.74425649 
0.6469714953423055 0.9359668453596953 1:0.72717143 2:6.3154286 3:0.70547996 4:4.0440583 5:0.60587483 6:3.5044803 7:0.58496753 8:3.3332169 9:0.4871166 10:2.8010608 
1.198274775581041 1.736107751994269 1:1.7698124 2:12.34198 3:1.2392581 4:7.0313132 5:1.0643654 6:6.0519965 7:1.1643851 8:6.6021042 9:1.0521454 10:5.9778513 
0.1718595119521077 0.2487637668347827 1:0.57393584 2:4.2714755 3:0.058289595 4:0.25372425 5:0.060536346 6:0.2472955 7:0.053581936 8:0.22821662 9:0.052502704 10:0.21012515 
1.178761064533228 1.983142329864813 1:2.30925 2:11.94412 3:0.11042856 4:0.45959267 5:0.083740309 6:0.36971522 7:0.06563598 8:0.32880276 9:0.057537123 10:0.25714506 
1.176376868653632 1.70511026489505 1:2.0389399 2:10.7568 3:1.4720029 4:5.7722826 5:0.97977642 6:4.2067584 7:1.0374036 8:4.5627194 9:1.1801108 10:6.3556255 
0.8546432836315602 1.23920185960937 1:0.9606261 2:5.579195 3:0.12721148 4:0.68097643 5:0.073769895 6:0.34328088 7:0.058806105 8:0.2547407 9:0.081986721 10:0.34762194 
1.180499904095672 1.709814245823392 1:3.0404071 2:15.118966 3:0.22887409 4:0.87183142 5:0.1183843 6:0.516294 7:0.11726881 8:0.47037151 9:0.10246203 10:0.41960483 
0.7631850183835424 1.107398893540948 1:0.91088471 2:8.0551901 3:0.49352808 4:2.2365126 5:0.54616747 6:2.8767744 7:0.37431437 8:1.7971469 9:0.44100196 10:2.3899744 
-0.743154333189193 1.712239235331005 1:7.4778637 2:42.753594 3:1.0974108 4:5.5434434 5:1.7282821 6:8.7844816 7:1.9230141 8:10.437676 9:1.5587791 10:8.6941786 
-0.7425864928287687 1.714589239493369 1:4.9996013 2:28.068797 3:1.6269095 4:8.0322263 5:1.8153538 6:9.354908 7:0.710463 8:3.515671 9:0.43665728 10:1.8039002 
-0.7429925054903981 1.714083194246566 1:6.7957831 2:33.609028 3:4.2994547 4:14.746827 5:2.7782089 6:11.321174 7:2.1579122 8:8.3096901 9:1.7762154 10:6.5850097 
-0.743158816825137 1.711720437647172 1:7.7943804 2:31.394679 3:3.7880671 4:18.789377 5:2.1674872 6:6.9729487 7:1.900902 8:7.5675236 9:2.2773207 10:11.448571 
-0.7433314963572707 1.712277954272749 1:10.799546 2:48.738606 3:2.7733265 4:12.980185 5:3.6724036 6:17.42764 7:3.9122871 8:17.587726 9:3.5980234 10:16.521465 
-0.7434122409044813 1.746674548164966 1:8.3732547 2:47.554453 3:3.1747254 4:14.417831 5:2.3737314 6:9.7807483 7:0.97810505 8:5.3593731 9:0.8505234 10:4.3504609 
-0.7431085208772903 1.712228198279075 1:6.274687 2:27.656564 3:2.8742407 4:12.437569 5:1.7242094 6:9.0337785 7:2.068249 8:8.3735444 9:2.1260139 10:9.0660673 
-0.743123593538931 1.71226139558886 1:7.2130782 2:38.489895 3:2.2511973 4:11.006638 5:2.0520124 6:9.4465854 7:3.4387105 8:14.139033 9:2.2859121 10:10.423128 
-0.7429810468534744 1.712412879297025 1:11.281265 2:57.17221 3:2.6398694 4:11.492625 5:2.1423794 6:8.6512262 7:2.5499263 8:9.1948236 9:1.9810439 10:10.191502 
-0.7432918117751344 1.712236912763211 1:7.2883923 2:34.23069 3:5.0261625 4:24.704536 5:2.7761472 6:13.771208 7:2.1999958 8:11.543906 9:1.6569815 10:8.0386082 
-0.7434463935672136 1.712196293561556 1:12.534202 2:54.500492 3:3.2530067 4:16.263304 5:2.7867177 6:11.901875 7:2.9123173 8:13.769618 9:3.1681322 10:16.004669 
-0.7425832376741962 1.712269306044097 1:10.707561 2:58.731303 3:2.6429889 4:14.403196 5:1.7171736 6:9.6416059 7:2.3603998 8:13.271785 9:1.0227454 10:5.7947485 
-0.7434360440487223 1.712320406737013 1:4.9222939 2:19.410987 3:2.5787795 4:9.4338836 5:1.4477788 6:7.8804276 7:0.78432403 8:3.7865473 9:0.88383829 10:4.3977299 
-0.7468259021874626 1.712690908390231 1:3.8690249 2:17.716265 3:0.96852656 4:3.4950578 5:0.6715891 6:2.5446438 7:0.5549468 8:2.1723643 9:0.47834453 10:1.8804132 
-0.7432384398112396 1.71216122036363 1:17.036706 2:88.938624 3:2.3209501 4:10.573017 5:1.7918794 6:7.3344939 7:4.0834651 8:22.727399 9:2.3997955 10:11.385212 
-0.7431471900948798 1.713437914627557 1:10.599366 2:48.329193 3:3.3416163 4:15.479393 5:2.4918573 6:13.54724 7:1.1430018 8:5.4047004 9:1.689416 10:8.7378289 
-0.7431534232625421 1.715736592369409 1:14.934902 2:60.633996 3:1.4930918 4:7.2235142 5:1.4000467 6:6.572716 7:1.4537171 8:6.1370717 9:1.3262531 10:6.0305494 
-0.7431236064427225 1.713782781672806 1:8.9497986 2:40.70869 3:2.0598707 4:10.770559 5:1.1037599 6:5.6708397 7:1.4178855 8:7.66264 9:0.79392699 10:4.1258652 
-0.7431085172151433 1.712232394164964 1:11.044993 2:46.116652 3:1.9060143 4:9.7314633 5:1.3542167 6:6.8180704 7:1.9285153 8:10.630001 9:1.7991953 10:9.9972426 
-0.1773722108482436 -0.2867591068844181 1:14.006944 2:61.657787 3:2.9232547 4:14.066699 5:1.2225169 6:5.8117796 7:1.0604404 8:5.1666514 9:1.6411409 10:7.4793422 
-0.1132546468622621 -0.1840632789300212 1:16.049686 2:64.390175 3:2.3982521 4:9.2140771 5:1.5469542 6:6.5585318 7:1.2996688 8:5.9663597 9:1.3656185 10:6.2735536 
-0.1775820073675938 -0.2870427294935931 1:11.901276 2:59.343913 3:4.0556565 4:15.851954 5:1.5395459 6:5.754625 7:1.1593283 8:4.3227446 9:1.3706353 10:4.1042504 
-0.1783122473357048 -0.2978597062687405 1:7.3492386 2:37.162348 3:3.360633 4:13.681773 5:2.1160561 6:11.117214 7:1.4558294 8:6.2933343 9:1.1226936 10:6.3200582 
-0.1504879846743592 -0.243295014687995 1:3.5146669 2:22.802909 3:1.8864016 4:8.2334387 5:1.1307616 6:4.0121766 7:0.52051609 8:2.5260592 9:0.92001312 10:4.6709876 
-0.1779743145185625 -0.2993409181554705 1:5.8271405 2:27.373338 3:1.9527345 4:8.5037044 5:1.8397079 6:8.0855773 7:1.3996764 8:6.3775992 9:1.2244668 10:4.5584966 
-0.1780931321196267 -0.2961063946297937 1:7.0082498 2:39.89843 3:2.3861526 4:9.2743003 5:0.86695446 6:4.0691763 7:1.053964 8:4.2415471 9:1.000912 10:3.8067222 
-0.178057802364389 -0.2878277168212757 1:5.6254159 2:29.565105 3:1.8881839 4:7.3174791 5:0.88802082 6:3.618328 7:0.51630684 8:2.468485 9:0.70338849 10:3.9573542 
0 -0.1200599591991136 1:0.13232833 2:11.317086 3:0.091569155 4:0.45201841 5:0.063838866 6:0.24652 7:0.081266348 8:0.35116583 9:0.065877606 10:0.32069469 
-0.01777526524265339 0 1:0.14833721 2:11.445006 3:0.057215076 4:0.27862394 5:0.071420959 6:0.24609088 7:0.04709415 8:0.20222632 9:0.092271245 10:0.33869541 
-0.2115030656406756 0 1:0.19310371 2:11.641563 3:0.070019726 4:0.29460369 5:0.092257069 6:0.36303569 7:0.078592795 8:0.28881923 9:0.11482627 10:0.57001783 
-0.2098736211094167 0 1:0.18217087 2:11.775746 3:0.074380684 4:0.33103413 5:0.064480801 6:0.31174396 7:0.07217225 8:0.29501306 9:0.061632398 10:0.30101707 
-0.1476157523418614 -0.0928093494279769 1:0.15981425 2:11.490822 3:0.1417215 4:0.78868062 5:0.15159946 6:0.84358136 7:0.14220395 8:0.73758084 9:0.087140757 10:0.36464668 
-0.1742254300527273 -0.3002772066653441 1:9.4472807 2:46.615149 3:3.8449041 4:13.779258 5:2.0212996 6:8.8677613 7:1.4562087 8:5.7868047 9:1.695041 10:7.9802916 
-0.3865533089298333 -0.1801662469327845 1:0.21695238 2:12.965023 3:0.076935303 4:0.38546302 5:0.10383595 6:0.51726736 7:0.062131963 8:0.32993914 9:0.08701694 10:0.38311874 
-0.1238449383801102 -0.2005996141325924 1:7.6016014 2:41.345928 3:3.2146915 4:16.094769 5:2.0192202 6:7.8293166 7:1.4062914 8:5.1363522 9:1.5187813 10:6.4794095 
-0.1780276717507716 -0.2878384302955804 1:18.751575 2:82.507229 3:3.9827318 4:18.911716 5:1.9946381 6:8.0844725 7:3.1865354 8:16.301806 9:1.7677028 10:7.277773 
-0.1782701801097886 -0.2879810716069157 1:17.843309 2:79.034521 3:2.9136665 4:15.106109 5:2.1466746 6:7.0104217 7:4.493651 8:22.139305 9:2.3785138 10:11.712876 
-0.1780676944058927 -0.2879749264074966 1:21.66797 2:72.494327 3:4.1852131 4:15.077686 5:6.6979824 6:27.836932 7:3.6289943 8:13.50272 9:3.4826249 10:14.92468 
-0.1784848199447571 -0.287759061430282 1:11.046317 2:58.557833 3:4.7340508 4:19.008487 5:3.0753715 6:13.378847 7:1.5680257 8:5.8922666 9:0.91933879 10:4.3673222 
-0.1133109975962516 -0.2010938887415037 1:15.478287 2:64.378027 3:2.5455046 4:8.4738484 5:1.5359593 6:5.7535981 7:1.3100298 8:5.641971 9:1.2525011 10:5.5135289 
-0.1777707745749669 -0.287733744941898 1:1.9009673 2:23.254682 3:1.8339909 4:10.376966 5:1.6787373 6:9.5266804 7:1.6569566 8:9.4175795 9:1.300928 10:7.4732374 
-0.1780944922540044 -0.2875177596792061 1:7.4527222 2:53.531321 3:1.8195564 4:9.1006694 5:0.96330662 6:4.8368537 7:1.6880993 8:8.6228939 9:1.522312 10:7.6893469 
-0.1512854791143652 -0.2442209333839136 1:3.0113 2:24.416844 3:1.7618853 4:8.6675865 5:1.1662079 6:4.683161 7:0.92352044 8:3.6082444 9:0.8613283 10:3.2361134 
-0.1286649591502064 -0.2077211064022248 1:7.7693113 2:41.093137 3:3.5974208 4:17.344289 5:1.8861583 6:6.9024913 7:1.607564 8:6.0593477 9:1.560741 10:6.8268436 
-0.1771122954547174 -0.2908252337700183 1:1.8179282 2:21.407474 3:1.1584762 4:4.8140829 5:1.0683883 6:4.1788989 7:0.84868287 8:2.846 9:0.69151082 10:2.7193005 
-0.1724226140064355 -0.2884380594405486 1:6.0893827 2:44.481935 3:3.1226203 4:14.092847 5:1.8139493 6:8.3861387 7:1.3102692 8:5.5818912 9:1.1787156 10:6.2824152 
-0.1780643293165309 -0.288298047807195 1:13.746755 2:63.655483 3:3.3288169 4:11.965616 5:3.3159338 6:15.052746 7:1.4800367 8:4.7969438 9:1.8222083 10:8.7057223 
-0.178235728927595 -0.2877666001949473 1:10.616175 2:35.092452 3:4.2135099 4:12.511459 5:2.130407 6:8.2077924 7:2.0329526 8:8.4990194 9:1.4541478 10:6.9321187 
-0.1698004575168143 -0.2762386519835481 1:6.7090285 2:45.254426 3:2.6152883 4:12.644427 5:1.395847 6:6.0574895 7:1.4816569 8:7.3668945 9:0.93264362 10:3.955496 
-0.1664623192830598 -0.279475800353556 1:8.35612 2:46.045532 3:3.9788059 4:18.496647 5:1.9417938 6:9.4661589 7:1.34675 8:6.0676589 9:0.94232381 10:4.1699302 
-0.1781449921893707 -0.287278454180065 1:15.05732 2:55.8925 3:5.0174949 4:18.425483 5:2.0220285 6:8.9407677 7:1.7679573 8:6.3831109 9:1.7250321 10:7.0369694 
-0.1669002709365923 -0.2685261249023318 1:10.223716 2:44.658691 3:3.5090588 4:18.913014 5:2.2156382 6:10.314496 7:1.8860643 8:6.8046312 9:1.4506699 10:5.9028794 
-0.1784043573149364 -0.2875165831502162 1:20.060193 2:65.093378 3:6.3702999 4:24.596163 5:7.5875342 6:27.12619 7:7.2404562 8:23.360162 9:4.589541 10:15.225394 
-0.1779184953959604 -0.2876625409778443 1:11.671689 2:51.761518 3:3.2055429 4:11.914816 5:2.4546042 6:13.294315 7:2.4450475 8:13.012616 9:1.6845108 10:7.5964679 
-0.1656244827961483 -0.2683527887993523 1:11.886803 2:53.110831 3:4.2817767 4:13.825291 5:3.3140666 6:14.127784 7:2.2334685 8:7.7437075 9:2.2458173 10:8.7030983 
-0.1720952494925917 -0.3965431829632974 1:9.4197767 2:48.484326 3:2.7021617 4:12.714382 5:2.1731427 6:9.7577481 7:1.5912436 8:7.4842288 9:1.2344663 10:5.1222235 
-0.1652990476626474 -0.2699750447672196 1:12.108863 2:51.524169 3:4.1200636 4:14.060972 5:3.2997422 6:11.746314 7:2.1308675 8:7.4088392 9:2.1511132 10:10.143996 
-0.177884995491312 -0.2882983841614357 1:17.248495 2:62.150942 3:5.4419818 4:21.361381 5:4.0232318 6:16.277508 7:2.8388707 8:9.4038868 9:2.7008883 10:10.624081 
-0.177857010761102 -0.2877535908882545 1:22.012488 2:74.497869 3:4.1469197 4:13.207722 5:4.5025928 6:22.429249 7:2.7662605 8:12.8642 9:3.1470627 10:15.015913 
-0.1781137595204909 -0.2879740261106832 1:17.754995 2:68.287444 3:4.9682107 4:15.680289 5:3.691371 6:10.685304 7:2.7392186 8:10.30405 9:3.0608765 10:11.289543 
-0.1780670015474606 -0.2872813168118264 1:14.311513 2:55.562897 3:3.851844 4:18.511943 5:1.7445821 6:6.9449281 7:0.99606527 8:3.3900708 9:1.1377256 10:3.8436865 
-0.1775365123192501 -0.2864448836259968 1:14.223899 2:62.5942 3:3.2630007 4:13.820329 5:2.586119 6:9.2055907 7:2.3944122 8:9.7487668 9:1.97177 10:8.3506426 
-0.1776702405156387 -0.2868565634284457 1:18.221898 2:75.89789 3:3.7933862 4:13.982533 5:3.1168206 6:14.701287 7:2.4336191 8:10.442681 9:2.5018627 10:12.445664 
-0.1779367308047921 -0.288011510173687 1:12.018905 2:55.125789 3:3.8111675 4:18.006625 5:3.1486186 6:12.80138 7:2.4417152 8:9.9675321 9:2.0138782 10:10.122491 
-0.1784415600077798 -0.2877628193256608 1:21.488428 2:68.383791 3:2.7768372 4:11.483539 5:2.5063905 6:8.4449778 7:1.9400164 8:7.3209396 9:2.1901243 10:9.1787876 
-0.1780878514353085 -0.2882878022116474 1:17.753446 2:61.196379 3:7.103643 4:29.551732 5:4.889312 6:20.866358 7:3.4930846 8:11.550866 9:2.9810256 10:12.297838 
-0.1778571240354588 -0.2881902408606955 1:16.702134 2:71.36341 3:6.8505136 4:28.540741 5:4.3147417 6:18.952886 7:2.5144289 8:8.7960386 9:2.1302176 10:7.0699706 
-0.178213438401418 -0.2878039738916202 1:23.807751 2:82.859762 3:4.7496603 4:19.585387 5:4.7495868 6:24.391377 7:2.2590806 8:7.6690619 9:3.2557302 10:11.970241 
-0.1775087204945052 -0.2877293062354805 1:17.226114 2:66.331137 3:4.2709011 4:14.975947 5:3.6791052 6:14.579985 7:3.6402655 8:14.237411 9:3.963396 10:14.516957 
-0.1778597547723209 -0.2882776747410946 1:20.66553 2:65.401368 3:4.2349791 4:14.439226 5:3.721412 6:12.964465 7:3.8587723 8:12.5671 9:5.5757918 10:19.723154 
-0.1780139010053982 -0.2873343625707294 1:21.077917 2:81.786792 3:4.3351276 4:22.805494 5:2.5684529 6:11.629985 7:2.0661931 8:8.7836591 9:2.5802034 10:9.8487739 
-0.1782331934572529 -0.2879764959221895 1:16.796825 2:70.201782 3:5.8691691 4:21.537447 5:3.1167682 6:11.617426 7:3.4086257 8:14.985612 9:3.5427568 10:18.729724 
-0.1780644561906886 -0.2873343011596655 1:16.159888 2:67.143444 3:5.7822505 4:25.096823 5:4.3649775 6:21.215263 7:2.4778964 8:11.129679 9:2.5149156 10:12.047526 
-0.1782401926733164 -0.288201763920919 1:20.271083 2:79.728329 3:5.2822533 4:19.055523 5:4.9706397 6:20.333823 7:3.6240044 8:15.843795 9:3.5306767 10:16.740706 
-0.1780202939336006 -0.2878922219528007 1:4.1491507 2:32.19725 3:2.7448146 4:11.797716 5:1.9423966 6:7.9257179 7:1.4020288 8:5.3993735 9:1.221892 10:6.4694021 
-0.1778035801485582 -0.2879128238773402 1:14.26383 2:66.1635 3:3.2530453 4:15.465832 5:2.2994357 6:12.167906 7:1.9718541 8:9.173251 9:1.3734395 10:6.0243599 
-0.1775631735606598 -0.2882870202528336 1:23.512756 2:84.462099 3:6.0645959 4:20.732198 5:4.3827433 6:20.843958 7:3.6424826 8:14.138413 9:3.9607766 10:20.032329 
-0.1768072954032675 -0.2864365567259334 1:12.577856 2:48.662314 3:4.2133042 4:15.245339 5:2.9041647 6:12.101106 7:2.5555961 8:9.8101533 9:2.1474945 10:7.4217789 
-0.1746037352918243 -0.2815625503512048 1:11.247816 2:50.223151 3:3.7318474 4:14.933663 5:1.929408 6:7.7132022 7:1.7523926 8:9.9007198 9:1.0981431 10:5.2640357 
-0.1767050738755139 -0.2861525696025675 1:13.207456 2:70.939773 3:2.9700448 4:15.546538 5:1.562722 6:7.0279398 7:1.4586796 8:6.686541 9:1.6124759 10:8.6171547 
-0.1777258584178005 -0.2868793802905995 1:19.752569 2:78.383426 3:3.3514753 4:12.121254 5:2.8665981 6:12.805868 7:2.5453909 8:11.568664 9:2.4367591 10:9.9894036 
-0.1780014672966418 -0.2877690857277224 1:34.063856 2:96.137686 3:7.4053589 4:23.631261 5:7.2401598 6:31.230745 7:7.1847684 8:23.259493 9:5.7484529 10:29.053835 
-0.1780677470987658 -0.2882308700416465 1:16.333871 2:70.08997 3:3.9903799 4:13.802277 5:2.0989582 6:7.2473459 7:2.1943221 8:10.356567 9:1.3989613 10:5.7286996 
-0.1775409153638017 -0.288287904064629 1:19.113139 2:76.478923 3:3.0861393 4:10.700126 5:2.4065332 6:8.772553 7:1.3141161 8:4.7605771 9:1.468856 10:4.8346944 
-0.1343733893818769 -0.2161472445582 1:9.0174836 2:47.78128 3:2.5338652 4:10.183727 5:1.5932549 6:6.092624 7:1.2401577 8:5.272947 9:1.0991055 10:4.5408481 
-0.1782407610073315 -0.2879811349353345 1:24.738945 2:94.099138 3:8.4775636 4:37.896824 5:4.1752239 6:12.833889 7:3.6624545 8:11.851004 9:4.3562342 10:17.643762 
-0.1780098585723356 -0.2874184966900035 1:10.200856 2:45.442835 3:4.4130487 4:18.850212 5:1.6968535 6:6.6013551 7:1.139948 8:5.1012384 9:2.1860806 10:10.759368 
-0.121651276319666 -0.1982371407785985 1:9.1676018 2:46.241131 3:2.6386561 4:10.84969 5:1.4841128 6:6.5065684 7:1.2003534 8:6.292871 9:1.0660539 10:4.8113532 
-0.1757033376677533 -0.2837128307712551 1:12.022701 2:58.227552 3:2.9649461 4:11.483204 5:1.8825169 6:8.7649895 7:1.1690739 8:4.8984436 9:1.1101814 10:4.5349743 
-0.1780443856650218 -0.2878112348703136 1:26.347165 2:82.729352 3:7.6179972 4:27.237834 5:6.8475916 6:29.652907 7:3.5939769 8:14.968876 9:4.2920784 10:16.508731 
-0.178103551930291 -0.2879810674022967 1:32.236633 2:98.929446 3:7.167478 4:28.250422 5:4.5118324 6:14.578893 7:4.5801254 8:15.735921 9:3.6444319 10:15.663765 
-0.1780139163459737 -0.287896092096392 1:11.567194 2:59.023067 3:4.6895827 4:15.839492 5:3.6312686 6:12.579653 7:3.5028268 8:17.116444 9:1.795279 10:7.2021697 
-0.1777708860143634 -0.2877219814154638 1:23.443274 2:76.498448 3:4.7069352 4:16.163419 5:4.7872156 6:17.497937 7:3.7479687 8:15.934077 9:2.9892235 10:10.814865 
-0.1550035858984761 -0.2505123047025642 1:13.211004 2:51.020255 3:4.3578006 4:16.720647 5:2.5121942 6:9.8059311 7:1.7663081 8:8.1332606 9:1.4384072 10:5.4328277 
-0.1781800548938958 -0.287816444134036 1:17.707444 2:71.770358 3:3.4314042 4:11.231124 5:2.6556728 6:13.678221 7:3.2264923 8:14.877119 9:2.7435063 10:14.223031 
-0.1743808630751225 -0.2838740853456181 1:15.250467 2:59.345781 3:3.4052929 4:11.425292 5:2.1732504 6:8.5627549 7:1.9479263 8:6.6676009 9:1.4705197 10:5.6518991 
-0.178064507751841 -0.2877592560131512 1:20.884193 2:83.729349 3:4.9519659 4:16.68826 5:3.8878803 6:16.171122 7:3.5282007 8:15.042503 9:2.9611634 10:10.922069 
-0.1777710287519079 -0.2882789567109458 1:20.465988 2:75.763557 3:4.7325659 4:17.25987 5:3.7337233 6:13.026336 7:4.2548662 8:15.059605 9:5.0740585 10:23.327514 
-0.178020496448265 -0.2877707897970409 1:27.385316 2:92.638754 3:7.864754 4:27.062375 5:7.1259296 6:22.657201 7:5.2766839 8:23.422873 9:6.894197 10:28.452117 
-0.1780798443099222 -0.2878388547223337 1:11.617792 2:68.952455 3:4.1380317 4:19.689082 5:2.6030427 6:11.837178 7:2.6510084 8:14.466582 9:2.2680615 10:9.7421262 
-0.1757715523613101 -0.28469530459515 1:17.271806 2:83.268195 3:3.8064156 4:15.850235 5:2.5911245 6:10.809658 7:2.1815695 8:9.2989521 9:2.1081823 10:8.2351193 
-0.178349332565819 -0.2874103557623124 1:30.259401 2:94.425931 3:6.4334891 4:21.573986 5:7.0584679 6:27.249641 7:6.0201307 8:18.441529 9:6.8282445 10:25.300696 
-0.1763217179186934 -0.2850680607975918 1:14.401515 2:61.262765 3:3.571972 4:13.233191 5:1.6541799 6:5.902819 7:1.7867786 8:8.8951341 9:0.99853105 10:4.2863576 
-0.1592437981994739 -0.2575202030386057 1:11.570463 2:52.228268 3:4.0201638 4:18.391703 5:2.9180108 6:10.80538 7:2.0027339 8:8.5588044 9:1.4015079 10:5.6153399 
-0.1775824756960093 -0.2870466357763934 1:9.1189069 2:53.298168 3:2.7245285 4:12.322308 5:1.6217225 6:7.7535154 7:1.5279315 8:6.5938249 9:1.6176505 10:6.4504798 
-0.1753222907673231 -0.2925103381554746 1:7.7206251 2:50.33763 3:2.854631 4:13.418345 5:2.6947911 6:11.436837 7:1.4485203 8:6.0518125 9:1.5785203 10:7.3620248 
-0.1781593457345215 -0.2879200788823136 1:13.320077 2:80.459806 3:4.8006804 4:17.464014 5:4.0430233 6:16.669583 7:2.6228973 8:11.77374 9:3.3378622 10:13.622543 
-0.1784361899005651 -0.28743611476082 1:26.096543 2:88.814397 3:6.0097927 4:22.403054 5:2.923595 6:10.263365 7:5.381306 8:21.54988 9:3.9336901 10:19.613141 
-0.1782331866894778 -0.2878387685794138 1:30.080702 2:98.843811 3:8.6844444 4:30.380438 5:6.2617221 6:19.99262 7:6.17559 8:20.655474 9:4.1425825 10:14.524427 
-0.1777844706548484 -0.2883599456784582 1:13.013434 2:55.532834 3:2.8792388 4:11.924549 5:2.771734 6:11.905939 7:2.4060016 8:10.161334 9:1.8098186 10:6.7579302 
-0.1784417256073255 -0.2882789567543034 1:34.686383 2:105.23704 3:7.0034129 4:23.425601 5:8.6963596 6:31.565101 7:7.5016636 8:29.404806 9:4.8888455 10:14.20695 
-0.1780645098344866 -0.2878024166022454 1:22.457245 2:81.598956 3:5.4140636 4:27.580899 5:5.1053303 6:18.761912 7:3.2781948 8:13.211695 9:2.4620381 10:10.914897 
-0.1777641236167118 -0.2878622665535709 1:11.104753 2:76.277903 3:3.1232671 4:14.767165 5:2.5472384 6:10.452117 7:1.6355905 8:7.501772 9:1.796742 10:10.353198 
-0.1760178037251382 -0.2849296009749848 1:12.616866 2:64.900543 3:3.7862279 4:14.524769 5:2.021499 6:7.4851932 7:2.112868 8:9.1603281 9:1.6242737 10:5.1945714 
-0.1780009089263429 -0.2877690006337487 1:35.561737 2:92.977493 3:6.4687229 4:20.581513 5:7.2263689 6:25.534013 7:5.8698877 8:22.6628 9:6.153513 10:28.059528 
-0.1769694591688259 -0.2861826859502654 1:13.729605 2:71.940941 3:3.6878083 4:18.730338 5:2.4686746 6:9.6566629 7:1.8940354 8:7.3111644 9:1.8837349 10:8.0660194 
-0.1781611131179351 -0.2877597137759231 1:29.275286 2:92.795398 3:5.633641 4:19.926711 5:3.8771624 6:17.227016 7:7.1790382 8:29.110494 9:3.1453506 10:9.9951751 
-0.1775035987545063 -0.2873129954758196 1:18.441119 2:89.973346 3:5.4322358 4:22.488798 5:1.9951997 6:9.2797159 7:1.4823489 8:8.0340393 9:1.8864277 10:9.3815842 
-0.1782715764205811 -0.2873129422535615 1:17.315255 2:84.039617 3:3.9626715 4:16.136945 5:4.1174767 6:21.374258 7:4.4116124 8:20.044053 9:3.5313991 10:14.658706 
-0.1784852948523771 -0.2877692280074042 1:29.260768 2:98.737974 3:7.5852313 4:24.401632 5:4.7661957 6:17.033381 7:6.0284915 8:24.466726 9:7.5388268 10:24.568915 
-0.1780700493691073 -0.2877803269822352 1:15.925231 2:91.826647 3:3.8990553 4:15.921043 5:2.3702359 6:9.4395032 7:2.8172297 8:12.490509 9:2.8150851 10:11.068392 
-0.178383129822287 -0.2877786889397025 1:17.2217 2:81.701354 3:4.8906549 4:21.132242 5:2.995145 6:11.018399 7:2.6539771 8:12.72844 9:3.720848 10:15.418269 
-0.17805695078584 -0.287811227886334 1:31.675508 2:98.961971 3:5.4420539 4:23.451895 5:5.8530383 6:17.705832 7:5.6013332 8:22.501441 9:4.1182424 10:14.529123 
-0.1783146716720098 -0.287810062594176 1:36.42234 2:105.60323 3:7.9272395 4:27.896273 5:6.5396341 6:24.978085 7:4.3520467 8:13.660109 9:4.6407392 10:20.40678 
-0.1765940936217681 -0.2847314831992342 1:14.792565 2:83.605686 3:4.0892895 4:16.097883 5:2.0815495 6:8.9995556 7:1.9140067 8:6.521699 9:1.8656588 10:7.6369082 
-0.1781817058553956 -0.2882641084161038 1:30.73287 2:108.21976 3:4.3503114 4:20.015796 5:4.4495256 6:15.676578 7:4.3282403 8:14.904681 9:4.531625 10:17.763712 
-0.1780228270289805 -0.2877939991481042 1:27.228491 2:129.83929 3:8.5045472 4:33.522272 5:5.2441904 6:21.148953 7:5.8893373 8:22.241713 9:6.1863656 10:30.961553 
-0.1783058167023269 -0.2877787185164342 1:36.101545 2:117.94079 3:8.1421192 4:31.937144 5:6.7049398 6:22.022919 7:5.2292139 8:17.874068 9:6.7512152 10:26.736562 
-0.1781139958958724 -0.2876830399172057 1:42.603728 2:142.38274 3:8.673717 4:33.773298 5:9.2787158 6:43.909364 7:5.7811147 8:22.857461 9:6.1538554 10:22.236614 
-0.1781630215263756 -0.2878100625935929 1:48.537306 2:140.07016 3:10.368415 4:32.039653 5:9.5725782 6:36.695158 7:6.1960545 8:20.438187 9:7.253841 10:23.615065 
-0.177822864143775 -0.2877312145988592 1:33.465087 2:128.67754 3:5.909684 4:26.855131 5:8.1543484 6:33.72042 7:6.2939476 8:26.038714 9:5.3588206 10:21.990055 
-0.177998918615873 -0.2878116093984688 1:30.61673 2:138.70263 3:6.9650666 4:29.36269 5:7.4325155 6:33.012571 7:5.3811843 8:21.582251 9:7.9478579 10:41.501417 
-0.1782433543994989 -0.2879201091640365 1:31.948665 2:133.69099 3:5.6677771 4:20.062874 5:6.4611868 6:24.893308 7:6.4804277 8:33.137275 9:5.5274406 10:21.34287 
-0.177848004607764 -0.2877788490964335 1:33.161069 2:134.72116 3:7.8372836 4:31.551318 5:6.9238304 6:33.162669 7:7.1387328 8:29.010984 9:5.0380363 10:18.17893 
-0.177885000218695 -0.2880697713719382 1:39.430182 2:137.54575 3:8.0342154 4:37.195706 5:6.9847823 6:32.650287 7:5.6269551 8:21.105567 9:6.202094 10:23.442084 
-0.1782162193820401 -0.2878450613663354 1:30.952317 2:138.63491 3:8.1657123 4:34.65101 5:8.8569774 6:42.544176 7:6.800915 8:25.769971 9:12.228286 10:57.224263 
-0.1783259423655555 -0.2877751888996238 1:43.660896 2:156.18736 3:8.7431229 4:35.411899 5:6.680827 6:31.610094 7:9.6549329 8:42.84645 9:6.8409584 10:25.021822 
-0.1781942531540096 -0.2877692282133799 1:26.360395 2:130.64391 3:8.5057421 4:28.772958 5:7.2620456 6:31.225715 7:7.8094859 8:32.738082 9:7.5826917 10:29.714926 
-0.1778228641902481 -0.2881902574255655 1:38.567331 2:182.69377 3:6.7093007 4:29.320355 5:7.2955076 6:28.072099 7:9.0704028 8:44.27796 9:7.3937736 10:30.853913 
