svm_type c_svc
kernel_type rbf
gamma 0.25
nr_class 3
total_sv 824
rho -0.606569 -0.717145 -0.164434
label 0 2 1
nr_sv 275 378 171
SV
0.2743006896819625 0.1976328133348055 1:0.46310166 2:558.0375 
0 0.1200182829623883 1:0.37391684 2:434.86528 
0 0.007786263943557591 1:0.37326744 2:435.22983 
0.1077716925670282 0.06933312310625109 1:0.37499674 2:446.99611 
0 0.01290380831500656 1:0.36880844 2:438.14442 
0.03314422662664689 0.1502374376595509 1:0.36794409 2:436.74963 
0.06262101236820243 0.06464303515111805 1:0.36601575 2:433.36265 
0 0.01756492518473888 1:0.36992208 2:438.35766 
0.09041551852371162 0.1097607168247103 1:0.37126719 2:449.97584 
0.1549157652471702 0 1:0.36809219 2:435.82115 
0.0461236283161145 0.002850546864603012 1:0.36625667 2:434.38041 
0.1148138577376753 0.1391547705901409 1:0.3712532 2:440.67755 
0.1011803494851382 0 1:0.36864033 2:437.94471 
0.01970814645044968 0 1:0.37105877 2:440.44676 
0.01509546280356972 0 1:0.37041206 2:440.79035 
0.1734361323809014 0.09937263757964961 1:0.37057786 2:451.36383 
0.145850088059536 0.1076953106496464 1:0.37557373 2:446.18159 
0.01222614638344156 0 1:0.37070534 2:440.76864 
0.1411960595682521 0 1:0.37093462 2:439.1866 
0.01732889936368836 0.001185248694250003 1:0.3704712 2:439.74931 
0 0.1320787096220118 1:0.370327 2:438.8375 
0.08510802946075327 0 1:0.38080288 2:452.77462 
0.01735634324095431 0.05213105111704314 1:0.37440427 2:442.92025 
0.07987751256714422 0 1:0.37495735 2:443.94951 
0.006509952101395655 0 1:0.37353069 2:444.50152 
0.3935300068898541 0.2829156894344772 1:0.78230928 2:953.63502 
0.3931238506309788 0.2827256628436392 1:2.0047956 2:2373.678 
0.3932987025832966 0.2828342948632123 1:2.8960334 2:3423.1115 
0.3936395565360033 0.2828399804781559 1:2.6246289 2:3120.6838 
0.196045544167316 0.1417419652103936 1:1.0750557 2:1255.665 
0.3150353125795604 0.2265393824450792 1:0.46489368 2:549.50433 
0.2897941490626872 0.2082482304865825 1:0.41829637 2:544.20358 
0.3936125766175765 0.2827660000831291 1:0.80413465 2:1006.7766 
0.2458114432849936 0.1761758022860344 1:0.38243892 2:472.69451 
0.1287585420983529 0.09435132772298153 1:0.39048973 2:482.25482 
0.2110640912325282 0.1513521171687769 1:0.47139721 2:573.21901 
0.2439720085022654 0.1762158918385362 1:0.4013611 2:470.39521 
0.3936690753029058 0.2828144391676526 1:0.85661336 2:1110.1709 
0.3938047346007522 0.2828375242955722 1:2.258714 2:2730.7852 
0.3937699619161506 0.2831361141561222 1:1.7078263 2:2016.9429 
0.3937164908005705 0.2829002121123387 1:2.5082647 2:3657.0499 
0.2411556365472082 0.17332822352282 1:0.7559296 2:1020.505 
0.2278514910245177 0.1709095212895415 1:0.38466262 2:479.67429 
0.1227958997197065 0.08849996286508029 1:0.38512063 2:664.7182 
0.2834443261112811 0.2045769687564316 1:0.3773921 2:767.23814 
0.286616864108211 0.2060330661313033 1:0.37900945 2:798.1939 
0.393293478324324 0.2824144347067295 1:0.38151385 2:790.49669 
0.2863526325077037 0.2057002335104761 1:0.38286173 2:800.18102 
0.3785745662089411 0.2721907142609144 1:0.38222358 2:813.37178 
0.3810863639945668 0.2738182185161777 1:0.38319263 2:809.68603 
0.3709503066898154 0.266515133941966 1:0.38401305 2:839.83653 
0.3819901101654428 0.2748809794694395 1:0.38041067 2:817.88293 
0.3814690527553131 0.2744726801200947 1:0.38125099 2:825.4084 
0.392743596415436 0.2824383235761306 1:0.3818234 2:848.02976 
0.3933218328198968 0.2828565054104211 1:0.42660667 2:1133.9205 
0.3439417876542828 0.2474727876509099 1:0.43246877 2:512.90797 
0.1533142104550145 0.1088121150747571 1:0.3917328 2:466.16203 
0.1330894034429251 0.09747863419160874 1:0.38403641 2:457.7714 
0.3574457792395354 0.2568886297645891 1:0.49271038 2:595.19414 
0 0.5734870803028813 1:0.26835574 2:337.59153 
0.1778782204970489 0.1269710427051279 1:0.33385399 2:424.32842 
0.2609901149324919 0.1874448979168758 1:0.40408169 2:477.22047 
0.3932999264989226 0.1552726100695126 1:0.25053257 2:293.12311 
0.3916792433702638 0.2819359417274146 1:0.59795368 2:718.74032 
0.07034435083623164 0 1:0.27176293 2:320.95202 
0.02069609921016051 0.01171010245406527 1:0.43338905 2:490.16301 
0.01579798435680761 0.009474122497080649 1:0.42354693 2:480.72576 
0.3774883042113915 0.2715297035397845 1:0.63138046 2:714.0913 
0.3937058863964806 0.2828819088746694 1:1.3583035 2:1538.9579 
0.3934756393428853 0.282868832025007 1:3.0982092 2:3538.1549 
0.3459016444025031 0.2488551797917355 1:0.52244457 2:622.23148 
0.269015612889263 0.1938208442255617 1:0.39913287 2:464.19153 
0.2531707935839393 0.1824055606274492 1:0.46018382 2:529.2114 
0 0.01909477377814413 1:0.39061649 2:451.94328 
0.1986558584674734 0.1429517745070132 1:0.42654371 2:499.90923 
0.3934118153734686 0.2830801698143534 1:0.50108972 2:566.73248 
0 0.007972629888947758 1:0.42596986 2:478.36415 
0.3119343499151842 0.2250608978044362 1:0.52109834 2:591.44661 
0.2972094762832556 0.3625392946275584 1:0.28131933 2:313.10842 
0.293269166929304 0.2113341070058415 1:0.5911447 2:676.86069 
0.3925749850554969 0.2822061437350032 1:0.85232938 2:975.06481 
0.3922320981406447 0.2821086605409306 1:0.82685131 2:940.95679 
0.3873042666900168 0.2787188183860038 1:0.63630384 2:727.29529 
0.3926884541184849 0.2823103917119997 1:0.87121774 2:996.6731 
0.3935258369137786 0.2825300799869902 1:1.8471265 2:2109.4184 
0.3935213978712923 0.2829404888751288 1:1.0752812 2:1230.1217 
0.393633110422321 0.2828661874677507 1:1.3240685 2:1512.0862 
0.3938332948577781 0.2828311544793481 1:1.5538646 2:1800.9291 
0.3933279679982571 0.282868822950055 1:1.9694847 2:2247.182 
0.3933503251461003 0.2823424981866483 1:1.4946451 2:1700.9061 
0.3934014716075809 0.2830558902612818 1:1.6202331 2:1848.686 
0.3935163191472834 0.2827680415172531 1:1.5613414 2:1775.2452 
0.3934430499652438 0.283112754978706 1:1.1422547 2:1297.6014 
0.3937300676619733 0.2829176846653467 1:1.1522059 2:1310.0581 
0.393484705897697 0.2830485629762513 1:1.2611829 2:1433.9649 
0.2003067888566708 0.1431252919992678 1:1.1026388 2:1255.9056 
0.3932259698374003 0.282434144194074 1:1.491296 2:1695.6036 
0.3936279182122734 0.283129333296758 1:1.8692614 2:2123.481 
0.3931339276769633 0.2827987213884757 1:1.4381798 2:1632.3341 
0.3932663608543034 0.2824283439563134 1:0.87432911 2:991.48921 
0.3934032408965399 0.2828751501296999 1:1.0934619 2:1243.2662 
0.2620184759060005 0.1886054653985096 1:0.65709562 2:748.43192 
0.3851751670517755 0.2766821259932477 1:0.60593604 2:731.3648 
0.2276625863994365 0.1639859595454151 1:0.60239649 2:701.79191 
0.3936711100446322 0.2827707965187576 1:0.73792919 2:861.90129 
0.3932972869410405 0.2828932865718802 1:1.0807871 2:1281.8135 
0.3934445608582823 0.2830287942053865 1:1.7689418 2:2023.6694 
0.2130270690389426 0.1544202236106694 1:0.42755445 2:489.12229 
0.1285596186065407 0.09115133020558848 1:0.42225754 2:481.79585 
0.3244713669465444 0.2325606724075992 1:0.45807218 2:523.5765 
0 0.005095296636452552 1:0.37929427 2:435.05053 
0.226324404462134 0.158825086645294 1:0.37706535 2:432.11689 
0.0263186589145572 0.005593124856498877 1:0.37836343 2:444.9554 
0.358273315032123 0.2572238427261871 1:0.51282197 2:578.976 
0.3898224155502774 0.2802759707923876 1:0.54479943 2:617.80256 
0.2456348806026515 0.1761162226162883 1:0.49221169 2:555.21478 
0.1838791781087769 0.132876521702752 1:0.48336602 2:546.2036 
0.3923755548223629 0.2820273952070027 1:0.58459519 2:654.16202 
0.2928167395717095 0.210084161433426 1:0.6068247 2:674.78906 
0.3917178204035199 0.281099419366698 1:0.55868887 2:629.64235 
0.2273053933315132 0.1632613093806396 1:0.61786733 2:700.66155 
0.01160812943113105 0.008559313093407033 1:0.38484652 2:434.10688 
0.3932198241325917 0.2827989261515196 1:0.7973469 2:880.27098 
0.001284854754590059 0.01153300938288071 1:0.63109133 2:695.46265 
0 0.02066163304210816 1:1.5347504 2:1686.6907 
0.3936954638567388 0.2795052437805867 1:0.68736662 2:756.10328 
0.005132578960011715 0.004916921930742474 1:0.76734925 2:842.54947 
0.3646018641175088 0.2619395141801723 1:0.35949901 2:393.65141 
0.01405878290215057 0.03170713827987587 1:0.67388265 2:735.87986 
0 0.008537391795034877 1:0.54186317 2:592.79831 
0.1093934967427098 0.07847818962179189 1:0.32726528 2:357.70095 
0 3.41437075269137 1:0.26123095 2:284.74173 
0.2824793771943291 0.2035127311957865 1:0.35648875 2:389.28572 
0.1830876219222501 0.1310198157004719 1:0.33830403 2:390.74115 
0.2103519253679322 0.1512692824521556 1:0.51204126 2:572.46213 
0.01973879557412453 0.01529918226526873 1:0.37405763 2:423.80729 
0.3720486098322897 0.267267082273555 1:0.72912183 2:821.72031 
0.2421074772875776 0.1738299414743351 1:0.90111033 2:1021.8591 
0.1391970086641869 0 1:0.29785418 2:338.6602 
0.1100313476857194 0.07938126452206971 1:0.31812861 2:358.53095 
0.2987313568674398 0.1681006354453366 1:0.28323943 2:315.24549 
0.001588107027144955 0 1:0.38531614 2:439.2604 
0.3927663295759392 0.2822142891750735 1:0.61352755 2:612.91403 
0.1430009946922196 0.1020641561582739 1:0.41086343 2:410.04171 
0.2316344662243005 0.1660326084190275 1:0.76630785 2:765.54154 
0.03802762210315511 0.03682775700594919 1:0.45276589 2:452.31313 
0.3124663040263623 0.2248274637870086 1:0.35660926 2:355.89604 
0.3934976003167655 0.2928750853978426 1:0.2552202 2:276.40347 
0.1770381721109014 0.1262381439264628 1:0.41240969 2:468.49741 
0.06008178573737547 0.04407767266454083 1:0.46244709 2:522.56521 
0.2201531105056042 0.1591207742175131 1:0.32867849 2:367.79123 
0.03185177293406113 0.01170531877803604 1:0.41628982 2:478.7333 
0.3568733543854349 0.2565436864844929 1:0.36471815 2:415.77869 
0.2460269064053782 0.1765887168800788 1:0.28949066 2:326.25598 
0.2259268902061214 0.1624672344075697 1:0.28858203 2:324.94337 
0.003264148658003796 0 1:0.39520583 2:444.60656 
0.2606683795283379 0 1:0.27362687 2:306.46209 
0.1854983678980356 0.1030564399126017 1:0.39382122 2:442.26123 
0 0.001565007815148503 1:0.39346477 2:439.10668 
0.08472448179588912 0 1:0.388064 2:449.37811 
0.08555640984664382 0.00136166646747743 1:0.39118323 2:437.34285 
0.1812487055155433 0.1088905974888238 1:0.39175623 2:454.04547 
0.1203399760726151 0.1467098014720522 1:0.38947324 2:444.38896 
0.00397190108366933 0.06515459251832224 1:0.39468359 2:453.09676 
0.1439419683435152 0.1258335347167142 1:0.39611283 2:448.39972 
0.002042071072215165 0 1:0.375153 2:436.67809 
0.3849037713688455 0.2765341900836243 1:0.57524281 2:645.42243 
0.3233133072062399 0.232389891495401 1:0.31175879 2:360.39316 
0.2963283251783145 0.213363149703765 1:0.33602886 2:408.6111 
0.316637876290059 0.2270270395301758 1:0.51487643 2:666.25011 
0.3746766769378009 0.269494265016044 1:0.68741401 2:762.34213 
0.2115305581325634 0.1548072122884487 1:0.43698596 2:491.17222 
0.1133336938271823 0.08318213944694902 1:0.42161896 2:467.15381 
0.2630852363551989 0.1887375983100308 1:0.44004245 2:493.28759 
0.2425367922570454 0.1740912058915418 1:0.45066762 2:527.73179 
0.3467293360201218 0.2483537748994354 1:0.45725532 2:517.15577 
0.1482262452539559 0.1056783268699267 1:0.43202572 2:498.55768 
0.2067302826110308 0.1501738918101942 1:0.36005587 2:412.26397 
0.313958352741195 0.2258702129261809 1:0.30130097 2:352.22083 
0.3656259280164087 0.2616486960457225 1:0.74419825 2:843.17662 
0.3935211533978156 0.2825131461556997 1:1.1882405 2:1329.6411 
0.3933909267438311 0.2829410833885418 1:0.86117025 2:984.31759 
0.3636844624784735 0.2615918799341237 1:0.33589362 2:376.20085 
0.3656883317880563 0.263017457021419 1:0.63381185 2:707.33403 
0.136591974548157 0.09770606080226386 1:0.48940304 2:547.64201 
0.263145378132156 1.886630427154067 1:0.26958727 2:308.13824 
0.2212133859317587 0.1589876878981135 1:0.39561893 2:459.31358 
0.2784336308016038 0.2000972397657169 1:0.38756965 2:461.59545 
0.1996867298500999 0.1430871187696904 1:0.36820889 2:484.19469 
0.2798025693344809 0.002542045493306555 1:0.26835574 2:337.59153 
0.3637388209101104 0.261720750126328 1:0.28018527 2:379.37085 
0.3933030718238045 0.2829552457813519 1:0.40446782 2:606.70172 
0.157789133599383 0.1176598444372004 1:0.46947509 2:585.90491 
0 4 1:0.25053257 2:293.12311 
0.3188354354228169 0.2797210301268204 1:0.27176293 2:320.95202 
0.3935546601771942 0.2827306816295551 1:4.1370758 2:4894.1607 
0.3937160026116918 0.2824043280514197 1:5.1157671 2:5929.1741 
0.3936939788961525 0.2831373353267174 1:4.9670121 2:5796.5032 
0.3936279182122734 0.2830806683812357 1:2.0618441 2:2668.0263 
0.3936964198423147 0.2825727602331206 1:5.0151771 2:6093.4402 
0.3937775545229052 0.2828086862839744 1:5.2857357 2:6617.7411 
0.393580030641997 0.2826163301490086 1:5.1945493 2:6067.2336 
0.3934162751011192 0.2829130765108872 1:5.3135354 2:6232.7771 
0.3930795495927904 0.2828932865718802 1:5.5943166 2:6534.1617 
0.393712857362257 0.2830857663962689 1:5.4571999 2:6363.0951 
0.3932985161418421 0.282773242930737 1:4.8089827 2:5645.7457 
0.3935168822506275 0.2827705616332913 1:1.8821503 2:2219.0552 
0.3934321644472239 0.2830507604110065 1:0.71982703 2:833.5597 
0.3201149450331838 0.2301705537857576 1:0.48057027 2:560.34494 
0.393132689141726 0.2827746525393057 1:1.4201896 2:1883.1714 
0.3931609332058505 0.2826042605053162 1:0.60690623 2:785.33666 
0.3927935082013107 0.2820975815468181 1:0.81387278 2:970.13636 
0.3518685779752457 0.2529601997670146 1:0.48540964 2:582.00616 
0.3002748696603614 0.2158825791869754 1:0.35041096 2:404.37424 
0.2488329128658384 0.1759514661402142 1:0.40794056 2:474.84282 
0.3937290256047891 0.283112754978706 1:2.6145305 2:3571.4486 
0.3933066334039661 0.2828615421396655 1:0.83691216 2:1050.3248 
0.3936710058843991 0.2828001741954278 1:1.8211739 2:2700.801 
0.3932817218898186 0.2827720825792596 1:4.849789 2:5693.6522 
0.393440216467051 0.2831095112637979 1:3.4719212 2:4055.204 
0.3929434628990519 0.2824422306137522 1:1.6969159 2:1981.9978 
0.2412262405207208 0 1:0.28380036 2:331.47882 
0.327795741098057 0.235295443022345 1:0.29587253 2:349.72133 
0.3489504509940793 0.2512320372296371 1:0.48832166 2:710.50801 
0.04557946888803872 0.03357347076268319 1:0.44789397 2:519.10911 
0.2929740794915339 0.2098170776634228 1:0.44582289 2:520.27532 
0.3839398940330221 0.2760855130421617 1:0.40031978 2:649.31869 
0.2809722290157276 0.2003746253721119 1:0.29376015 2:342.8181 
0.3000637407899504 0.215422450564529 1:0.33853378 2:402.17813 
0.207497321503656 0.1554768963095124 1:0.29697361 2:341.22268 
0.08973289017228749 0.01057549741780392 1:0.36946606 2:434.49209 
0.002396511924845857 0 1:0.34639206 2:479.75301 
0.3714285261717253 0.2671248279047427 1:0.25894905 2:364.60027 
0.291666909675024 0.2093905423493472 1:0.26157715 2:300.02899 
0.1255321896633639 0.09111150285650435 1:0.43380267 2:497.13786 
0.2339696821269331 0.1680933848916864 1:0.43181744 2:495.72642 
0.1011084616390627 0.08315526065498048 1:0.39705425 2:455.42123 
0.2030225646573253 0.1450225390457428 1:0.43779329 2:502.5867 
0.1460604723895793 0.1036315006082637 1:0.36054422 2:413.18367 
0.3866082112397477 0.2776050853769041 1:0.34717101 2:397.85798 
0.2210535914722256 0.1582714901259245 1:0.40662416 2:487.13575 
0.3917705276423912 0.2816353709549204 1:0.46803841 2:536.37201 
0.3326782280189284 0.2389738484979557 1:0.447452 2:510.09528 
0.2934236937950369 0.2108252543133145 1:0.44476122 2:506.58303 
0.1935654764943761 0.1394606199970698 1:0.44311879 2:504.7123 
0.1032152742245831 0.07503119127366113 1:0.43896671 2:501.73894 
0.392634181794718 0.281977207565612 1:0.84945744 2:936.10209 
0.393161415715335 0.283027928607365 1:1.0442033 2:1169.5077 
0.3935176502884117 0.2833375497249023 1:0.87603194 2:963.63513 
0.3919837909610722 0.2711292623174112 1:0.63109133 2:695.46265 
0.3932620987377253 0.2830465715775526 1:0.92807835 2:1034.8074 
0.3935002257364512 0.2620904526059208 1:1.5347504 2:1686.6907 
0.3935751953043816 0.2825674925799357 1:0.80467293 2:885.94489 
0 0.003634128018820737 1:0.68736662 2:756.10328 
0.2634048737382624 0.1894664004586015 1:0.68322066 2:746.76018 
0 0.003002634222794842 1:0.42384451 2:474.70585 
0.3689606761825126 0.2650293139389141 1:0.4936214 2:541.00905 
0.3770913840798473 0.2496376690952431 1:0.67388265 2:735.87986 
0.1106974970873185 0.07057476203907354 1:0.54186317 2:592.79831 
0 0.01005519104382529 1:0.41040687 2:449.39552 
0.3929893872305512 4 1:0.26123095 2:284.74173 
0.3466727879275213 0.2499324530520204 1:0.57243645 2:625.1006 
0.1280292875157702 0.09275528319241148 1:0.42772597 2:485.46898 
0.3523610064442996 0.2529660160583132 1:0.46162541 2:662.43247 
0.01923189659940569 0.002960517947367885 1:0.39455851 2:434.01436 
0.3397842202673556 0.243673876691451 1:0.38393613 2:421.9458 
0.2995376958031205 0.2149553719134532 1:0.38095216 2:426.28547 
0.3936766564848814 0.2829980007121273 1:0.60182518 2:779.36361 
0.2399231571638656 1.176780790715652 1:0.27969197 2:332.83344 
0.278156113609621 0.1996627210318192 1:0.30991197 2:369.41507 
0.2886598482383828 0.2090341240151772 1:0.251101 2:302.0745 
0.2900884186613487 0.2084804999806027 1:0.42491982 2:553.2456 
0.3226914926824345 0.2326436658722838 1:0.3874397 2:429.67062 
0.1544426079012094 0.1052560544946929 1:0.38879679 2:456.44743 
0.2416401168545332 0.1699622831424693 1:0.46912006 2:586.40008 
-0.001432128494427815 0 1:0.08077596 2:94.992528 
-0.4878318045357483 0.2490396077261478 1:0.079362827 2:171.74116 
-0.05998023310699256 0.002351931692515151 1:0.08550474 2:117.3125 
-1.369886056130293 1.441418473290087 1:0.14957426 2:188.91229 
0 0.005749717256407418 1:0.10497121 2:125.54557 
-0.657000833996541 0 1:0.10616415 2:128.2463 
-0.006384597571204259 0.1219910638838826 1:0.066887505 2:78.659706 
-0.09840876672706469 0 1:0.13581903 2:156.3277 
-0.0005983970808072225 0.003915309475393462 1:0.073828206 2:85.271577 
0 3.072386366669948 1:0.15529935 2:186.98041 
-0.02193484981700916 0.009412719891618369 1:0.08063767 2:94.507349 
-0.00252576990057214 0 1:0.079955449 2:92.268588 
-0.5967966568737616 0 1:0.091430581 2:104.77945 
-0.05536510796872066 0 1:0.095358419 2:109.47146 
-0.1298108143184694 0 1:0.095876843 2:109.68311 
-0.07041609957079661 0.01614029874397879 1:0.080479693 2:94.000282 
-0.004350882931954717 0 1:0.11909566 2:137.55548 
-0.09659904153218528 0 1:0.13579547 2:156.16479 
-0.5294682063183513 0.13607076047773 1:0.13757169 2:159.03287 
-0.01311022284115933 0 1:0.11938393 2:137.76906 
-0.5488749917488633 0.1037493804436121 1:0.14576493 2:168.65002 
-0.04401642154302175 0.003369465404341315 1:0.12294873 2:141.88284 
0 0.005668889543832261 1:0.12889186 2:148.8701 
-0.5152347389724169 0.08930221631575731 1:0.12676144 2:145.90241 
0 0.06450778336791774 1:0.12651857 2:149.67147 
-0.002996830413248536 0 1:0.12998448 2:150.13207 
-0.003012568338279907 0.05961261951923551 1:0.134475 2:155.991 
-0.7096971564690022 0.3910288467750552 1:0.13660037 2:157.50023 
-0.005625597177043961 0 1:0.13883647 2:163.82704 
0 0.001077102774412931 1:0.13931207 2:161.04475 
-0.3096711565196233 0.206067182919509 1:0.14040144 2:162.30406 
0 0.1543333781655382 1:0.14076877 2:162.7287 
-0.07522663461859334 0.2479199310049345 1:0.14436356 2:166.59554 
-0.08727006085660297 0 1:0.14395799 2:166.12752 
-0.6074524909438074 0.01711717014302759 1:0.14342568 2:169.95943 
-0.2959845770294206 0.005733376530657383 1:0.14794679 2:171.02649 
0 0.2850145861676546 1:0.14743797 2:170.4383 
-0.6515604859422642 0.2739133809028365 1:0.15022859 2:173.06333 
-0.1444546635404138 0 1:0.15194948 2:175.80554 
-0.4646821551141524 1.817706761179635 1:0.15273088 2:176.25144 
-0.01002230450804633 0.5636135499191527 1:0.15255392 2:176.04723 
0 1.579604991394095 1:0.15348171 2:177.42485 
-0.623661747601954 4 1:0.15274621 2:180.54602 
-0.01062226327231755 0 1:0.1515522 2:175.80055 
-0.6383845061429774 1.030584211020821 1:0.15367945 2:177.65344 
-0.2020634917450784 0 1:0.15484796 2:178.69455 
-1.124414232055255 4 1:0.15655189 2:185.35743 
-0.3095136597796889 2.180396163590136 1:0.15557131 2:179.84043 
-1.156233780426298 4 1:0.15783247 2:182.61216 
-0.2558341796783023 0 1:0.15495528 2:178.97335 
0 4 1:0.15719644 2:180.9331 
-0.7682569802781158 0 1:0.076582093 2:84.087138 
-0.4592696903222498 0 1:0.15158246 2:165.52804 
-0.7138762348699497 0 1:0.14738364 2:160.79556 
-0.1783854102812741 0.1222743800271597 1:0.12150464 2:136.57122 
-0.5000790268528033 0.3617915242352278 1:0.096901892 2:110.37125 
-0.05434877692806762 0.0886739991246035 1:0.12319919 2:139.83108 
-0.7229865365989921 0.3627697375578925 1:0.12505401 2:141.31104 
0 0.00174287736593165 1:0.13892551 2:160.45896 
-0.003015389302464033 0 1:0.13492285 2:152.86759 
0 4 1:0.15677596 2:177.47039 
0 0.3448002025867682 1:0.14388729 2:168.49201 
-0.6624112722918711 0 1:0.14437211 2:164.15109 
-0.01319089517350731 0.001199871080572525 1:0.082413638 2:90.078107 
-0.873335421552512 0.4273548463897754 1:0.069553518 2:76.161102 
0 0.007123315011290843 1:0.068522331 2:75.854221 
-0.1802767508224143 0.05956280277665132 1:0.078253518 2:85.452842 
-0.01890063218170478 0 1:0.072940226 2:79.650726 
-0.1480177440040046 0.1712961783328363 1:0.094122277 2:106.54642 
-0.4040337103798521 0.1919241925772232 1:0.1018844 2:113.29546 
-0.7246952857188886 0.3733728367374559 1:0.12000786 2:131.40861 
0 0.003260246340103013 1:0.10406403 2:114.05417 
0 0.007603702537685295 1:0.10168405 2:111.24235 
-0.06428681328347928 0 1:0.10209876 2:112.20654 
-0.4140412144157089 0.3382804907851695 1:0.10879687 2:119.24137 
-0.3064387123859061 0.0505254448948252 1:0.096871881 2:106.07471 
0 0.1547448107141786 1:0.098898143 2:108.09567 
0 0.001156654953213556 1:0.10112604 2:113.46342 
-0.0514515333568936 0.007985480869764897 1:0.10473698 2:114.68699 
-0.04553874260588475 0 1:0.10561534 2:115.43756 
-0.4597627496030039 0.0009123089081269487 1:0.10768482 2:118.13024 
-0.4652400236880295 0.1307508050317909 1:0.11000679 2:123.42762 
-0.06640617786316971 0.09021012192523949 1:0.11247715 2:123.27495 
0 0.004804321699174392 1:0.11206489 2:122.82312 
-0.186068927467864 0.2259393205782484 1:0.11358379 2:124.37425 
-0.5734542996817459 0.267340438997599 1:0.11732952 2:129.64912 
-0.2171108351702151 0.1070112146182473 1:0.11528723 2:126.81595 
-0.5757125122218365 0.1818895821919234 1:0.11438926 2:125.02746 
-0.004042291846388546 0.0008679646676584829 1:0.14529282 2:158.80505 
-0.01919757091501056 0.03262752664811265 1:0.14578956 2:159.34799 
-0.02463663490355404 0.07097114316942714 1:0.12437882 2:136.31919 
0 0.01232954587452816 1:0.12418641 2:136.60505 
-0.5520430114453698 0 1:0.12490711 2:136.64838 
-0.5313959847205314 0.1406093131764347 1:0.13668986 2:149.40202 
-0.009218958333804142 0.004598326604693133 1:0.11547032 2:126.20906 
-0.009832547990132902 0 1:0.13991271 2:153.34433 
-0.001209674284293749 0 1:0.13278377 2:145.26544 
0 0.07826400534426545 1:0.11537308 2:126.33352 
0 0.01092591188844072 1:0.11538237 2:126.11294 
-0.07809015843906916 0 1:0.15337291 2:167.48321 
-0.03363058631615264 0.218301411088499 1:0.15917781 2:173.50382 
-0.05858995611579505 0 1:0.093603636 2:102.30877 
-0.1256985658414478 0.2001544560630497 1:0.094027552 2:102.67809 
0 0.00188971506289492 1:0.097512164 2:106.58079 
-0.2035180288993345 0.1097657545671223 1:0.10277408 2:111.92097 
0 0.01533144148486826 1:0.095085883 2:103.83378 
-0.3493118923816098 0 1:0.098369751 2:108.20673 
-0.05340584610500337 0 1:0.10035526 2:112.19718 
-0.09318936235937469 0 1:0.099919567 2:109.31201 
-0.1021605730748336 0.2205079935858322 1:0.10303886 2:112.41539 
-0.3702398148267098 0.0355113633751768 1:0.1022167 2:111.62063 
0 0.0007112440472550615 1:0.10435932 2:113.6473 
-0.0193492023141692 0 1:0.10485418 2:117.8561 
-0.4017807497733547 0.04839746497376796 1:0.10458976 2:114.10743 
-0.1094367139897111 0 1:0.10564405 2:115.15201 
-0.07351242698960948 0.2324756287045642 1:0.10474394 2:114.58987 
-0.6111091459281798 0.3401416501485348 1:0.10665593 2:116.25497 
-0.08269119933216862 0 1:0.10602604 2:115.78043 
-0.1352247145780341 0 1:0.10748136 2:120.05668 
-0.008035167343205807 0.006468509763222441 1:0.10756466 2:117.89086 
-0.04114519300186365 0.07707924493351896 1:0.10982104 2:120.69333 
-0.06213251960282982 0.02698545283651441 1:0.11056447 2:123.50052 
-0.01417839061027676 0 1:0.1113542 2:121.37608 
0 0.004395500400794153 1:0.11395662 2:113.84267 
-0.0601597234344879 0 1:0.10908811 2:108.97902 
-0.003886998170767158 0.03680213909423913 1:0.10917828 2:109.0691 
0 0.06662218192811808 1:0.10920799 2:108.98958 
-0.002675958948308203 0.008993227693550135 1:0.10872583 2:108.6171 
-0.07891016353277057 0.06790513428582344 1:0.10907313 2:109.07313 
-0.1841535489361107 0.1362942776382823 1:0.10626113 2:106.15487 
-0.003518498124077579 0 1:0.10578477 2:105.5732 
-0.1175088258909619 0.007166800934546107 1:0.12103061 2:120.30443 
-0.03046139022605124 0.07174266389626434 1:0.11520393 2:114.97352 
-0.19685931819683 0.09340328640084825 1:0.11992762 2:117.52907 
0 0.03790201884226413 1:0.13567125 2:152.22314 
-0.01358182585844866 0.01160384749549079 1:0.12782852 2:142.40097 
-0.03408576350401577 0.0245350209383274 1:0.13322767 2:149.21499 
0 0.1875212265826339 1:0.12343571 2:136.8902 
-0.00776668871517858 0.01511284959221831 1:0.14771886 2:166.036 
-0.006545357114235474 0 1:0.13814183 2:153.88999 
0 0.1519433501700874 1:0.13099621 2:145.66779 
-0.03139496104820511 0.02007195159828154 1:0.13473424 2:149.28554 
-0.001201016812910189 0.001450983706971689 1:0.1409978 2:161.16049 
-0.0007998625482207456 0 1:0.13516215 2:150.7058 
-0.01894029588767332 0.07972600226786374 1:0.13967078 2:156.01226 
-0.07081900085888637 4 1:0.15617104 2:176.31711 
-0.01544807833484527 0 1:0.14134997 2:159.58411 
-0.005342804083179775 0 1:0.13982684 2:156.04675 
-0.192383859743497 0 1:0.15134783 2:167.54205 
-0.006456246753902384 0.01658495444753987 1:0.14753148 2:163.31735 
0 0.002885597987930231 1:0.15247242 2:168.48203 
-0.00497876929933984 0.1695541916667044 1:0.15098215 2:166.68429 
-0.007843050299406075 0.00427493849598755 1:0.14398254 2:163.56417 
-0.06323622295568045 0.01748347210757587 1:0.12997541 2:146.22233 
-0.07659178250254953 0 1:0.12497072 2:140.21715 
0 0.05037747379050487 1:0.12402828 2:139.53182 
-0.03997798816028556 0.02236035685486259 1:0.12394405 2:139.561 
-0.04475428542847414 0.01486851509967256 1:0.1237773 2:139.24946 
-0.04259701030085836 0.1112682782237108 1:0.12450075 2:140.06334 
0 0.02554057541414932 1:0.12049822 2:136.04249 
-0.01795752808773025 0 1:0.1187604 2:137.0495 
-0.4135289463536402 0.04841440074959838 1:0.1236026 2:139.67093 
0 0.01268769967887885 1:0.12054901 2:135.97928 
0 0.001534611655118909 1:0.14370054 2:161.37571 
0 0.002245912629065369 1:0.13613978 2:152.06813 
-0.7318791664352217 0.3751340817482453 1:0.13696706 2:154.22491 
0 0.05657059161967291 1:0.14140926 2:159.08541 
0 0.001926128927493111 1:0.13174917 2:151.90679 
-0.1921282913222467 0 1:0.14075499 2:159.4754 
0 0.001504619238462968 1:0.13818607 2:155.59752 
-0.03226187012826865 0 1:0.14677877 2:166.74068 
-0.008398286118385438 0.1678739513943919 1:0.13685904 2:159.30393 
0 0.1707969513291617 1:0.13561261 2:152.6998 
-0.7015851416225722 0.3765355693525701 1:0.13406841 2:150.96103 
-0.06730780519058005 0.07141785249559784 1:0.13269443 2:149.14854 
-0.006576665576118476 0 1:0.13236948 2:149.97462 
-0.00238779748000606 0.004051802865917387 1:0.12902152 2:145.79432 
-0.006046574734919068 0 1:0.13756497 2:158.33727 
-0.01962142650169055 0.007760252962846477 1:0.13735005 2:155.61761 
0 0.003799283288465076 1:0.13490097 2:152.16829 
-0.007115474992628944 0 1:0.13001282 2:153.54514 
0 0.4402466868974511 1:0.14200941 2:164.58891 
-0.1060080107065981 0.08003178331801149 1:0.13310679 2:149.07961 
0 0.01038770963397946 1:0.1219133 2:139.59073 
-0.01116546169784687 0.1224847290312515 1:0.12452382 2:146.19096 
-0.001417193685781988 0 1:0.12786848 2:145.13073 
-0.001459780368246798 0 1:0.13216946 2:150.27667 
-0.1332728658248049 0.004910788510165478 1:0.12901255 2:145.78419 
-0.01102359889089305 0.04618146961768151 1:0.11851664 2:133.33122 
-0.8503389856572771 4 1:0.15878813 2:201.81971 
-0.004486896528933404 0 1:0.12905849 2:164.42051 
-0.2980161818540537 0 1:0.1313789 2:167.37671 
-0.002518400061879116 0.005326068044061194 1:0.12235523 2:155.39114 
-0.2006223152169578 0.03410211958209756 1:0.13007476 2:166.10546 
-0.08218358564919354 0.06416867726557424 1:0.12626774 2:163.13792 
-0.2561050240990927 0.03727067710417095 1:0.1278068 2:162.69806 
-0.1946384062976901 0.02627719005479928 1:0.11922488 2:152.48862 
-0.1649887359488573 0 1:0.12318458 2:162.2341 
-0.004756086249079494 0 1:0.13982967 2:158.8465 
-0.04390081409667025 0.07833943876169544 1:0.12299539 2:142.67465 
-0.009084290922116219 0.01271020879710517 1:0.12160947 2:139.8509 
-0.01147684639782326 0.01088746835497001 1:0.125209 2:142.61306 
-0.04705709783084173 0.01258900488497052 1:0.11785432 2:136.12174 
-0.08748368849453073 0.03955413743758651 1:0.11726834 2:133.21683 
-0.5874742901623357 0.3092339690557906 1:0.12661385 2:144.4664 
-0.6641552811131594 0.2967979226045311 1:0.12639525 2:143.07942 
-0.663394655620691 0.3208673239073466 1:0.11847399 2:133.04629 
-0.0008595313529360902 0 1:0.1197727 2:135.22338 
-0.7875264315953722 0.4005836314174221 1:0.12091043 2:134.81513 
-0.01421666010569772 0.05379402153343367 1:0.083000693 2:108.89691 
-0.2711136811498076 0 1:0.078569273 2:107.48277 
0 0.005805324049757253 1:0.069871855 2:88.178281 
-0.6791511462514519 0.365840168412254 1:0.08077596 2:94.992528 
-0.01847744402267682 0 1:0.11198814 2:153.08779 
0 4 1:0.14957426 2:188.91229 
0 0.3760823006557158 1:0.10616415 2:128.2463 
-0.1010968329575674 0.0442627782132502 1:0.095011361 2:114.96375 
-0.08049973871436641 0 1:0.10831636 2:127.38004 
-0.02473829957872231 0.01144063929575134 1:0.071242824 2:85.135175 
-0.2983133825427363 0.3391525594810478 1:0.066566178 2:77.948994 
-0.01074418305830775 0 1:0.096657979 2:112.99318 
-0.487066292598634 0 1:0.13161086 2:152.53699 
-0.6664800502882032 0.3514980552464536 1:0.11496895 2:138.30765 
0 0.01744322645046589 1:0.080572625 2:93.705963 
-0.1518738898686347 0.09155994856168814 1:0.081149407 2:97.541588 
-0.2698556056146271 0.1165492916992898 1:0.080904504 2:93.606512 
0 0.003315243671311222 1:0.076026335 2:88.342602 
-0.4759330405273494 3 1:0.15529935 2:186.98041 
-0.6111738423706892 0.2741129208295317 1:0.07722911 2:89.276851 
-0.002094833590176803 0 1:0.07949359 2:92.053577 
-0.3883493975676443 0.00244359216775875 1:0.070986727 2:81.847697 
-0.01511982597530486 0.006003396122524585 1:0.086431843 2:100.77953 
-0.6324593811845594 0.2854174785198916 1:0.088489144 2:101.67403 
-0.0009344465470615404 0 1:0.091601135 2:105.0665 
0 0.3582352867186043 1:0.091430581 2:104.77945 
-0.07192253263339364 0 1:0.095427333 2:109.45515 
0 0.0008808270792058302 1:0.074582056 2:91.586765 
-0.5711543070539441 0.1163474802866857 1:0.08997872 2:103.38555 
0 0.004865759478534583 1:0.084638315 2:100.88887 
-0.004945595905312649 0.0122922786038385 1:0.081718989 2:94.058556 
0 0.005887572605074803 1:0.069451323 2:79.79957 
-0.06491655198625575 0.2826313887550453 1:0.07007561 2:81.918388 
-0.6202032313621246 0.02839828051017377 1:0.06734708 2:78.324654 
-0.0296302027897427 0.00590116321092309 1:0.066077471 2:76.980254 
-1.605060807517345 4 1:0.15590529 2:194.258 
-0.007855451858197703 0 1:0.056649003 2:72.567373 
-0.001967838151948718 0 1:0.059274921 2:69.588757 
-0.2481328832821514 0.06554686691827856 1:0.056448664 2:66.496527 
-0.01705664382058478 0 1:0.046130549 2:54.249525 
0 0.1034641294680836 1:0.14349244 2:170.32552 
-0.7835254617450715 0.401867417628462 1:0.052489451 2:62.724894 
0 0.3074668758568071 1:0.0578626 2:66.484128 
-0.5419108239512878 0.05842599583584443 1:0.057698653 2:66.353451 
-0.8018787905548563 0.4294272741600577 1:0.056183877 2:64.499091 
-0.00663623097465567 0.001016276105903091 1:0.046922345 2:54.007619 
-0.8497198254247715 4 1:0.15066463 2:201.13729 
-0.6923584356840256 0 1:0.14976875 2:174.63036 
0 0.001993191525506365 1:0.10741347 2:125.67376 
-0.03852895861992727 0.1179798401904737 1:0.098936977 2:117.735 
-0.4893568730664475 0.2359286946878905 1:0.13417346 2:155.77539 
0 0.001591529924764884 1:0.1141727 2:132.32616 
-0.03543853731337221 0.02582939453714594 1:0.089851807 2:109.2598 
-0.5034539270847653 0.227499754817041 1:0.10853792 2:126.44667 
-0.008781808369845479 0 1:0.1236819 2:145.57359 
-0.8271239452730386 0.4250157097679982 1:0.078951224 2:91.188664 
-0.1775580282762854 0.1154363719343472 1:0.10677702 2:130.26797 
-0.6044007043890126 0.3323898171056385 1:0.075340329 2:92.894626 
-0.03819489101453898 0 1:0.087199099 2:105.68531 
-0.003571995415740381 0 1:0.060092909 2:70.068331 
-0.09944831568153505 0.04370743597848704 1:0.086005712 2:100.02464 
-0.00440201551068471 0 1:0.079756807 2:92.358383 
-0.0326792059905881 0 1:0.045908778 2:55.549621 
0 0.02380420728102585 1:0.041464507 2:48.679331 
-0.6179535167924787 0.07861427465442382 1:0.039802049 2:48.518698 
0 0.09901249573835071 1:0.040531326 2:48.637591 
-0.3816293394495552 0.210301304418462 1:0.1014803 2:120.45712 
-0.01287216860636775 0.007044397115204989 1:0.10223579 2:117.9801 
0 0.02200815141467797 1:0.09675645 2:111.26992 
-0.1794907866114991 0.1826226622800908 1:0.093625777 2:107.57602 
-0.001224850041235515 0 1:0.10248096 2:117.95559 
0 0.1315702390870108 1:0.10233646 2:117.78927 
-0.6133161366709796 0.345575356317921 1:0.074949466 2:85.967038 
-0.03682811898516931 0.150279180708308 1:0.13272078 2:152.62889 
-0.03373249872816666 0 1:0.13508025 2:155.47737 
-0.01992926316833906 0 1:0.11637326 2:133.71287 
-0.7681402800347386 0.3902898584765961 1:0.074086488 2:87.570229 
0 0.002147869019943285 1:0.071970509 2:82.622144 
-0.002135066369082271 0 1:0.071991256 2:82.789945 
-1.411939121760053 0.7327005762643179 1:0.040052311 2:45.940001 
-0.6132989815773171 0.3463791750501189 1:0.087167531 2:100.15549 
-0.05654628781405686 0.003399904586785102 1:0.057094644 2:65.544651 
-0.9462944537349158 0.4902040835134556 1:0.05019004 2:57.567976 
-0.2115650890814877 0.157852260935923 1:0.07463832 2:89.491346 
0 0.01378745015596656 1:0.042200512 2:48.403988 
-0.07943357359504977 0.01101596470292947 1:0.048923639 2:56.164338 
-0.008567518559693389 0 1:0.042070648 2:50.400637 
0 0.03347195822830971 1:0.042133566 2:48.369334 
-0.3479464110654971 0.4058700454555231 1:0.042268581 2:50.595492 
-0.005117402161550045 0.03147188309923895 1:0.063636779 2:73.182296 
-0.01524297954122673 0.01890227725265101 1:0.057078839 2:65.526507 
0 0.01817268583785563 1:0.057601858 2:66.126933 
-0.135192426678541 0.01074098558889488 1:0.058910858 2:67.570754 
-0.02354821938375562 0 1:0.059367732 2:71.300646 
-0.002393443840291101 0.003107708252365297 1:0.060920095 2:69.875349 
-0.002384441646105906 0.03088010754617056 1:0.060975904 2:70.000338 
-0.5682114676978092 0.1602092245572658 1:0.061223552 2:70.162191 
-0.8263415520269504 0.4248210041859777 1:0.062786826 2:72.142063 
-0.262844746549326 0.25204974315526 1:0.06137219 2:70.393902 
-0.01393188652203663 0 1:0.062011415 2:71.189105 
-0.3231503478718347 0.2621306437782531 1:0.062113999 2:74.474685 
0 0.02807655057418784 1:0.063820733 2:73.330022 
0 0.01229500476518572 1:0.064280302 2:73.665226 
-0.8553764291543515 0.4430608576926676 1:0.051905287 2:59.639175 
-0.03731897061184745 0 1:0.045252372 2:54.302846 
-0.2048125789683194 0.05361195033820056 1:0.042291341 2:48.592751 
-0.001259441904532083 0 1:0.042029161 2:50.392964 
0 0.0358470261100704 1:0.042183769 2:48.426966 
0 0.02464109927868489 1:0.042208664 2:48.455546 
-0.2295548250611876 0 1:0.042414318 2:48.606808 
0 0.02456554911662623 1:0.046901813 2:56.188372 
-0.01980057679566305 0 1:0.045352477 2:52.019292 
-0.001236688719753187 0 1:0.04392959 2:50.255451 
-0.00194412914439833 0 1:0.04420584 2:50.659892 
-0.005322622158474566 0.01632725759592504 1:0.043168935 2:51.716385 
-0.001466096777853688 0 1:0.043841322 2:50.329837 
-0.008176060934661413 0 1:0.04404847 2:50.435498 
-0.001904830135974354 0 1:0.04377142 2:50.24959 
0 0.003409434593253887 1:0.045113421 2:51.790208 
-0.2482592169932375 0.01985163063462398 1:0.044584478 2:51.182981 
-0.005717089035296731 0.02112181297642911 1:0.04515636 2:51.884658 
-0.002447573221320521 0 1:0.043991791 2:50.502576 
-0.004218075702606369 0 1:0.045545633 2:52.331932 
-0.004882179520726858 0 1:0.045477428 2:52.16261 
-0.1419939429794242 0.01746392822966407 1:0.04698642 2:53.799451 
-0.6136383593974188 0.3229565219777186 1:0.053347235 2:61.189279 
-0.02336478358381767 0 1:0.065277333 2:74.873101 
-0.3425491431265389 0.01096643645498098 1:0.044173158 2:50.710785 
0 0.2990855515577064 1:0.046631479 2:53.346412 
-0.006510831586613422 0.00521040544732824 1:0.044771997 2:51.35348 
-0.02595419707174951 0.04458909197498873 1:0.045178671 2:51.910293 
0 0.02298112813011563 1:0.044880426 2:51.477848 
-0.7801526840525079 0.4413090295187313 1:0.059477754 2:68.399418 
-0.01181179215542576 0.01043683236430628 1:0.047035181 2:53.996387 
0 0.01476966109872421 1:0.042502648 2:48.79304 
0 0.1617341741610292 1:0.042272594 2:48.486665 
-0.6077900651862783 0.1863901935102303 1:0.064457067 2:73.932255 
-0.7790041978741222 0.3952472012174721 1:0.1289086 2:147.60035 
-0.001453491817752077 0.05848290022131786 1:0.069498989 2:79.645841 
-0.02297536085038516 0 1:0.069503281 2:79.789766 
-0.485366290021069 0.1986454799972516 1:0.069458615 2:82.516835 
-0.8306483728216985 0.3951735493820857 1:0.069945735 2:80.227758 
-0.05893721978189758 0 1:0.048422881 2:55.589468 
-0.01731518395212258 0 1:0.04722287 2:54.211855 
-0.1261872065331224 0.02214614569181263 1:0.048910102 2:56.050977 
-0.01092227569279769 0 1:0.045451463 2:52.132828 
-0.008502997742057473 0.008542586002940058 1:0.044974289 2:51.630484 
-0.01382628265094045 0 1:0.045337419 2:54.359566 
-0.009303965958423097 0.007805931109626556 1:0.047255981 2:54.20261 
-0.03078265557543604 0.01019683467298435 1:0.045494523 2:52.227713 
-0.7103243638061132 0 1:0.046188353 2:52.931852 
0 0.04557350595065245 1:0.046886628 2:56.31084 
-0.003468523028718562 0.02181304712870814 1:0.045393066 2:52.292812 
-0.02068351242986269 0.01529858293653206 1:0.047018548 2:54.024312 
-0.05511580009307531 0 1:0.046769851 2:53.59825 
-0.00421647987399737 0 1:0.045543205 2:52.283599 
0 0.1556451558220185 1:0.045802059 2:52.580764 
-0.6756744998572309 0.4290478825727387 1:0.048113168 2:55.233917 
0 0.02864050380661528 1:0.093503919 2:111.55017 
-0.04572447854513217 0.04593130119556075 1:0.090521361 2:103.64696 
-0.02029812539616292 0 1:0.086688524 2:99.691802 
0 0.4183792300218332 1:0.076582093 2:84.087138 
0 0.01485500153651574 1:0.15158246 2:165.52804 
0 0.372613518927172 1:0.14738364 2:160.79556 
0 0.005832270243750392 1:0.092006041 2:101.11464 
-0.7042908227749214 0.377178683921074 1:0.10354157 2:121.97197 
0 0.04686022545454915 1:0.094127771 2:103.44642 
-0.7118996262431112 0.3596028223287443 1:0.087936938 2:96.554757 
-0.7380804855085158 0.3770327119657589 1:0.089423413 2:98.455178 
-2.260533947589261 -0.001359620779082429 1:0.20600401 2:334.75652 
-2.811970287103188 -0.0008055551534471156 1:0.21759311 2:309.635 
-0.08402591915337035 -0.3527952961472453 1:0.175761 2:208.10102 
0 -0.2255966786731266 1:0.17220741 2:198.72736 
-0.1888679335272921 0 1:0.17267676 2:199.26898 
-0.0007721029994784443 0 1:0.17250548 2:199.07133 
0 -0.2128420110147172 1:0.17275243 2:199.70181 
-0.3235056066223809 0 1:0.16617537 2:191.43403 
-0.6968106975782378 0 1:0.16618659 2:192.27788 
-0.03706784234660643 0 1:0.16748731 2:194.62026 
-0.4825070569226834 -0.3699405109631813 1:0.16770534 2:193.69967 
-0.007652538098362953 0 1:0.16977427 2:196.25906 
0 -0.07716041284137809 1:0.16931821 2:195.2239 
-0.000690724629262286 0 1:0.16843641 2:198.9234 
0 -0.253010753180612 1:0.16919341 2:195.41839 
-0.2008169382189254 -4 1:0.16820399 2:194.1074 
-0.1294924398911438 -0.04328719537074944 1:0.16796694 2:194.33775 
0 -0.04455400714538264 1:0.16898742 2:195.18048 
0 -0.372176398632512 1:0.16911749 2:195.3307 
0 -0.4743894871834173 1:0.16456473 2:190.07226 
0 -0.02381299165229613 1:0.1691589 2:195.20937 
-0.01075478391846478 0 1:0.17000406 2:196.35468 
-0.004371467828174484 -0.04644896981423652 1:0.17083896 2:197.48984 
-0.01595958125491844 0 1:0.16979135 2:196.4486 
-0.6818902693264549 -0.1544063577658237 1:0.16842704 2:199.24918 
0 -0.08228594258952435 1:0.17158879 2:198.01347 
-0.01640702783496252 0 1:0.16935563 2:196.11381 
-0.01352566847485754 0 1:0.17032796 2:196.89913 
-0.0246251355551077 0 1:0.17024041 2:196.79791 
-0.01813976704696942 -0.02771761940369482 1:0.17870766 2:206.76476 
0 -0.09762341856178518 1:0.17941327 2:207.22233 
-0.01570715032694907 0 1:0.1798956 2:212.27681 
-0.00239762196803987 0 1:0.18286231 2:211.0231 
-0.005374938524927431 -0.0441024192819572 1:0.18286966 2:211.39733 
-0.2163645634084523 -0.1360219712466214 1:0.18293128 2:211.65149 
-0.02127714410486575 0 1:0.18195361 2:215.43307 
0 -0.05771108926123816 1:0.18101963 2:209.25869 
0 -0.01681427331000772 1:0.18148284 2:209.61268 
-0.4668992859767702 -0.1434991590607086 1:0.18345218 2:212.07072 
0 -0.3967726486172147 1:0.19037103 2:220.44965 
-0.1518192658650415 -0.03548451425882075 1:0.18093871 2:208.98421 
-0.2924424592306321 0 1:0.17728702 2:204.76651 
0 -0.4488412680872938 1:0.18457757 2:213.00251 
-0.01421545179369775 0 1:0.17743426 2:209.37242 
0 -0.04177410397464759 1:0.17686325 2:204.45391 
0 -0.07625095685118657 1:0.17639771 2:204.26855 
-0.8713912066440608 0 1:0.17597138 2:202.895 
-0.006203409085959325 -0.05011580191558084 1:0.17869096 2:211.3914 
-0.003672955119352961 -0.08941603659161408 1:0.17879541 2:206.68749 
0 -0.05241146226343077 1:0.17913955 2:206.90618 
-0.3253898171883431 -0.218402290604871 1:0.19900515 2:229.85094 
-0.3491850705560114 -0.07082191128848789 1:0.19251907 2:227.17251 
-0.01700243022193242 -0.07517221123634855 1:0.19187865 2:221.81172 
-0.02713429101941005 -0.004055003487785652 1:0.19109221 2:221.09368 
0 -0.1412458892508708 1:0.18989947 2:219.52379 
-0.2029342429219926 -0.1024423363003997 1:0.19169491 2:221.59931 
-0.4487339309892162 -0.2444958805655593 1:0.19454711 2:224.50737 
-0.00586526707057331 -0.07372613016947943 1:0.19213997 2:221.92166 
-0.05772736894753855 -0.08206881789424404 1:0.19426796 2:229.43046 
-0.7556797602255837 -0.5147895609505075 1:0.20557219 2:237.02473 
0 -4 1:0.17457066 2:201.80369 
0 -0.1655949831017579 1:0.19353941 2:214.44167 
0 -0.3874592277142407 1:0.18312004 2:205.64381 
-0.3886219059470495 -0.004657556606360118 1:0.19679802 2:221.00417 
-0.03563725986707123 -0.1035088340892221 1:0.18622695 2:209.50532 
-0.03216494702833014 -0.01274333018187219 1:0.18618988 2:209.27743 
-0.0006825994531189742 -0.002903462644502933 1:0.17473423 2:201.99277 
-0.0129801520657753 0 1:0.17488552 2:201.46812 
0 -0.4350729792979957 1:0.17564364 2:203.21969 
0 -0.07000514601749189 1:0.17464823 2:201.89336 
0 -0.1017787036023587 1:0.17457237 2:201.98023 
-0.000555526712839365 0 1:0.17415191 2:206.0217 
-0.004275025660429955 0 1:0.17722081 2:205.39892 
-0.04150545043731096 0 1:0.17379545 2:200.90754 
0 -0.02016121111318709 1:0.17665873 2:204.21749 
-0.05254696391935334 0 1:0.17762068 2:205.50713 
-0.5087744844155875 0 1:0.1854578 2:214.76013 
-0.8029294914493753 -0.0183237803081317 1:0.17873724 2:206.44151 
-0.02462568224694078 0 1:0.18024792 2:211.07031 
0 -0.09895321595281865 1:0.17379215 2:202.64165 
-0.001540735543648697 -0.04438653432135079 1:0.17298385 2:200.14232 
0 -0.0620608040489188 1:0.17462235 2:201.86343 
-0.2579045409713153 -3.937929326694541 1:0.17429602 2:201.13761 
-0.01641043608868453 0 1:0.16859286 2:194.72475 
0 -0.01354010457142865 1:0.17008981 2:200.53589 
-0.007688764851088239 0 1:0.16995423 2:196.29714 
0 -0.005749747739174293 1:0.18129094 2:209.39103 
-0.001967492852773862 -0.05664651396465775 1:0.17676198 2:204.33685 
0 -0.00473885819842106 1:0.17869838 2:207.29012 
0 -0.09712278123004101 1:0.17931864 2:207.11303 
-0.6938171212595782 0 1:0.18008491 2:208.17815 
-0.61507339368549 0 1:0.18073676 2:213.26938 
-0.001445722452971176 0 1:0.17289839 2:199.69765 
0 -0.02759444477055956 1:0.17281173 2:199.77037 
-0.5717671205638417 0 1:0.17406506 2:201.04515 
-0.002273395853331306 -0.4119718965290189 1:0.17386698 2:200.99023 
-0.8020551605600671 -0.4096577080802928 1:0.18624284 2:216.97291 
0 -0.04774239704344203 1:0.17506943 2:202.2052 
-0.02436598328335483 0 1:0.17046927 2:197.23295 
-0.1406812890008515 0 1:0.18939378 2:218.56042 
-0.4907095325278541 0 1:0.19026377 2:219.94492 
-0.3282302456188772 -0.1325995804010441 1:0.19587157 2:226.23166 
-0.6112058285671855 -0.4109770704565888 1:0.200124 2:235.94619 
-0.1166931230007082 -0.0795239593333346 1:0.19651281 2:227.56184 
-0.1538590377666315 -0.1239346682744605 1:0.19081457 2:221.3449 
0 -0.03099758084632595 1:0.18790218 2:217.21493 
-0.1028210998355844 0 1:0.18876328 2:218.21035 
-0.5870293158754645 -0.3925575607605581 1:0.1973418 2:228.5218 
-0.171555741554772 -0.327805790732919 1:0.19644469 2:227.09007 
-0.3598962839885968 -0.3121571610969533 1:0.19476469 2:225.53751 
-0.04111166059042436 -0.06953444117861785 1:0.18998403 2:219.43155 
0 -0.03993291961673549 1:0.18122901 2:209.68196 
0 -0.01698270182178721 1:0.18082804 2:209.03721 
-0.1996551589959274 -0.1928965635731954 1:0.19158682 2:223.39023 
-0.05119939427014932 -0.009809486649988675 1:0.18278528 2:211.29978 
0 -0.031673404419021 1:0.18099279 2:209.40866 
0 -0.394689144940969 1:0.17847465 2:210.60008 
-9.120174135503634e-05 0 1:0.17339174 2:200.44085 
-0.0007184815911446263 0 1:0.17549774 2:203.92837 
-0.8064714079129371 -0.06333901544668809 1:0.17067308 2:197.46876 
-0.005684006804075326 -0.3680783360380285 1:0.16685101 2:197.38474 
-0.2895881014960536 -1.847365779288151 1:0.16633221 2:181.63477 
-1.112754163009273 -0.7538118270737125 1:0.1760699 2:239.10292 
0 -0.005662294878588308 1:0.18893853 2:214.2563 
-0.3739691317915086 -0.2406013524038365 1:0.20325631 2:230.08614 
-4 -1.047733990338157 1:0.23582367 2:285.58247 
-0.003086425726049837 -0.03998397382100548 1:0.1802165 2:206.70833 
-0.1887628821657279 -0.150896388062876 1:0.20115289 2:224.68778 
-1.432146957711 -4 1:0.16414055 2:185.15053 
-4 -0.08511771178691965 1:0.24732929 2:283.93402 
-0.8432569707848114 -0.5769727323554417 1:0.20722735 2:234.16691 
-0.01642319738828211 -0.1155521833957669 1:0.18368291 2:209.03115 
-4 -1.164527315335012 1:0.24477329 2:293.48317 
-0.04213093858878539 0 1:0.20298762 2:229.17302 
0 -4 1:0.16692256 2:186.4525 
-0.01963697291362221 -0.2410246672268213 1:0.19229732 2:218.06516 
-0.0385705475494706 -1.04594148899851 1:0.24359523 2:282.32687 
-0.4673034449402354 -0.316490058631279 1:0.22225464 2:269.15037 
-0.7685140686518933 0 1:0.1807644 2:210.22899 
-0.3709590309550609 -0.2461417409117646 1:0.21355255 2:233.19939 
-0.5263131231871326 -0.07450994897221123 1:0.18138072 2:204.59745 
0 -4 1:0.16108999 2:176.55463 
-0.5188093937387219 -4 1:0.16294614 2:177.77424 
0 -4 1:0.16644376 2:181.59014 
-0.9048834020043254 -4 1:0.16489068 2:179.89573 
-1.322203563655608 -4 1:0.16147263 2:176.48959 
-1.01008015782222 -4 1:0.17019951 2:189.94265 
-1.258675888434213 -0.8543796923597369 1:0.24962805 2:249.62805 
-1.605238210214348 -1.087689617856822 1:0.24319329 2:271.8901 
-0.4820754890304707 -0.3260240853138814 1:0.22244286 2:248.24623 
-1.479322733752611 -1.003040379105898 1:0.21555829 2:241.64085 
-1.676745274497845 -1.137091990006858 1:0.23967614 2:264.36278 
-1.41958477681546 -0.9628374969483403 1:0.2275668 2:255.32995 
-0.9248954256904259 -0.6223366253556527 1:0.22953937 2:259.83856 
0 -0.02045992671663822 1:0.18766609 2:214.69001 
-1.133966018311923 -4 1:0.16435465 2:187.69301 
-0.9042515969858825 -0.6175484897578934 1:0.202167 2:231.68338 
0 -1.163074626915195 1:0.20600401 2:334.75652 
0 -1.163859447553948 1:0.21759312 2:309.635 
-1.315613308877605 -0.8922026250124526 1:0.20896677 2:252.84979 
-0.419888015739366 -0.4532859874161661 1:0.18330219 2:215.56337 
-0.7878448628581468 -0.5394488011611211 1:0.19935958 2:259.56617 
-0.003036937008707134 -0.1148639376652443 1:0.16469412 2:204.87948 
-1.247068921156801 -0.84627437741387 1:0.22294963 2:268.2084 
-0.1241313400898089 -0.2030370798544326 1:0.16919634 2:214.20256 
-0.4913813322267912 -0.2729656768830617 1:0.18921514 2:218.7327 
-0.7652363070628001 -0.2255009953069513 1:0.1632913 2:195.62298 
-1.511944372833457 -1.025460044474555 1:0.2145075 2:246.04011 
-0.649702552216008 -0.3618837289787689 1:0.18585881 2:222.84471 
-1.060050814955644 0 1:0.24561107 2:282.69834 
-0.9232077626252693 -4 1:0.16633221 2:181.63477 
