svm_type c_svc
kernel_type rbf
gamma 0.25
nr_class 3
total_sv 244
rho 0.180096 0.592607 0.456024
label 0 1 2
nr_sv 60 53 131
SV
0.8582195972046743 1.164375892216505 1:0.12849883 2:1.8828168 3:0.058599899 4:0.30886479 5:0.058223225 6:0.27315308 7:0.056939768 8:0.22402521 9:0.064089874 10:0.26638688 
0.01796933503774665 0 1:0.59917167 2:4.5663662 3:0.3666009 4:1.9734054 5:0.23597728 6:1.2279814 7:0.14755827 8:0.59217327 9:0.078655455 10:0.36950122 
0.03555271610815691 0.09415911217723279 1:0.3793152 2:3.6881849 3:0.11803484 4:0.66323125 5:0.23302458 6:1.3598943 7:0.23473319 8:1.3870037 9:0.23315352 10:1.372832 
0.2328097118755625 0 1:0.814512 2:6.3224504 3:0.29294874 4:1.6938328 5:0.37236173 6:2.1609493 7:0.36257494 8:2.1120734 9:0.22448488 10:1.3190622 
0.09040111826080874 0.1540727316863555 1:0.54577677 2:4.6752157 3:0.46095861 4:2.4785264 5:0.41765225 6:2.2302031 7:0.30866473 8:1.6511681 9:0.23782232 10:1.1030267 
1.179159208465894 1.585555652693872 1:2.2365334 2:14.127154 3:0.77331057 4:4.3952654 5:0.89885637 6:5.1172679 7:0.16879282 8:0.97937963 9:0.61608164 10:3.5272719 
0.5545688833154455 0.7796550454645063 1:0.66831633 2:5.0632318 3:0.49938598 4:2.642328 5:0.56832043 6:3.0280131 7:0.53643974 8:2.8928925 9:0.56520552 10:3.1133967 
0.0734430507476314 0.1368908229279563 1:1.0729836 2:7.4312408 3:0.73941589 4:3.9456882 5:0.42152273 6:2.3777489 7:0.52190984 8:2.9177037 9:0.41340814 10:2.2510535 
0.9963427377473563 1.342773522758032 1:1.4496737 2:9.9067178 3:0.86724797 4:4.7537294 5:0.56362228 6:3.0154518 7:0.53571267 8:2.8862078 9:0.60519256 10:3.4115128 
0.6583455668054078 0.9200010779682118 1:1.0028662 2:6.845016 3:0.66309546 4:3.7631545 5:0.51038683 6:2.9178686 7:0.23356777 8:1.3901942 9:0.13224514 10:0.74425649 
0.6906450180063097 0.9213846021355909 1:0.72717143 2:6.3154286 3:0.70547996 4:4.0440583 5:0.60587483 6:3.5044803 7:0.58496753 8:3.3332169 9:0.4871166 10:2.8010608 
1.12439793045083 1.517664362738547 1:1.7698124 2:12.34198 3:1.2392581 4:7.0313132 5:1.0643654 6:6.0519965 7:1.1643851 8:6.6021042 9:1.0521454 10:5.9778513 
0.2129668187897507 0.03544087897728455 1:0.57393584 2:4.2714755 3:0.058289595 4:0.25372425 5:0.060536346 6:0.2472955 7:0.053581936 8:0.22821662 9:0.052502704 10:0.21012515 
0.8476801751562664 1.81519794742585 1:2.30925 2:11.94412 3:0.11042856 4:0.45959267 5:0.083740309 6:0.36971522 7:0.06563598 8:0.32880276 9:0.057537123 10:0.25714506 
1.105965744991489 1.492115702915137 1:2.0389399 2:10.7568 3:1.4720029 4:5.7722826 5:0.97977642 6:4.2067584 7:1.0374036 8:4.5627194 9:1.1801108 10:6.3556255 
0 0.3166180143177314 1:0.9606261 2:5.579195 3:0.12721148 4:0.68097643 5:0.073769895 6:0.34328088 7:0.058806105 8:0.2547407 9:0.081986721 10:0.34762194 
1.229607767556512 1.385153971232395 1:3.0404071 2:15.118966 3:0.22887409 4:0.87183142 5:0.1183843 6:0.516294 7:0.11726881 8:0.47037151 9:0.10246203 10:0.41960483 
0.03225238103105902 1.646672026240256 1:1.3437978 2:10.587804 3:0.12203786 4:0.68961351 5:0.075849083 6:0.33145639 7:0.094912939 8:0.46413781 9:0.3105796 10:1.8407449 
0 0.1278371650274466 1:0.63740943 2:6.8156574 3:0.20748722 4:1.1880333 5:0.089896956 6:0.39601546 7:0.11834067 8:0.52105185 9:0.11171991 10:0.58840627 
0.6559500626622863 0.01380101444237033 1:0.68246876 2:7.3368912 3:0.25538074 4:1.4840586 5:0.16691042 6:0.95312119 7:0.095711648 8:0.46169632 9:0.15495098 10:0.91320722 
0.7681083771560919 0.05255881184495916 1:0.64973715 2:6.51992 3:0.10911451 4:0.42682939 5:0.088726331 6:0.46225429 7:0.15440476 8:0.76656034 9:0.16998227 10:0.86982274 
2.698894085054386 0.2872674758611538 1:0.80339923 2:7.6156183 3:0.16955442 4:0.84487758 5:0.18107805 6:0.99742925 7:0.14152277 8:0.79091454 9:0.19539581 10:0.91568713 
1.044428852366126 0.9166428871860076 1:1.8480622 2:13.054364 3:0.30462276 4:1.6159192 5:0.14998468 6:0.78552374 7:0.22499339 8:1.0379147 9:0.50374439 10:2.8843843 
0.750325561727356 1.987961486686215 1:1.6308767 2:10.798069 3:0.40471444 4:1.7634249 5:0.55924579 6:2.5462227 7:0.23805064 8:1.2397859 9:0.31266654 10:1.6479265 
1.218706812737067 0.5813675908435217 1:0.57637646 2:6.9198087 3:0.2269129 4:1.1831773 5:0.17919525 6:1.0493509 7:0.32971384 8:1.9549244 9:0.11547488 10:0.49887292 
0.4213033778124282 2.328451294639838 1:1.4466687 2:9.7537047 3:0.19681433 4:1.1164322 5:0.17334115 6:0.6590163 7:0.21062336 8:1.057887 9:0.11473557 10:0.46418718 
0.1610713227282425 0.4919500583631574 1:0.14312429 2:4.5315378 3:0.063370393 4:0.2513952 5:0.043972971 6:0.22914318 7:0.074288693 8:0.31270563 9:0.064781793 10:0.28813638 
0 0.09073897236858419 1:0.46798911 2:6.5149046 3:0.20734402 4:1.1284221 5:0.11171589 6:0.57564057 7:0.094313215 8:0.36064927 9:0.091709706 10:0.44077244 
1.180214171126302 1.592363633539048 1:0.1285747 2:2.1979633 3:0.054313488 4:0.28447628 5:0.065670556 6:0.26628547 7:0.044155267 8:0.18664435 9:0.058314954 10:30.853913 
0.6119938934496763 0.8231658572864365 1:0.15201739 2:2.0835312 3:0.072667458 4:0.26769783 5:0.06915631 6:0.27312261 7:0.047777621 8:0.24230844 9:0.065596642 10:4.1258652 
0.3660479968380534 0.5060767247317143 1:0.12493077 2:2.266136 3:0.061352677 4:0.27000125 5:0.054590745 6:0.20824284 7:0.06918358 8:0.35928717 9:0.056788749 10:2.3899744 
0.9955167630506033 1.342949473897066 1:0.39883162 2:3.3041592 3:0.21730969 4:0.85973058 5:0.13753026 6:0.57726186 7:0.13414383 8:0.61817493 9:0.10046901 10:7.4793422 
0.2878468289516882 0.3757609417046086 1:0.16008238 2:2.6227779 3:0.065266864 4:0.28997438 5:0.071355518 6:0.3074995 7:0.064217089 8:0.31903182 9:0.052243034 10:5.5135289 
0.484982534038337 0.6228570690697293 1:0.37271084 2:3.6283389 3:0.29387842 4:1.7040495 5:0.24700963 6:1.4042548 7:0.17299621 8:1.0158718 9:0.16601113 10:0.39917368 
1.180341292626595 1.592624034262909 1:0.16234169 2:2.6284293 3:0.063649923 4:0.33067509 5:0.054534346 6:0.26784785 7:0.063856291 8:0.35296626 9:0.050846061 10:15.158481 
0.7111319379785642 0.8590107414725753 1:0.84928756 2:6.6827742 3:0.61423833 4:3.5265201 5:0.27647523 6:1.6360479 7:0.15933218 8:0.80112488 9:0.16586051 10:2.8025256 
0.8330151602526913 1.126653414830117 1:0.34973425 2:3.756501 3:0.37600566 4:2.1747466 5:0.28273938 6:1.670215 7:0.34130406 8:1.9963063 9:0.22235833 10:4.9533829 
0.3661211678309232 0.428205087362788 1:1.6542521 2:8.7124686 3:0.67432286 4:2.7724702 5:0.57687558 6:2.340315 7:0.64641892 8:2.604967 9:0.47913543 10:2.8109608 
0.1688305786828231 0.1981926323644551 1:0.33258199 2:4.1614034 3:0.33014054 4:1.9314912 5:0.26574133 6:1.5688759 7:0.24004955 8:1.4065577 9:0.10479905 10:2.1908566 
0.3942935313408652 0.6642005244129505 1:0.63502597 2:5.6136852 3:0.31458174 4:1.8209965 5:0.46818867 6:2.6914933 7:0.23535453 8:1.3348014 9:0.44206719 10:0.28908311 
0.4487474203940202 0.4512337970435809 1:0.87287103 2:5.0348302 3:0.090999082 4:0.42076866 5:0.058289495 6:0.29308577 7:0.068190282 8:0.28938579 9:0.053211418 10:1.9091071 
0.08375591034884368 0.1318841547354622 1:0.16513134 2:3.3087837 3:0.05325477 4:0.22977563 5:0.055422842 6:0.24964482 7:0.081186107 8:0.32316821 9:0.0675037 10:5.2451443 
1.473427928283052 1.454639495380853 1:3.120238 2:16.381767 3:0.56022241 4:3.0711968 5:0.46725168 6:2.6400531 7:0.44248842 8:2.0370992 9:0.58371334 10:0.2584376 
1.273151975831109 1.59539164951725 1:3.8760642 2:23.170781 3:0.34018726 4:1.6268779 5:0.4128098 6:1.6996923 7:0.72331453 8:4.0309678 9:0.22108666 10:0.4285602 
1.181157077155764 1.594981961721637 1:4.8456491 2:26.147354 3:1.593803 4:7.9280452 5:0.55080311 6:2.9763867 7:0.54524725 8:2.6003028 9:0.85105303 10:7.4354778 
0.6529720768572689 0.6868988468105286 1:2.1499274 2:10.545278 3:0.21424669 4:1.029338 5:0.10806255 6:0.59735269 7:0.067616978 8:0.30595454 9:0.085772791 10:2.7814601 
0.8517383541939267 1.013095685048928 1:2.8952705 2:12.984979 3:0.27009117 4:0.93458515 5:0.27282559 6:1.1645489 7:0.45624143 8:2.5133434 9:0.30271575 10:1.8812373 
2.532587858737019 1.348144243345847 1:5.1403655 2:25.326058 3:0.85583421 4:4.494444 5:0.46288975 6:2.5677025 7:0.47052588 8:2.2919705 9:0.50616436 10:0.22925974 
0.6806383103423546 0.9595771856640976 1:0.91088471 2:8.0551901 3:0.49352808 4:2.2365126 5:0.54616747 6:2.8767744 7:0.37431437 8:1.7971469 9:0.44100196 10:3.7437354 
0.5744137028592091 0.7618018923721632 1:0.35098247 2:4.7558328 3:0.15661533 4:0.68362097 5:0.22528965 6:0.92442109 7:0.17844316 8:0.79204268 9:0.12067663 10:3.8078566 
1.25769525214555 1.386254018161158 1:6.5373564 2:28.346764 3:1.1170722 4:5.8668881 5:0.6292808 6:2.5257337 7:0.79203768 8:4.1112521 9:0.73033722 10:1.3762896 
1.202327332779043 1.596959821322526 1:6.0700853 2:33.068646 3:1.5617382 4:8.0725844 5:0.38072618 6:2.1150564 7:0.68745949 8:3.9478201 9:0.63103957 10:3.4050284 
1.180286300488196 1.592117678740541 1:4.3340328 2:21.814426 3:2.0226658 4:10.26471 5:1.2638187 6:6.5170515 7:1.0227227 8:5.3671209 9:0.57416576 10:0.35829756 
1.379775988515348 1.431522954205811 1:5.4491545 2:25.957394 3:0.78685164 4:3.8862129 5:1.1544025 6:5.2794523 7:0.55623952 8:2.3963823 9:0.42069132 10:0.27242997 
1.185110470866004 1.568496397494042 1:7.7204939 2:43.505779 3:0.61634067 4:2.7443405 5:1.4132093 6:7.1693614 7:0.65603943 8:3.7105595 9:0.5432127 10:0.24140293 
0.9551612057752071 1.265221565176893 1:4.6835632 2:22.013488 3:1.3782109 4:7.6508299 5:0.4467979 6:1.659726 7:0.38572924 8:2.2076629 9:0.66309447 10:0.29129664 
1.055421428107919 1.332111048677299 1:5.6888554 2:26.740886 3:1.3495165 4:7.507718 5:0.47497818 6:2.5647407 7:0.72374407 8:3.4126874 9:0.6548338 10:0.31924844 
1.212792526961315 1.517223404775862 1:3.4158918 2:18.477028 3:0.68322404 4:3.2295205 5:1.1479251 6:5.0813083 7:0.51994519 8:2.6661192 9:0.41925076 10:0.35107158 
1.434387452835662 1.568760433523101 1:7.7579846 2:44.364012 3:1.1737261 4:6.4092649 5:1.0381045 6:5.7921243 7:0.63411957 8:3.4278462 9:0.88864234 10:0.32483202 
0.9281276583992153 1.264767612295577 1:4.5862093 2:20.726798 3:1.6519548 4:7.7899454 5:0.82419718 6:3.4417166 7:0.46190511 8:1.9731682 9:0.30930629 10:0.36300816 
-0.819716929541909 1.456308826350782 1:7.4778637 2:42.753594 3:1.0974108 4:5.5434434 5:1.7282821 6:8.7844816 7:1.9230141 8:10.437676 9:1.5587791 10:8.6941786 
-0.8188917473208409 1.457789453968144 1:4.9996013 2:28.068797 3:1.6269095 4:8.0322263 5:1.8153538 6:9.354908 7:0.710463 8:3.515671 9:0.43665728 10:1.8039002 
-0.8199780505681865 1.459573673505931 1:6.7957831 2:33.609028 3:4.2994547 4:14.746827 5:2.7782089 6:11.321174 7:2.1579122 8:8.3096901 9:1.7762154 10:6.5850097 
-0.819417201133537 1.455464454595522 1:7.7943804 2:31.394679 3:3.7880671 4:18.789377 5:2.1674872 6:6.9729487 7:1.900902 8:7.5675236 9:2.2773207 10:11.448571 
-0.8196432482628176 1.456416173796018 1:10.799546 2:48.738606 3:2.7733265 4:12.980185 5:3.6724036 6:17.42764 7:3.9122871 8:17.587726 9:3.5980234 10:16.521465 
-0.8199769798646157 1.513015107402816 1:8.3732547 2:47.554453 3:3.1747254 4:14.417831 5:2.3737314 6:9.7807483 7:0.97810505 8:5.3593731 9:0.8505234 10:4.3504609 
-0.8197484904945292 1.456029156854431 1:6.274687 2:27.656564 3:2.8742407 4:12.437569 5:1.7242094 6:9.0337785 7:2.068249 8:8.3735444 9:2.1260139 10:9.0660673 
-0.8203528025346345 1.455955982916045 1:7.2130782 2:38.489895 3:2.2511973 4:11.006638 5:2.0520124 6:9.4465854 7:3.4387105 8:14.139033 9:2.2859121 10:10.423128 
-0.8198461979271302 1.456314561338001 1:11.281265 2:57.17221 3:2.6398694 4:11.492625 5:2.1423794 6:8.6512262 7:2.5499263 8:9.1948236 9:1.9810439 10:10.191502 
-0.8203752434472648 1.456107947397793 1:7.2883923 2:34.23069 3:5.0261625 4:24.704536 5:2.7761472 6:13.771208 7:2.1999958 8:11.543906 9:1.6569815 10:8.0386082 
-0.8196736719415019 1.45593668963542 1:12.534202 2:54.500492 3:3.2530067 4:16.263304 5:2.7867177 6:11.901875 7:2.9123173 8:13.769618 9:3.1681322 10:16.004669 
-0.8203601189732947 1.45644068266598 1:10.707561 2:58.731303 3:2.6429889 4:14.403196 5:1.7171736 6:9.6416059 7:2.3603998 8:13.271785 9:1.0227454 10:5.7947485 
-0.8214090374832872 1.456455252387675 1:4.9222939 2:19.410987 3:2.5787795 4:9.4338836 5:1.4477788 6:7.8804276 7:0.78432403 8:3.7865473 9:0.88383829 10:4.3977299 
-1.288234616435756 1.466198649729883 1:3.8690249 2:17.716265 3:0.96852656 4:3.4950578 5:0.6715891 6:2.5446438 7:0.5549468 8:2.1723643 9:0.47834453 10:1.8804132 
-0.8197236179989218 1.456055289708186 1:17.036706 2:88.938624 3:2.3209501 4:10.573017 5:1.7918794 6:7.3344939 7:4.0834651 8:22.727399 9:2.3997955 10:11.385212 
-0.820064179931229 1.459175187512249 1:10.599366 2:48.329193 3:3.3416163 4:15.479393 5:2.4918573 6:13.54724 7:1.1430018 8:5.4047004 9:1.689416 10:8.7378289 
-0.4821691407722641 0.8262450502481269 1:14.934902 2:60.633996 3:1.4930918 4:7.2235142 5:1.4000467 6:6.572716 7:1.4537171 8:6.1370717 9:1.3262531 10:6.0305494 
-0.7978854848827874 1.419877991219331 1:8.9497986 2:40.70869 3:2.0598707 4:10.770559 5:1.1037599 6:5.6708397 7:1.4178855 8:7.66264 9:0.79392699 10:4.1258652 
-0.8199749264995652 1.45607768137575 1:11.044993 2:46.116652 3:1.9060143 4:9.7314633 5:1.3542167 6:6.8180704 7:1.9285153 8:10.630001 9:1.7991953 10:9.9972426 
-4 1.485287258565227 1:0.78706466 2:7.2550722 3:0.22613399 4:0.9872544 5:0.22040351 6:0.95811316 7:0.21754557 8:1.0783778 9:0.20956174 10:1.1640731 
-0.8240602446830786 1.417367244428839 1:4.8308067 2:28.36639 3:0.78939885 4:4.1081213 5:1.1801035 6:6.4274427 7:0.89074438 8:4.4469512 9:0.54727466 10:2.1195592 
-1.553437358344168 1.503434927718408 1:1.9715782 2:13.833526 3:0.61682554 4:2.711728 5:0.30098421 6:1.2147594 7:0.17249359 8:0.91711207 9:0.21774718 10:1.0688995 
-0.7823290461060224 1.322621550018956 1:3.3968972 2:21.977861 3:0.37826918 4:2.175431 5:0.79596125 6:4.5188502 7:0.49242845 8:2.8081989 9:0.34246355 10:1.7796496 
-0.7006790553362932 1.599806703500893 1:6.6656807 2:29.482153 3:1.2761564 4:6.6675721 5:1.1724159 6:4.843527 7:0.69561783 8:2.8845473 9:0.86601264 10:4.9045785 
-0.7897981740605035 1.414342738807161 1:7.6781962 2:37.272997 3:0.97862706 4:3.8362475 5:0.63680358 6:2.8082122 7:1.0041966 8:5.5896212 9:1.054585 10:0.9448467 
-0.8036211354170827 1.427383584194538 1:10.327583 2:49.738902 3:1.0540918 4:4.9505441 5:1.4730483 6:7.856865 7:0.8923061 8:4.4752658 9:0.74591125 10:0.22219868 
-0.8035302828743233 1.473368396798492 1:5.9239945 2:20.702887 3:0.71822407 4:2.7829861 5:0.47279682 6:2.1765275 7:0.82409124 8:4.2899411 9:0.45437367 10:0.37030921 
-0.5620447571991812 1.044338048360399 1:5.5093258 2:24.658381 3:1.0391617 4:5.1829705 5:0.69526497 6:3.5512425 7:1.1868256 8:5.2192738 9:0.91511925 10:0.2872761 
-0.8002997038775017 1.422825227095245 1:7.917292 2:34.764041 3:1.0095792 4:4.4542689 5:0.96913469 6:4.0087758 7:1.1571968 8:6.4260975 9:1.0541833 10:5.7792824 
-0.8054410119100189 1.431385390396346 1:8.4693086 2:34.556548 3:0.94748668 4:3.2015928 5:1.5164807 6:7.083366 7:1.0593242 8:5.1771279 9:0.86732875 10:0.39629646 
-0.690055809028146 1.258466366818456 1:5.7255552 2:22.163938 3:0.85568336 4:4.2064318 5:0.8149305 6:3.8284432 7:0.88621121 8:4.1019452 9:0.8971315 10:3.1172344 
-0.7439195090109101 1.313281133625764 1:6.4101698 2:31.441293 3:0.82688409 4:3.5185913 5:0.71270958 6:3.0886783 7:0.72540114 8:2.6634169 9:1.0847922 10:2.3632149 
-1.02215656888222 1.447540166706336 1:7.1286182 2:43.116105 3:1.2626065 4:7.1030142 5:1.064117 6:6.0463724 7:1.0126681 8:5.6864246 9:0.94012522 10:0.26054892 
-2.127049847026023 1.102677925926476 1:5.8639142 2:24.282692 3:1.144926 4:4.7327172 5:0.67677633 6:2.8230665 7:0.58932387 8:2.1181457 9:0.95161699 10:0.29431678 
-0.6412326290598428 1.028165519970026 1:7.5165211 2:30.203217 3:1.349811 4:4.9695517 5:1.1982342 6:4.5050238 7:0.99829303 8:3.8610709 9:0.63422324 10:2.7626663 
-0.4577869750820004 0.8574181709471911 1:7.6381606 2:32.129468 3:1.3473974 4:5.789679 5:1.0911847 6:4.6656259 7:0.92203288 8:4.1539589 9:1.0457128 10:4.670951 
-1.019217291263203 1.447965963617393 1:9.2730226 2:43.556104 3:1.3865282 4:5.6136813 5:1.4548042 6:7.2423363 7:0.57007627 8:2.3981239 9:1.0123753 10:1.5171843 
-0.7927507513229307 1.40076187174185 1:7.2771102 2:35.364287 3:1.7561689 4:7.0469164 5:0.74542864 6:3.0585485 7:0.4312462 8:2.4078545 9:0.97246171 10:0.21051771 
-0.8200490194135321 1.455759155041934 1:7.8200544 2:38.669355 3:1.5262004 4:8.0294306 5:1.9290278 6:9.9365146 7:1.3321319 8:4.863458 9:0.80795509 10:10.55624 
-0.7957148596109609 1.415687490602578 1:7.5563478 2:33.241657 3:1.6211859 4:6.5840706 5:1.140518 6:5.8175581 7:1.0288065 8:5.0063346 9:0.46515848 10:0.33491426 
-0.821472443650563 1.45717999687394 1:6.9632758 2:29.303506 3:2.4389919 4:10.926978 5:0.87892295 6:3.2973595 7:1.3663349 8:5.3472958 9:1.1438194 10:2.0599185 
-1.238762599798672 1.00212967258748 1:6.7274722 2:26.382093 3:1.2205951 4:4.9344884 5:0.8849096 6:3.8321368 7:0.82846721 8:3.4442101 9:0.75744691 10:0.86763764 
-0.8193857141933411 1.455687070958021 1:9.7869604 2:54.39996 3:0.77569831 4:3.7055483 5:1.6768649 6:9.3688409 7:1.221755 8:6.8302275 9:1.1041021 10:0.28499092 
-0.5884132541063748 1.176994871667708 1:5.3397028 2:22.239523 3:0.78684787 4:2.7929767 5:0.55734443 6:2.7074763 7:0.44815712 8:2.049302 9:0.42167864 10:1.9765589 
-0.7734198084785011 1.36494403559478 1:6.5108956 2:35.187877 3:0.92345948 4:4.1697007 5:0.54066631 6:2.9180539 7:0.69987313 8:3.7187391 9:0.67143438 10:3.1728563 
-0.791070272159662 1.436931693356045 1:8.9931923 2:38.304127 3:1.628467 4:6.8424258 5:1.1388477 6:4.0714225 7:0.74024732 8:3.660997 9:0.69698543 10:0.22030004 
-0.5537534084961814 0.6077169004637026 1:6.1315337 2:24.927839 3:1.1498138 4:3.53698 5:0.90258696 6:3.6728292 7:1.0300723 8:4.06139 9:0.82308261 10:0.22773086 
-0.2546332631552982 0.3677284458020968 1:6.9884286 2:31.878379 3:1.4407487 4:5.9832701 5:1.0574718 6:4.5806594 7:0.93801997 8:3.9841538 9:0.71457473 10:4.7620443 
-0.8025462593934118 1.425018879524116 1:11.119758 2:50.268413 3:0.90191523 4:3.7832684 5:1.0311255 6:4.2276945 7:1.0154224 8:4.3454857 9:0.46620927 10:0.27990099 
-0.8181366022782134 1.452327075636149 1:11.514558 2:49.747478 3:1.3698085 4:6.8272635 5:0.73039613 6:2.6758338 7:1.1002645 8:4.7559073 9:0.47235886 10:3.7087731 
-0.4821691494566064 0.9759837019113665 1:14.934902 2:60.633996 3:1.4930918 4:7.2235142 5:1.4000467 6:6.572716 7:1.4537171 8:6.1370717 9:1.3262531 10:4.838778 
-0.7966943948400155 1.414696413820125 1:8.9497986 2:40.70869 3:2.0598707 4:10.770559 5:1.1037599 6:5.6708397 7:1.4178855 8:7.66264 9:0.79392699 10:0.33893027 
-0.8200554163091771 1.455618621413961 1:10.983153 2:45.914778 3:2.0881883 4:10.262908 5:1.4557493 6:6.4238351 7:0.89092112 8:3.4982595 9:1.4540537 10:0.3344539 
-0.4063231655227657 -0.5418219697476676 1:14.006944 2:61.657787 3:2.9232547 4:14.066699 5:1.2225169 6:5.8117796 7:1.0604404 8:5.1666514 9:1.6411409 10:7.4793422 
-0.259139696794876 -0.344547770424132 1:16.049686 2:64.390175 3:2.3982521 4:9.2140771 5:1.5469542 6:6.5585318 7:1.2996688 8:5.9663597 9:1.3656185 10:6.2735536 
-0.4060851833153803 -0.5424086044625313 1:11.901276 2:59.343913 3:4.0556565 4:15.851954 5:1.5395459 6:5.754625 7:1.1593283 8:4.3227446 9:1.3706353 10:4.1042504 
-0.4072337720203413 -0.5520334056881631 1:7.3492386 2:37.162348 3:3.360633 4:13.681773 5:2.1160561 6:11.117214 7:1.4558294 8:6.2933343 9:1.1226936 10:6.3200582 
-0.3528148903204307 -0.4601990305780914 1:3.5146669 2:22.802909 3:1.8864016 4:8.2334387 5:1.1307616 6:4.0121766 7:0.52051609 8:2.5260592 9:0.92001312 10:4.6709876 
-0.4077266752573911 -0.5543499268551089 1:5.8271405 2:27.373338 3:1.9527345 4:8.5037044 5:1.8397079 6:8.0855773 7:1.3996764 8:6.3775992 9:1.2244668 10:4.5584966 
-0.4070800081228724 -0.5527738503526549 1:7.0082498 2:39.89843 3:2.3861526 4:9.2743003 5:0.86695446 6:4.0691763 7:1.053964 8:4.2415471 9:1.000912 10:3.8067222 
-0.4576022034180719 -1.110450430699282 1:5.6254159 2:29.565105 3:1.8881839 4:7.3174791 5:0.88802082 6:3.618328 7:0.51630684 8:2.468485 9:0.70338849 10:3.9573542 
-0.4547479720992557 -0.2181023038691089 1:0.13232833 2:11.317086 3:0.091569155 4:0.45201841 5:0.063838866 6:0.24652 7:0.081266348 8:0.35116583 9:0.065877606 10:0.32069469 
-0.3988320578177811 -0.54902791377212 1:9.4472807 2:46.615149 3:3.8449041 4:13.779258 5:2.0212996 6:8.8677613 7:1.4562087 8:5.7868047 9:1.695041 10:7.9802916 
-0.2847680078387502 -0.3800236102422634 1:7.6016014 2:41.345928 3:3.2146915 4:16.094769 5:2.0192202 6:7.8293166 7:1.4062914 8:5.1363522 9:1.5187813 10:6.4794095 
-0.4077448329392314 -0.5440467033265599 1:18.751575 2:82.507229 3:3.9827318 4:18.911716 5:1.9946381 6:8.0844725 7:3.1865354 8:16.301806 9:1.7677028 10:7.277773 
-0.4074290122633191 -0.5444192760704437 1:17.843309 2:79.034521 3:2.9136665 4:15.106109 5:2.1466746 6:7.0104217 7:4.493651 8:22.139305 9:2.3785138 10:11.712876 
-0.4073718222725811 -0.5435867473836131 1:21.66797 2:72.494327 3:4.1852131 4:15.077686 5:6.6979824 6:27.836932 7:3.6289943 8:13.50272 9:3.4826249 10:14.92468 
-0.4074230440868845 -0.5440623585361221 1:11.046317 2:58.557833 3:4.7340508 4:19.008487 5:3.0753715 6:13.378847 7:1.5680257 8:5.8922666 9:0.91933879 10:4.3673222 
-0.2592965966895407 -0.364761230986059 1:15.478287 2:64.378027 3:2.5455046 4:8.4738484 5:1.5359593 6:5.7535981 7:1.3100298 8:5.641971 9:1.2525011 10:5.5135289 
-0.4070514300150091 -0.5440280055758805 1:1.9009673 2:23.254682 3:1.8339909 4:10.376966 5:1.6787373 6:9.5266804 7:1.6569566 8:9.4175795 9:1.300928 10:7.4732374 
-0.4067030654408469 -0.543921670450016 1:7.4527222 2:53.531321 3:1.8195564 4:9.1006694 5:0.96330662 6:4.8368537 7:1.6880993 8:8.6228939 9:1.522312 10:7.6893469 
-0.350252213140241 -0.4622127433162229 1:3.0113 2:24.416844 3:1.7618853 4:8.6675865 5:1.1662079 6:4.683161 7:0.92352044 8:3.6082444 9:0.8613283 10:3.2361134 
-0.2937919586765102 -0.3924980917361682 1:7.7693113 2:41.093137 3:3.5974208 4:17.344289 5:1.8861583 6:6.9024913 7:1.607564 8:6.0593477 9:1.560741 10:6.8268436 
-0.4103559862761307 -0.6192821332132917 1:1.8179282 2:21.407474 3:1.1584762 4:4.8140829 5:1.0683883 6:4.1788989 7:0.84868287 8:2.846 9:0.69151082 10:2.7193005 
-0.3948706830290855 -0.5350844034481812 1:6.0893827 2:44.481935 3:3.1226203 4:14.092847 5:1.8139493 6:8.3861387 7:1.3102692 8:5.5818912 9:1.1787156 10:6.2824152 
-0.4074283551609324 -0.5437605001042327 1:13.746755 2:63.655483 3:3.3288169 4:11.965616 5:3.3159338 6:15.052746 7:1.4800367 8:4.7969438 9:1.8222083 10:8.7057223 
-0.4072619304426644 -0.5438363828487 1:10.616175 2:35.092452 3:4.2135099 4:12.511459 5:2.130407 6:8.2077924 7:2.0329526 8:8.4990194 9:1.4541478 10:6.9321187 
-0.3889658062640237 -0.5206122427732151 1:6.7090285 2:45.254426 3:2.6152883 4:12.644427 5:1.395847 6:6.0574895 7:1.4816569 8:7.3668945 9:0.93264362 10:3.955496 
-0.381180541636666 -0.517306948470275 1:8.35612 2:46.045532 3:3.9788059 4:18.496647 5:1.9417938 6:9.4661589 7:1.34675 8:6.0676589 9:0.94232381 10:4.1699302 
-0.4067606789888681 -0.5431078252423868 1:15.05732 2:55.8925 3:5.0174949 4:18.425483 5:2.0220285 6:8.9407677 7:1.7679573 8:6.3831109 9:1.7250321 10:7.0369694 
-0.3805321047485556 -0.5081212729872699 1:10.223716 2:44.658691 3:3.5090588 4:18.913014 5:2.2156382 6:10.314496 7:1.8860643 8:6.8046312 9:1.4506699 10:5.9028794 
-0.4073806311520125 -0.5444552999719392 1:20.060193 2:65.093378 3:6.3702999 4:24.596163 5:7.5875342 6:27.12619 7:7.2404562 8:23.360162 9:4.589541 10:15.225394 
-0.4066568403162074 -0.5429373402000877 1:11.671689 2:51.761518 3:3.2055429 4:11.914816 5:2.4546042 6:13.294315 7:2.4450475 8:13.012616 9:1.6845108 10:7.5964679 
-0.3791422163606748 -0.5064443631344389 1:11.886803 2:53.110831 3:4.2817767 4:13.825291 5:3.3140666 6:14.127784 7:2.2334685 8:7.7437075 9:2.2458173 10:8.7030983 
-0.3939601584479366 -0.6288014918761129 1:9.4197767 2:48.484326 3:2.7021617 4:12.714382 5:2.1731427 6:9.7577481 7:1.5912436 8:7.4842288 9:1.2344663 10:5.1222235 
-0.3788166061618861 -0.5079015171458814 1:12.108863 2:51.524169 3:4.1200636 4:14.060972 5:3.2997422 6:11.746314 7:2.1308675 8:7.4088392 9:2.1511132 10:10.143996 
-0.407202512697149 -0.5438545914505045 1:17.248495 2:62.150942 3:5.4419818 4:21.361381 5:4.0232318 6:16.277508 7:2.8388707 8:9.4038868 9:2.7008883 10:10.624081 
-0.4073654768979952 -0.5435842562428821 1:22.012488 2:74.497869 3:4.1469197 4:13.207722 5:4.5025928 6:22.429249 7:2.7662605 8:12.8642 9:3.1470627 10:15.015913 
-0.4074206571521758 -0.5440577694471813 1:17.754995 2:68.287444 3:4.9682107 4:15.680289 5:3.691371 6:10.685304 7:2.7392186 8:10.30405 9:3.0608765 10:11.289543 
-0.4065484914661419 -0.5427742224756478 1:14.311513 2:55.562897 3:3.851844 4:18.511943 5:1.7445821 6:6.9449281 7:0.99606527 8:3.3900708 9:1.1377256 10:3.8436865 
-0.4055681973138093 -0.5417903582380663 1:14.223899 2:62.5942 3:3.2630007 4:13.820329 5:2.586119 6:9.2055907 7:2.3944122 8:9.7487668 9:1.97177 10:8.3506426 
-0.4062150663364026 -0.542807475406817 1:18.221898 2:75.89789 3:3.7933862 4:13.982533 5:3.1168206 6:14.701287 7:2.4336191 8:10.442681 9:2.5018627 10:12.445664 
-0.4069905320561087 -0.5433705089736913 1:12.018905 2:55.125789 3:3.8111675 4:18.006625 5:3.1486186 6:12.80138 7:2.4417152 8:9.9675321 9:2.0138782 10:10.122491 
-0.3889795554449239 -0.5194072292988311 1:21.488428 2:68.383791 3:2.7768372 4:11.483539 5:2.5063905 6:8.4449778 7:1.9400164 8:7.3209396 9:2.1901243 10:9.1787876 
-0.4074265241551064 -0.5440051958956273 1:17.753446 2:61.196379 3:7.103643 4:29.551732 5:4.889312 6:20.866358 7:3.4930846 8:11.550866 9:2.9810256 10:12.297838 
-0.4072404600837306 -0.5438772277347436 1:16.702134 2:71.36341 3:6.8505136 4:28.540741 5:4.3147417 6:18.952886 7:2.5144289 8:8.7960386 9:2.1302176 10:7.0699706 
-0.4073628109050959 -0.5444862003590443 1:23.807751 2:82.859762 3:4.7496603 4:19.585387 5:4.7495868 6:24.391377 7:2.2590806 8:7.6690619 9:3.2557302 10:11.970241 
-0.4074456376640537 -0.5444549451498665 1:17.226114 2:66.331137 3:4.2709011 4:14.975947 5:3.6791052 6:14.579985 7:3.6402655 8:14.237411 9:3.963396 10:14.516957 
-0.4073987102609355 -0.54406571898767 1:20.66553 2:65.401368 3:4.2349791 4:14.439226 5:3.721412 6:12.964465 7:3.8587723 8:12.5671 9:5.5757918 10:19.723154 
-0.4074359701062337 -0.5444611851802471 1:21.077917 2:81.786792 3:4.3351276 4:22.805494 5:2.5684529 6:11.629985 7:2.0661931 8:8.7836591 9:2.5802034 10:9.8487739 
-0.407443034644451 -0.5442529924741706 1:16.796825 2:70.201782 3:5.8691691 4:21.537447 5:3.1167682 6:11.617426 7:3.4086257 8:14.985612 9:3.5427568 10:18.729724 
-0.4073241171206899 -0.5437442807701538 1:16.159888 2:67.143444 3:5.7822505 4:25.096823 5:4.3649775 6:21.215263 7:2.4778964 8:11.129679 9:2.5149156 10:12.047526 
-0.4073229376045394 -0.5438728003949335 1:20.271083 2:79.728329 3:5.2822533 4:19.055523 5:4.9706397 6:20.333823 7:3.6240044 8:15.843795 9:3.5306767 10:16.740706 
-0.4073632981465629 -0.5437544590259189 1:4.1491507 2:32.19725 3:2.7448146 4:11.797716 5:1.9423966 6:7.9257179 7:1.4020288 8:5.3993735 9:1.221892 10:6.4694021 
-0.4065920599080395 -0.5433394717810831 1:14.26383 2:66.1635 3:3.2530453 4:15.465832 5:2.2994357 6:12.167906 7:1.9718541 8:9.173251 9:1.3734395 10:6.0243599 
-0.4074229144686222 -0.5438904181504627 1:23.512756 2:84.462099 3:6.0645959 4:20.732198 5:4.3827433 6:20.843958 7:3.6424826 8:14.138413 9:3.9607766 10:20.032329 
-0.404179949953811 -0.5399358353658653 1:12.577856 2:48.662314 3:4.2133042 4:15.245339 5:2.9041647 6:12.101106 7:2.5555961 8:9.8101533 9:2.1474945 10:7.4217789 
-0.3986773594546091 -0.532013598066592 1:11.247816 2:50.223151 3:3.7318474 4:14.933663 5:1.929408 6:7.7132022 7:1.7523926 8:9.9007198 9:1.0981431 10:5.2640357 
-0.4047349260207916 -0.5405844771669073 1:13.207456 2:70.939773 3:2.9700448 4:15.546538 5:1.562722 6:7.0279398 7:1.4586796 8:6.686541 9:1.6124759 10:8.6171547 
-0.4061387589699516 -0.5422716307861773 1:19.752569 2:78.383426 3:3.3514753 4:12.121254 5:2.8665981 6:12.805868 7:2.5453909 8:11.568664 9:2.4367591 10:9.9894036 
-0.4074822278550451 -0.544027706625814 1:34.063856 2:96.137686 3:7.4053589 4:23.631261 5:7.2401598 6:31.230745 7:7.1847684 8:23.259493 9:5.7484529 10:29.053835 
-0.4072838638046223 -0.5439293885566391 1:16.333871 2:70.08997 3:3.9903799 4:13.802277 5:2.0989582 6:7.2473459 7:2.1943221 8:10.356567 9:1.3989613 10:5.7286996 
-0.4076269374746025 -0.5437140014741388 1:19.113139 2:76.478923 3:3.0861393 4:10.700126 5:2.4065332 6:8.772553 7:1.3141161 8:4.7605771 9:1.468856 10:4.8346944 
-0.3062052963596419 -0.4105573341021625 1:9.0174836 2:47.78128 3:2.5338652 4:10.183727 5:1.5932549 6:6.092624 7:1.2401577 8:5.272947 9:1.0991055 10:4.5408481 
-0.4073858379011169 -0.5439447102918591 1:24.738945 2:94.099138 3:8.4775636 4:37.896824 5:4.1752239 6:12.833889 7:3.6624545 8:11.851004 9:4.3562342 10:17.643762 
-0.4072959400446123 -0.5438823132599568 1:10.200856 2:45.442835 3:4.4130487 4:18.850212 5:1.6968535 6:6.6013551 7:1.139948 8:5.1012384 9:2.1860806 10:10.759368 
-0.2789016281268819 -0.3732949315231608 1:9.1676018 2:46.241131 3:2.6386561 4:10.84969 5:1.4841128 6:6.5065684 7:1.2003534 8:6.292871 9:1.0660539 10:4.8113532 
-0.4013535103679797 -0.5360567180569562 1:12.022701 2:58.227552 3:2.9649461 4:11.483204 5:1.8825169 6:8.7649895 7:1.1690739 8:4.8984436 9:1.1101814 10:4.5349743 
-0.4074011251490329 -0.5438546056522079 1:26.347165 2:82.729352 3:7.6179972 4:27.237834 5:6.8475916 6:29.652907 7:3.5939769 8:14.968876 9:4.2920784 10:16.508731 
-0.4076159973960076 -0.5440050915938885 1:32.236633 2:98.929446 3:7.167478 4:28.250422 5:4.5118324 6:14.578893 7:4.5801254 8:15.735921 9:3.6444319 10:15.663765 
-0.407240026281996 -0.5443610495215599 1:11.567194 2:59.023067 3:4.6895827 4:15.839492 5:3.6312686 6:12.579653 7:3.5028268 8:17.116444 9:1.795279 10:7.2021697 
-0.4075950756039447 -0.5440680331270893 1:23.443274 2:76.498448 3:4.7069352 4:16.163419 5:4.7872156 6:17.497937 7:3.7479687 8:15.934077 9:2.9892235 10:10.814865 
-0.3545785832842018 -0.4732372236519795 1:13.211004 2:51.020255 3:4.3578006 4:16.720647 5:2.5121942 6:9.8059311 7:1.7663081 8:8.1332606 9:1.4384072 10:5.4328277 
-0.4073611875138275 -0.5440638961691288 1:17.707444 2:71.770358 3:3.4314042 4:11.231124 5:2.6556728 6:13.678221 7:3.2264923 8:14.877119 9:2.7435063 10:14.223031 
-0.3998690982861189 -0.5355187214564363 1:15.250467 2:59.345781 3:3.4052929 4:11.425292 5:2.1732504 6:8.5627549 7:1.9479263 8:6.6676009 9:1.4705197 10:5.6518991 
-0.4074677312786009 -0.5442335239622282 1:20.884193 2:83.729349 3:4.9519659 4:16.68826 5:3.8878803 6:16.171122 7:3.5282007 8:15.042503 9:2.9611634 10:10.922069 
-0.407417227110754 -0.5440621124206335 1:20.465988 2:75.763557 3:4.7325659 4:17.25987 5:3.7337233 6:13.026336 7:4.2548662 8:15.059605 9:5.0740585 10:23.327514 
-0.4070040863474853 -0.5437052085820998 1:27.385316 2:92.638754 3:7.864754 4:27.062375 5:7.1259296 6:22.657201 7:5.2766839 8:23.422873 9:6.894197 10:28.452117 
-0.4074492760285424 -0.5439853536966739 1:11.617792 2:68.952455 3:4.1380317 4:19.689082 5:2.6030427 6:11.837178 7:2.6510084 8:14.466582 9:2.2680615 10:9.7421262 
-0.4030325871071604 -0.5379450617226886 1:17.271806 2:83.268195 3:3.8064156 4:15.850235 5:2.5911245 6:10.809658 7:2.1815695 8:9.2989521 9:2.1081823 10:8.2351193 
-0.4074250223431817 -0.5444465425548539 1:30.259401 2:94.425931 3:6.4334891 4:21.573986 5:7.0584679 6:27.249641 7:6.0201307 8:18.441529 9:6.8282445 10:25.300696 
-0.4034418417006533 -0.5385431493868744 1:14.401515 2:61.262765 3:3.571972 4:13.233191 5:1.6541799 6:5.902819 7:1.7867786 8:8.8951341 9:0.99853105 10:4.2863576 
-0.3640776359806818 -0.486629694715618 1:11.570463 2:52.228268 3:4.0201638 4:18.391703 5:2.9180108 6:10.80538 7:2.0027339 8:8.5588044 9:1.4015079 10:5.6153399 
-0.4064325613354321 -0.5425644340976986 1:9.1189069 2:53.298168 3:2.7245285 4:12.322308 5:1.6217225 6:7.7535154 7:1.5279315 8:6.5938249 9:1.6176505 10:6.4504798 
-0.4008541242538182 -0.5431587035029732 1:7.7206251 2:50.33763 3:2.854631 4:13.418345 5:2.6947911 6:11.436837 7:1.4485203 8:6.0518125 9:1.5785203 10:7.3620248 
-0.4071643602879573 -0.5440433288182472 1:13.320077 2:80.459806 3:4.8006804 4:17.464014 5:4.0430233 6:16.669583 7:2.6228973 8:11.77374 9:3.3378622 10:13.622543 
-0.4069672821724462 -0.5440279761092485 1:26.096543 2:88.814397 3:6.0097927 4:22.403054 5:2.923595 6:10.263365 7:5.381306 8:21.54988 9:3.9336901 10:19.613141 
-0.4075834035213515 -0.5439182815698775 1:30.080702 2:98.843811 3:8.6844444 4:30.380438 5:6.2617221 6:19.99262 7:6.17559 8:20.655474 9:4.1425825 10:14.524427 
-0.4064637478017645 -0.5438267617135956 1:13.013434 2:55.532834 3:2.8792388 4:11.924549 5:2.771734 6:11.905939 7:2.4060016 8:10.161334 9:1.8098186 10:6.7579302 
-0.4077937087965423 -0.5438595542250715 1:34.686383 2:105.23704 3:7.0034129 4:23.425601 5:8.6963596 6:31.565101 7:7.5016636 8:29.404806 9:4.8888455 10:14.20695 
-0.4074688655237898 -0.5440646733692194 1:22.457245 2:81.598956 3:5.4140636 4:27.580899 5:5.1053303 6:18.761912 7:3.2781948 8:13.211695 9:2.4620381 10:10.914897 
-0.4070257196395659 -0.5442349495322752 1:11.104753 2:76.277903 3:3.1232671 4:14.767165 5:2.5472384 6:10.452117 7:1.6355905 8:7.501772 9:1.796742 10:10.353198 
-0.4039848092071689 -0.5394509593548498 1:12.616866 2:64.900543 3:3.7862279 4:14.524769 5:2.021499 6:7.4851932 7:2.112868 8:9.1603281 9:1.6242737 10:5.1945714 
-0.4078957989907889 -0.5442525614125928 1:35.561737 2:92.977493 3:6.4687229 4:20.581513 5:7.2263689 6:25.534013 7:5.8698877 8:22.6628 9:6.153513 10:28.059528 
-0.4046987116058927 -0.54129329440537 1:13.729605 2:71.940941 3:3.6878083 4:18.730338 5:2.4686746 6:9.6566629 7:1.8940354 8:7.3111644 9:1.8837349 10:8.0660194 
-0.4071873808691049 -0.543985363214746 1:29.275286 2:92.795398 3:5.633641 4:19.926711 5:3.8771624 6:17.227016 7:7.1790382 8:29.110494 9:3.1453506 10:9.9951751 
-0.4074287671336118 -0.544464607780343 1:18.441119 2:89.973346 3:5.4322358 4:22.488798 5:1.9951997 6:9.2797159 7:1.4823489 8:8.0340393 9:1.8864277 10:9.3815842 
-0.4075833431276536 -0.5439935795706859 1:17.315255 2:84.039617 3:3.9626715 4:16.136945 5:4.1174767 6:21.374258 7:4.4116124 8:20.044053 9:3.5313991 10:14.658706 
-0.4074684839883372 -0.5440425075638841 1:29.260768 2:98.737974 3:7.5852313 4:24.401632 5:4.7661957 6:17.033381 7:6.0284915 8:24.466726 9:7.5388268 10:24.568915 
-0.4073665036350108 -0.5441699073250568 1:15.925231 2:91.826647 3:3.8990553 4:15.921043 5:2.3702359 6:9.4395032 7:2.8172297 8:12.490509 9:2.8150851 10:11.068392 
-0.4071508525156037 -0.5438764517352286 1:17.2217 2:81.701354 3:4.8906549 4:21.132242 5:2.995145 6:11.018399 7:2.6539771 8:12.72844 9:3.720848 10:15.418269 
-0.4073117249309423 -0.5435543555926543 1:31.675508 2:98.961971 3:5.4420539 4:23.451895 5:5.8530383 6:17.705832 7:5.6013332 8:22.501441 9:4.1182424 10:14.529123 
-0.4074078836815177 -0.5440212199623309 1:36.42234 2:105.60323 3:7.9272395 4:27.896273 5:6.5396341 6:24.978085 7:4.3520467 8:13.660109 9:4.6407392 10:20.40678 
-0.4030538930541644 -0.5382354728056442 1:14.792565 2:83.605686 3:4.0892895 4:16.097883 5:2.0815495 6:8.9995556 7:1.9140067 8:6.521699 9:1.8656588 10:7.6369082 
-0.4071644033642386 -0.5440062624140383 1:30.73287 2:108.21976 3:4.3503114 4:20.015796 5:4.4495256 6:15.676578 7:4.3282403 8:14.904681 9:4.531625 10:17.763712 
-0.4073628109051056 -0.5437242980967354 1:27.228491 2:129.83929 3:8.5045472 4:33.522272 5:5.2441904 6:21.148953 7:5.8893373 8:22.241713 9:6.1863656 10:30.961553 
-0.4072820934395747 -0.5435974703314852 1:36.101545 2:117.94079 3:8.1421192 4:31.937144 5:6.7049398 6:22.022919 7:5.2292139 8:17.874068 9:6.7512152 10:26.736562 
-0.4073742838325801 -0.5436224808370089 1:42.603728 2:142.38274 3:8.673717 4:33.773298 5:9.2787158 6:43.909364 7:5.7811147 8:22.857461 9:6.1538554 10:22.236614 
-0.407267829511253 -0.544005099792614 1:48.537306 2:140.07016 3:10.368415 4:32.039653 5:9.5725782 6:36.695158 7:6.1960545 8:20.438187 9:7.253841 10:23.615065 
-0.407426612216001 -0.544005313449558 1:33.465087 2:128.67754 3:5.909684 4:26.855131 5:8.1543484 6:33.72042 7:6.2939476 8:26.038714 9:5.3588206 10:21.990055 
-0.4073117348202742 -0.5442991788166051 1:30.61673 2:138.70263 3:6.9650666 4:29.36269 5:7.4325155 6:33.012571 7:5.3811843 8:21.582251 9:7.9478579 10:41.501417 
-0.4074520194618685 -0.5438015036144647 1:31.948665 2:133.69099 3:5.6677771 4:20.062874 5:6.4611868 6:24.893308 7:6.4804277 8:33.137275 9:5.5274406 10:21.34287 
-0.4074342628770296 -0.5444552998336765 1:33.161069 2:134.72116 3:7.8372836 4:31.551318 5:6.9238304 6:33.162669 7:7.1387328 8:29.010984 9:5.0380363 10:18.17893 
-0.4073111697926165 -0.5439276168378651 1:39.430182 2:137.54575 3:8.0342154 4:37.195706 5:6.9847823 6:32.650287 7:5.6269551 8:21.105567 9:6.202094 10:23.442084 
-0.4074492831560855 -0.5443455249507225 1:30.952317 2:138.63491 3:8.1657123 4:34.65101 5:8.8569774 6:42.544176 7:6.800915 8:25.769971 9:12.228286 10:57.224263 
-0.4074323648968164 -0.5444778255608144 1:43.660896 2:156.18736 3:8.7431229 4:35.411899 5:6.680827 6:31.610094 7:9.6549329 8:42.84645 9:6.8409584 10:25.021822 
-0.4078688074312356 -0.5435960861086073 1:26.360395 2:130.64391 3:8.5057421 4:28.772958 5:7.2620456 6:31.225715 7:7.8094859 8:32.738082 9:7.5826917 10:29.714926 
-0.407150894587421 -0.5440638141273696 1:38.567331 2:182.69377 3:6.7093007 4:29.320355 5:7.2955076 6:28.072099 7:9.0704028 8:44.27796 9:7.3937736 10:30.853913 
-4 -0.5050955365498747 1:1.2587705 2:10.615186 3:0.12419419 4:0.60808102 5:0.25512861 6:1.484849 7:0.11475199 8:0.54748531 9:0.15953852 10:0.86129987 
-0.4070362685987776 -0.5432053555905147 1:11.871017 2:51.96079 3:2.6346469 4:11.301237 5:1.2107305 6:6.6983269 7:2.3911736 8:12.670823 9:1.06947 10:4.7983304 
-0.388833381158362 -0.5195019403430721 1:18.939219 2:66.768369 3:3.743618 4:12.299404 5:2.2930546 6:8.1146256 7:2.1569232 8:7.1169594 9:2.2386392 10:8.0326564 
-1.018960733326538 -0.5441088645255406 1:1.9895601 2:9.9913757 3:0.2340658 4:1.0792359 5:0.19636793 6:1.1070529 7:0.33532408 8:1.9664994 9:0.1180414 10:4.2241272 
-0.5520975595904791 -1.092534965434169 1:4.3897786 2:21.103201 3:1.0489063 4:4.1891309 5:0.50637539 6:2.2615503 7:0.52781331 8:2.5545198 9:0.43347323 10:0.37907333 
-0.4080632207639773 -0.572410739857501 1:7.3925749 2:41.095997 3:0.77081141 4:4.4086867 5:0.44218412 6:2.3827131 7:0.99829882 8:5.4512148 9:1.8685341 10:0.31062562 
-0.4074390443981912 -0.7252257150926171 1:14.009191 2:58.470269 3:1.6026036 4:5.825095 5:1.3893132 6:6.1580084 7:1.4785641 8:6.1013121 9:0.860845 10:4.3138579 
-0.4071831324928757 -0.6421994669750762 1:9.516961 2:36.353862 3:1.7257021 4:6.7866405 5:1.1626329 6:4.8141014 7:1.2922091 8:4.7966717 9:1.3476122 10:2.5678751 
-0.4070212249240274 -0.5434635411629358 1:14.006944 2:61.657787 3:2.9232547 4:14.066699 5:1.2225169 6:5.8117796 7:1.0604404 8:5.1666514 9:1.6411409 10:0.32690458 
-0.407270049660075 -0.5437242694357103 1:17.004181 2:70.538434 3:2.3916637 4:11.068307 5:2.1973073 6:7.9366803 7:0.88599021 8:3.658653 9:1.007867 10:4.9645421 
-0.6656996682121111 -0.5520252839636545 1:0.26764302 2:13.531019 3:0.065467343 4:0.2638969 5:0.10633482 6:0.41911349 7:0.080607347 8:0.36649007 9:0.088133157 10:0.40216409 
-0.40747176088516 -0.5469556950134599 1:3.846295 2:34.397084 3:0.25457735 4:1.4841676 5:0.7817321 6:4.4600354 7:0.41684119 8:2.420406 9:0.45820106 10:5.4296398 
-0.4071302294666075 -0.5437214178240101 1:15.478287 2:64.378027 3:2.5455046 4:8.4738484 5:1.5359593 6:5.7535981 7:1.3100298 8:5.641971 9:1.2525011 10:0.25006819 
-0.407430251763679 -0.5438036407460939 1:25.230224 2:116.98318 3:3.1889732 4:16.024479 5:3.0239687 6:16.579429 7:1.860785 8:8.8897635 9:3.2604476 10:0.26354686 
-0.4077448077796502 -0.5439251545834907 1:20.922905 2:67.23176 3:2.8446823 4:9.7724141 5:2.447314 6:8.6865414 7:2.426966 8:9.8596694 9:2.0642803 10:0.99491196 
-0.4074484234848496 -0.5437611351532526 1:38.567331 2:182.69377 3:6.7093007 4:29.320355 5:7.2955076 6:28.072099 7:9.0704028 8:44.27796 9:7.3937736 10:0.96831836 
